-0.057887804
-0.15577376
-0.08237033
-0.06595802
-0.66983294
-0.027886193
0.00041018307
-0.07901796
-0.40177408
-0.005256982
0.21152976
-0.16754015
0.14033037
-0.19756171
-0.20690188
-0.027244698
0.2549892
0.04045337
-0.18667582
0.14340934
0.10884366
-0.36103347
-0.1611255
0.0130175855
0.16266443
-0.23142874
-0.12314755
0.3630147
-0.14454196
-0.15926366
-0.12004028
0.1735522
-0.0009843289
-0.13586646
0.12711222
0.18950716
0.0037968797
0.21639132
0.22873077
0.21290843
-0.05904151
-0.049804457
0.15360694
-0.024376713
-0.16438308
-0.11702404
0.0904649
0.10795249
-0.13292891
-0.022561017
-0.057161782
0.12136121
-0.129919
0.19543763
-0.0049585826
0.059565872
0.09106197
-0.18460669
-0.20187624
-0.03369394
-0.10594821
0.119339645
-0.08651192
0.23623094
-0.1784788
0.22104003
0.09029231
-0.110963814
-0.09865184
0.01343709
0.03863221
0.17723875
-0.1545208
0.0015808698
-0.2076775
-0.084263355
-0.16057552
-0.09606164
0.1345795
-0.0912359
-0.18433441
-0.15705043
0.20729688
-0.07248119
-0.14123884
0.04721496
0.080950335
0.038925424
0.17629106
-0.21053065
0.13393041
-0.097069114
0.026539126
-0.04562992
-0.023651725
-0.17130099
-0.8483802
-0.27562705
-0.81743324
0.1269055
-0.10270212
0.105952784
0.09685213
0.08529337
0.11727638
0.1331684
0.008270207
-0.109180994
-0.115875125
0.012680631
-0.09286095
0.12850551
0.14377774
0.23594347
0.076939926
-0.30151922
-0.17327698
-0.13540937
0.010633973
-0.12637827
0.06155805
-0.32229993
0.12677757
-0.0885454
-0.08222965
-0.2061982
-0.029468438
-0.27042174
