0.0035696325
-0.27625728
-0.026487382
0.056448985
-0.16237563
0.017467428
0.059535414
-0.059857517
-0.039035708
0.0826783
0.12003722
-0.0052520833
0.1466055
-0.11042558
-0.27851257
-0.0091682235
0.21006122
-0.058446944
-0.083507724
0.08574978
-0.0004697617
-0.09298526
-0.21973658
-0.02498078
0.07101913
-0.086408414
-0.19366865
-0.042750183
-0.15905635
-0.17384042
-0.1443469
0.17435482
-0.03434938
-0.12583043
0.06521653
0.07940905
-0.018367838
0.14689226
0.14055865
0.13563417
-0.0459841
-0.08682806
0.14477317
-0.054160327
-0.05870751
-0.08945767
0.10911266
0.07268767
-0.1777076
0.038586147
-0.09309593
0.095888115
-0.077785596
0.23766546
0.0040722806
0.09240259
0.061279055
-0.2052569
-0.13811834
-0.06322641
0.10587163
0.12714422
0.052353155
0.30845204
-0.14680398
0.10637569
0.1336853
-0.021222906
-0.05372869
-0.030375708
-0.016522199
-0.0038702572
-0.23450781
0.098920055
-0.12642898
0.04335463
-0.19856185
-0.2550234
0.14562432
-0.011723335
-0.17466879
0.08179293
0.18466431
-0.15656866
0.010303583
0.15700668
0.07300538
-0.026723582
0.24811302
-0.12059422
0.24679
-0.052606203
0.0076586306
0.02478539
0.06406748
0.014682894
-0.19039264
0.17936127
0.04958824
-0.014079707
-0.12685575
0.11486542
0.121631846
0.06579621
0.14716657
0.10082402
-0.033030715
-0.06789448
-0.15494953
-0.026138835
-0.102835186
0.14919694
0.18221734
0.22327167
0.032740984
0.03472477
-0.25369966
-0.07843667
0.029846314
-0.03775706
0.09437044
-0.21798322
0.042171706
-0.2503994
0.004394835
-0.24070464
-0.059390508
-0.17445748
