0.14013204 -0.10914225 0.10605041 -0.067827195 0.4913111 0.14428227 0.009819961 0.07564932 0.3965621 -0.023837036 0.061361942 0.1752057 0.16163866 0.010822887 -0.014864457 -0.10669405 0.035213437 -0.02907248 0.1544617 -0.07381029 -0.04008794 0.3961646 -0.103825636 -0.07799884 0.0029460487 0.34538785 0.003665882 -0.25932026 -0.0024171518 -0.14467701 -0.025733352 0.06332191 -0.27829233 -0.16019744 0.0031487881 -0.1981891 0.2979729 0.020548627 -0.07864335 -0.13141964 0.026178021 -0.27918375 0.012426013 0.098783046 -0.13947916 -0.001787371 0.002065164 -0.4268706 -0.14066765 -0.089833416 -0.075766146 -0.03652945 -0.17439403 0.084504046 -0.026447576 -0.02261085 0.08267827 0.09976757 0.02835171 -0.099838056 0.23141624 0.17010647 0.13502882 -0.09129634 0.22392206 -0.29258996 0.1933212 0.17152327 0.10875137 -0.13549308 -0.028013553 -0.15947014 -0.027344728 0.10233642 -0.03200714 -0.06999814 -0.044859644 0.23062907 -0.014447753 0.1059089 -0.05446508 -0.1246797 0.0014535299 -0.04632844 -0.17610571 -0.042797934 -0.15559849 0.06056619 0.0070760185 0.067973405 0.0027471054 0.030260483 0.34782124 -0.13067241 0.10339625 -0.28006563 -0.16267455 0.5630544 -1.2787986 0.06366987 0.13738044 -0.121485904 -0.108375005 -0.3352619 -0.5830722 -0.07893184 0.048201647 -0.052473664 0.010041995 -0.14963019 0.025374964 0.01581305 0.03881993 0.009029664 -0.29739973 0.7477471 -0.41477415 -0.029442877 -0.27137008 0.057865936 -0.18852583 0.15896942 0.11695138 0.0806965 -0.005924107 -0.018961372 0.37756616 -0.17452516
-0.15997495 -0.062462833 0.01983083 -0.15193646 -0.025284927 -0.021966564 0.10669925 -0.01417941 -0.0067054243 -0.07732332 -0.051626492 -0.019268114 -0.08987061 0.0034714297 -0.02358249 0.13070564 0.032500044 0.08128685 -0.24010949 -0.046780363 -0.19022962 -0.06667715 0.06232688 0.008978204 0.0804057 0.054300305 -0.16848299 0.0016991793 -0.07059458 0.040802166 1.0845159e-06 -0.020073455 -0.14976178 -0.059673563 -0.10143283 -0.0025233747 0.13642116 -0.07775143 -0.14564312 0.15510397 0.047603045 0.059412498 0.0058728275 -0.04124935 -0.025266243 -0.06419007 -0.0362657 -0.19349939 0.102814175 0.06558993 0.16040798 0.051008865 -0.07343238 -0.13370611 -0.036467418 -0.08558978 -0.014847849 -0.16813962 -0.031163126 0.015333202 -0.088605374 -0.1500543 0.056089886 -0.043624744 -0.13609678 -0.058481652 -0.039628137 -0.18779126 -0.0031295482 -0.0010448472 -0.17973852 -0.20231026 -0.0013301052 0.13483812 -0.081287935 -0.04966078 -0.17746472 -0.029192492 0.12588109 -0.009945781 -0.254379 -0.064106606 -0.006925777 -0.003473992 -0.06462995 0.014520686 0.0010953273 -0.023716804 0.0085687125 -0.022852255 0.19059417 -0.08445967 -0.0073750257 0.18543355 -0.12151022 0.06551975 -0.0042725867 0.08063073 0.042675 -0.0028664686 -0.11787959 -0.019390646 -0.05232772 -0.051421873 0.011151667 -0.12700687 -0.037748624 0.081644535 0.04179909 0.03667217 -0.0441525 0.0022093756 -0.06873481 -0.116017826 -0.08509247 -0.09056696 -0.11326103 -0.018518405 -0.06973631 0.052203164 -0.0077901077 0.0015637618 0.077460624 -0.070205525 -0.10593964 0.22430204 0.05226761 0.084491424
-0.07664248 -0.028786626 -0.041069288 -0.086257696 -0.081251524 0.09261894 -0.001071144 -0.0893948 -0.075513765 0.012090304 -0.10409102 -0.11356917 -0.09279283 -0.01610414 -0.13772899 0.018822495 -0.29371923 0.031173846 0.09056421 0.014302501 -0.12168535 0.15543924 -0.023233613 -0.17031065 -0.050191995 -0.01190946 0.011837536 -0.032419406 -0.10182682 -0.032492526 -0.0006625893 -0.02451638 -0.027019149 0.052819125 0.04849012 -0.15107965 -0.004002589 -0.03558479 -0.07294532 -0.0074956585 0.06526599 -0.095541194 -0.22821471 -0.09446429 0.025833849 -0.057353433 -0.08103595 0.07987156 0.0072749504 -0.062800646 0.12270532 -0.030248908 0.056889135 -0.035097595 0.19805177 -0.05160751 0.032405987 0.04928774 -0.05351951 -0.08596639 -0.021436162 -0.2151245 0.02295999 -0.004468707 -0.19633995 0.1347479 0.055472367 0.14736484 -0.07605068 -0.1689426 0.011801518 0.03127517 -0.025624583 0.13722035 -0.22604081 -0.039545756 0.0085584875 0.13228287 -0.08855335 -0.13697582 -0.03585701 -0.03497726 0.070310004 -0.036699206 -0.0055235224 -0.14650092 0.017568927 -0.066838816 -0.1243725 0.01951365 0.1287142 -0.119590335 -0.04615258 0.114006735 -0.15065457 -0.09349323 -4.505382e-12 -0.10570508 0.07877428 -0.06770933 0.061937466 -0.14342979 0.032129336 -0.05879914 -0.027812516 0.021686744 -0.063887574 -0.04150387 -0.0008851562 0.1163358 -0.0103459675 -0.17443982 0.05692584 0.0114561645 0.034447398 0.00015914043 -0.22870535 -0.03248925 0.012647335 -0.10199509 0.07600067 -0.106398925 -0.02155792 0.026953602 0.067480385 -0.08552316 -0.10018994 0.08496644
-0.12765639 0.041859422 -0.08417579 0.0538575 -0.8317552 0.029715803 0.09449783 0.08387854 -1.0280887 -0.110970005 0.15290757 -0.1786611 0.17588678 0.0818121 0.10643213 0.0075858976 -0.05517593 -0.3916278 -0.25456804 0.15801775 0.024964983 -0.16107805 0.12859955 -0.0823327 0.089658245 -0.15181696 -0.011262942 -0.35883462 -0.0014982233 -0.13094863 -0.23360305 0.16029681 -0.03302265 0.036065284 0.0037167147 0.24343766 0.13720945 0.2625026 -0.020374915 -0.11213753 -0.019410059 0.006526537 0.15772013 0.18133913 -0.034827027 -0.031597406 0.060066566 -0.07676328 0.21252407 -0.016616391 0.034975193 0.14484927 -0.060497433 -0.14055237 -0.047414824 0.01854798 0.07820805 -0.04257407 0.020489397 0.124309726 -0.10675789 -0.017961571 -0.30343464 0.07465725 0.009836068 -0.2005092 -0.12934709 -0.009672661 -0.028911985 0.0287004 -0.0457365 0.013126719 0.22597545 0.05767684 -0.06811591 0.025892152 -0.21892598 0.1706596 -0.06390577 0.116211146 0.041148253 0.018487282 -0.25439602 0.040809378 -0.056066815 0.2431419 -0.06448645 0.025179602 0.099727884 -0.07092341 0.06367818 0.1817993 -0.28214866 -0.14752586 0.00779027 0.020562448 -0.8778245 -0.27163458 -1.0991911 0.14816032 0.20810135 -0.24632153 -0.0488952 0.009066361 0.2613257 0.16976133 -0.02582534 0.11625167 0.07113331 0.038281664 0.061174884 -0.02424315 -0.055584658 0.039375335 -0.009151208 -0.756982 0.17036903 -0.1494463 -0.007804921 0.00434136 0.08264556 -0.3481011 -0.013742133 0.027768467 -0.083582886 -0.019557854 -0.045532923 0.13971016
0.045813624 -0.115186766 -0.20010488 -0.014869422 -0.9820873 -0.068221375 -0.1627668 -0.10270365 -1.2548249 -0.7753914 -0.2397588 -0.07781686 0.07173543 0.09314067 0.14317928 0.11676322 0.12148397 -0.6317628 -0.7780797 -0.031113505 0.28353855 -0.14127685 0.08012899 -0.08089021 -0.12135995 -0.33226684 -0.11081227 -0.50603086 0.123722404 0.027452627 -3.409888e-07 0.17959899 0.24024205 -0.10833505 -0.22224896 0.18167576 0.11532689 -0.022712164 -0.044043697 -0.06358508 -0.11715853 0.12640135 -0.207362 -0.19667831 -0.041609947 0.13193865 0.006588158 0.1761222 0.34761044 -0.058638923 0.31762618 -0.09998049 0.011441387 -0.021206202 -0.0682836 -0.17438848 -0.23774159 0.10320563 0.38872406 0.0074450434 -0.29271924 0.23049234 -0.8794998 0.15478025 0.17121133 0.4922374 -0.20052393 -0.6982684 -0.037827738 0.1429319 0.018930007 0.12874214 0.17282724 -0.06253624 -0.21458071 0.11688874 -0.17753403 -0.50780404 -0.00015822386 0.07258861 -0.012646823 0.15179434 -0.057290874 -0.0069949054 0.04173551 -0.072713174 0.13937195 0.20450367 -3.2884866e-05 -0.00075162516 0.057600435 0.12626861 -0.25058818 -0.23255087 0.0671671 0.2790918 -1.306434 -1.2052598 -1.6722385 -0.01813775 0.0468584 -0.34115228 -0.06548076 0.1435527 0.38234782 0.30470222 0.18774469 0.105817474 -0.04715593 -0.062452868 0.17704989 0.1208295 -0.023732178 -0.27244928 -0.12077423 -0.45255333 0.14857627 -0.14857192 0.1606616 -0.086967126 0.15115762 -0.983567 -0.05313262 -0.00822972 0.081836715 -0.13351874 -0.24159886 0.030939346
-0.04231208 0.29060656 0.1214341 0.18174958 0.581792 0.14337401 -0.034640066 0.16951099 0.24076709 0.26950198 -0.0054938975 0.25052184 -0.05198878 -0.034867737 -0.30522332 0.010398815 -0.13086747 0.42102695 0.40609953 -0.09551155 0.018880285 0.32712588 -0.03461596 0.082205914 -0.10054162 0.41675538 -0.034876674 0.088268906 -0.1077555 0.21033989 0.6222012 0.016908148 -0.33226845 -0.13912396 0.03096363 -0.31948087 -0.27960914 0.11932292 -0.019087277 -0.11339351 0.18117315 -0.104924925 0.18314964 -0.09268262 -0.22372732 -0.0850702 -0.089474075 -0.26319125 -0.44400173 0.17405929 -0.13685752 -0.120959006 0.21633548 0.058057785 -0.11168594 0.00616141 -0.039902326 0.032481663 -0.09564097 -0.07213351 0.45291194 0.16639873 0.28370485 -0.051358525 -0.038541466 -0.034634843 0.1690382 0.11327767 -0.121808976 -0.055943426 0.0991152 -0.060907073 -0.20957018 0.19520795 0.06975858 -0.0032422817 -0.08209613 0.2101891 -0.075506695 0.036149815 0.17090483 -0.0008249474 -0.02551697 -0.05099086 -0.17623563 -0.007015995 -0.068626516 0.077746056 -0.05289145 0.08658964 0.03464723 0.046821073 0.29114652 -1.6193651 -0.026116312 -0.02244968 0.16761458 0.9213736 0.39490938 -0.07649717 -0.01999219 -0.098665625 0.0068982523 -0.27276862 -0.3244198 -0.0156027945 0.06340399 0.30648035 -0.08480415 -0.036647286 0.19663014 0.011060448 0.040830538 0.10120648 -0.1114883 1.1911148 -0.18015574 0.2915721 -0.3482336 0.064317 -0.26992193 0.31175047 0.0014319005 0.048015025 0.0059571145 -0.18568237 0.22568277 -0.30077767
0.122237645 -0.265259 -0.055580564 0.032670498 -0.14779453 -0.05652117 -0.14806898 -0.04113117 0.13350403 0.14061739 0.15501101 0.03234284 -0.020578291 0.06858754 -0.109161675 -0.12223082 0.09519368 0.052364938 -0.024446543 -0.12259807 -0.1625674 0.031558033 0.03389805 0.027985157 -0.16652352 -0.019994842 0.0545614 0.11556347 0.07236393 -0.15194844 0.3458964 -0.010926892 -0.23432642 0.03641315 0.10955573 -0.20559038 0.3332253 0.01748213 -0.1347083 -0.22797576 0.20715795 -0.1026724 0.04862662 -0.13544658 -0.07153449 -0.0024184426 0.022320913 0.20252556 -0.014616159 -0.20516166 -0.12432569 0.15337202 -0.0073990435 -0.07194535 -0.04474839 0.019210463 0.011090387 0.06086672 0.11804179 0.11032065 -0.18146826 0.1368725 -0.08618019 -0.045500975 0.085501954 0.463379 -0.0046893694 -0.0195619 0.026642028 0.12517437 -0.06948446 0.35867298 -0.0145901395 0.09184536 0.025776763 0.09954147 0.19538873 -0.3334026 -0.0568417 -0.051180538 -0.033673074 0.0020961596 0.10955814 -0.14892466 0.21418963 -0.068614595 -0.2012052 0.027407207 0.07305469 0.07802479 -0.14281245 0.09007185 -0.042943258 -0.005205505 -0.13017227 -0.16453287 -0.15733871 -0.6316708 -0.3316259 0.10920386 0.16132875 -0.100254975 -0.056826074 0.01473578 -0.09734483 -0.041127224 0.19672327 -0.06542843 0.046940204 0.037831083 -0.09139551 -0.1130401 0.130704 0.091788515 -0.07911945 -0.8748871 -0.013926984 -0.05805137 0.06735202 -0.19839162 0.19546153 -0.009171386 -0.108356744 0.1600215 -0.023558958 0.010484253 0.0033554814 -0.1442378
-0.051495723 -0.10726901 -0.016044939 0.029505322 -0.26192942 -0.06324277 0.058070555 -0.11326357 -0.94286877 0.25707236 -0.20445384 -0.043964382 0.0566646 -0.15671095 0.18018392 0.10357792 0.05665627 0.65732825 -0.013633841 0.09558001 0.042468745 0.022159576 0.18270276 0.029629566 0.117105134 -0.21122089 0.023648497 -0.15465851 -0.07874075 -0.294029 0.040370323 -0.11079056 -0.19656008 -0.16163205 0.21687026 0.119208924 -0.06975699 -0.38201967 -0.035853166 -0.3837018 0.062382467 0.08519774 -0.059589934 0.07346055 -0.37189296 0.032814156 0.14019193 0.22697923 -0.38430968 0.199042 -0.027619869 -0.16139954 0.064378574 -0.10917888 0.026353238 -0.08710782 0.061651092 -0.13218081 0.17635027 0.12648399 -0.06565062 -0.039001405 0.41577613 -0.049957957 0.077492625 0.03274204 -0.11780817 -0.0776562 -0.0701631 0.08233637 0.07276632 0.13820101 0.00896413 -0.017743837 -0.03564949 0.08977606 -0.044435643 -0.24587168 0.00041211472 -0.074194625 -0.094387054 0.0873683 0.0073172254 0.013922692 -0.03690134 0.09872444 0.1216529 0.14320752 0.017555365 0.32839924 -0.020172402 0.022927629 -0.002353774 -1.1011944 -0.051462516 -0.14359139 -0.2540335 0.0076442705 -0.48977962 0.11483077 -0.14352438 0.061479248 0.038447153 0.10015565 0.11914575 -0.26326296 0.08516015 -0.13581795 0.12679961 -0.04490894 -0.027509833 0.1224149 -0.14035021 -0.016172938 0.16864309 -0.356962 -0.041086607 -0.10592957 0.14475085 -0.011105499 0.11023039 0.356926 0.030306686 -0.12350197 0.022612887 0.0014767796 -0.22495064 0.025333025
0.020967435 -0.1797355 -0.3484031 -0.08249878 -1.840832 0.06346711 -0.2849741 -0.22065309 -1.4095018 -1.161917 -0.47199425 -0.028257906 0.2776989 0.10146185 0.1629453 -0.41587207 0.4038497 -0.23850358 -0.76740783 -0.019941498 0.26715067 -0.09328487 0.07932997 0.060434695 -0.16969264 -0.33596125 -0.1281814 -0.8916994 0.20467131 -0.2548251 1.0168766e-30 0.312743 -0.07509635 -0.240409 0.12069287 0.06549341 -0.5276954 -0.17952086 -0.4271073 -0.34718385 -0.16363001 -0.014715787 -0.6432479 -0.24799858 -0.40794638 0.19636068 0.22687186 0.0641303 -0.27099144 0.05563836 -0.14806949 -0.07751544 0.16020282 -0.13068967 0.30106172 0.02654186 -0.33854264 0.42421946 0.7881229 -0.33548868 -0.23659681 0.61554074 -0.6208437 0.27621895 -0.07370317 -0.3277941 0.040647518 -1.4158589 0.3014163 0.49656662 -0.2702795 -0.13571092 -0.11519142 -0.6001632 -0.6453011 -0.04029186 0.17181306 -0.46105334 -0.16359732 -0.1177523 -0.09342927 -0.016235925 0.235333 -0.013101534 0.05951767 -0.01065152 -0.2268673 0.120235085 -0.0859016 -0.37776834 0.5374297 0.056789886 -0.25882035 -1.2468674 -0.16479197 0.14218505 -1.741835 -1.7843093 -1.7141072 -0.24379745 0.47077736 -0.2061953 0.049774077 0.17305742 0.67862934 0.5964989 -0.14272732 -0.56000173 0.2932587 -0.26957867 0.44680065 -0.34145108 -0.34102336 0.11480818 0.021698903 -0.9876926 -0.07484079 -0.14721279 -0.17989945 0.14375436 0.13744055 -0.39081776 0.045603957 0.038388625 -0.043362197 -0.12206126 -0.122375414 -0.08634203
-0.00285826 -0.1263496 -0.052652273 0.1285404 -0.3582115 0.11851823 0.111348525 -0.08629081 -0.91657037 -0.15062039 0.10237496 -0.08420645 -0.08784771 0.17425193 -0.040074427 0.012872152 -0.018837322 -0.29588857 -0.40082756 -0.012852345 0.083524846 -0.1335804 0.029457858 0.038308788 -0.076181225 -0.056750994 -0.15467207 -0.65830785 0.056861203 0.15977773 0.051341254 0.077566564 0.023204645 -0.025540816 -0.025344087 0.08227282 0.11966718 0.48155373 0.050045848 -0.05900561 -0.15432952 0.11361234 -0.046878774 0.18938187 -0.039066758 -0.19892664 -0.001060024 0.10334256 0.19769382 -0.0711964 0.044105116 -0.18131517 0.091067605 0.094509475 0.21022986 -0.046194244 0.10255713 -0.1790546 -0.06955894 0.08030326 -0.106469706 -0.019163836 -0.1528514 -0.019315219 -0.12334434 -0.18840943 -0.0022924389 -0.09422258 0.13371435 0.03689653 -0.043388516 0.18901095 0.14912884 0.17618318 -0.1554632 0.019116439 0.06664362 0.19253126 0.029968007 0.14771771 0.13613026 -0.09578015 -0.008751603 0.12728108 0.035644487 -0.12759587 -0.20945743 -0.0673331 0.13069141 -0.06745805 0.11005582 0.09290261 -0.29393634 0.033142455 0.07184275 0.24662612 -1.3222946 -0.42644095 -1.1279156 0.14466874 -0.020643815 0.05877032 0.13048817 0.059571628 0.123303376 0.09506874 -0.003600983 -0.15948713 0.069293834 0.064688765 0.23669069 0.13028383 -0.017857056 -0.021601964 0.099812105 -0.32187003 0.022331864 -0.064030014 0.13782883 -0.07487495 0.25101158 -0.44690067 -0.097914584 0.07557218 -0.017538209 0.10365171 -0.13497217 0.035943035
-0.0052777645 0.033597436 -0.11717477 0.055552103 -0.22260979 -0.21446371 0.056155074 -0.08189783 0.0934129 -0.07766669 -0.020632513 -0.0053086784 0.006044468 -0.108580716 0.023451691 -0.0061735506 -0.1878669 0.08876712 -0.187874 0.0095986035 -0.119111724 0.014946446 -0.012752344 0.03560547 0.047742102 -0.11505003 0.0052789357 -0.014443592 0.119010806 -0.08345827 0.0078235315 -0.13188772 0.06324141 0.07798191 -0.0024073457 0.027781406 0.01980089 0.041675746 0.088954695 0.03404141 -0.07796727 -0.13767527 0.049382776 -0.06735895 0.09733333 -0.011578578 -0.061887763 -0.09873639 -0.040391836 -0.05798733 0.08979227 -0.047439687 -0.0077050943 -0.14629796 -0.14123534 -0.062739335 -0.060582332 0.02372526 -0.16363263 0.18075575 0.09287506 0.048639543 0.13326538 -0.036990486 -0.03844666 -0.12275813 0.21412966 -0.07936302 -0.059855618 -0.2877126 -0.08285233 -0.11795766 -0.11389093 -0.12641582 0.040181525 -0.028673412 -0.07991253 -0.0867293 0.025456026 0.011475624 -0.23324953 -0.08301902 0.010119318 -0.10366822 0.034834143 -0.08072057 0.040411286 -0.038605373 -0.21362358 -0.05986332 -0.032865323 0.07296561 -0.04106208 -0.07263968 -0.03722459 -0.022608228 0.26643857 0.046514504 -0.0699125 -0.09607061 -0.07198819 0.07765548 0.10743879 0.11890426 0.041795332 0.112694144 -0.095524095 0.14391774 0.12017739 -0.16711277 -0.04727532 -0.12079486 -0.034149613 -0.040121 -0.13747129 -0.0003376512 -0.08757718 -0.020854436 -0.020638222 -0.052922398 0.0014724031 -0.10729163 0.03948083 -0.20983458 -0.14412226 -0.10673323 -0.14231364 0.024344396
-0.07135212 0.09632834 0.14171392 -0.12053829 -0.1668211 0.062308554 -0.08980841 0.04326596 -0.22222257 0.090874374 0.10819797 0.07323742 -0.012794673 0.2098174 -0.21619007 -0.018324679 0.011370913 -0.18195143 0.062429376 -0.0014043254 -0.114114136 -0.06914455 -0.115695916 -0.00073155446 -0.03173258 -0.167363 -0.11997406 -0.0030882296 0.20759258 -0.059288703 0.036434267 0.028635168 -0.11971509 -0.08600515 0.01920873 0.03336454 -0.0042591332 0.068113066 -0.06771388 -0.114736594 0.11001809 -0.07983313 0.030034086 -0.072188824 0.015860539 -0.029281443 -0.044377405 -0.09053729 0.038832303 -0.092498586 -0.08584024 0.036877718 0.06569632 -0.009373894 0.03034776 0.08274602 -0.30912077 -0.09534471 0.038860857 -0.14908487 0.0036729313 -0.013951462 -0.10676768 0.01624793 -0.050631966 0.001960497 0.06836519 -0.074351504 0.092833675 -0.029608846 -0.08619786 -0.09153766 -0.047550786 0.10383722 0.022997834 0.11468582 0.012052902 -0.17304213 -0.1125805 -0.19287832 0.12358286 -0.08750331 -0.14057538 -0.036972653 -0.015275543 -0.19198604 0.0025201098 -0.22666912 0.16785407 0.08591127 -0.014716804 -0.057075575 0.046672307 0.23989998 0.07415353 -0.11646054 -0.10532268 -0.03745054 -0.08189148 -0.20632234 0.028457299 -0.004356759 0.022648139 -0.011479473 -0.059499137 -0.06797225 -0.043287124 0.01753161 0.08136935 -0.079498045 0.020364558 0.069556475 -0.010467545 0.012564669 -0.03800822 -0.01263351 -0.05419233 0.072990164 -0.11586919 -0.08869832 -0.118349895 0.19034502 -0.014621593 -0.066301376 0.056929912 0.052372698 -0.026752947 -0.1442743
0.1520639 0.14093126 0.26904663 -0.103921674 0.66790795 0.012456734 -0.029305344 0.10596432 -1.8829945 0.3032381 -0.22894605 -0.28796962 0.10125943 0.42776355 0.051287252 0.053778823 0.047666147 0.6736063 0.12428159 0.067311466 0.2692913 -0.3336041 -0.03270358 0.3468978 0.09083239 -0.106350504 -0.22011673 -1.3783427 0.19186953 0.083183035 0.4838627 -0.005238502 0.68201756 -0.07862188 -0.16434386 0.14927234 -0.22452447 0.00043668438 0.2726128 0.5681037 0.12125165 0.12553057 -0.03707743 -0.010400589 -0.015505312 0.1662258 -0.087872915 0.4213912 0.23176545 -0.20205948 0.05328116 -0.022027532 0.14025655 0.08025669 0.20011678 0.037633214 0.19439147 -0.2206256 0.19355768 0.071679175 -0.006247557 -0.00804009 0.047375727 0.035204124 0.07386676 0.49934942 -0.21865122 -0.64176 -0.0018260276 0.1316864 0.103916936 0.23760343 0.18598665 -0.08570258 -0.11299043 -0.19933619 -0.063035555 -0.39293957 0.1315939 0.27650973 -0.02897506 -0.20457217 -0.31790566 0.10857228 -0.64286256 -0.04202949 0.09272884 -0.12339595 0.052758425 0.9604439 -0.13799332 0.034986556 -0.28612083 -1.415136 0.040680382 0.42698705 -0.87427896 0.49701598 0.82777274 0.018640868 0.13141176 -0.12758876 0.22251798 0.024457881 -0.060225997 -0.07308224 -0.12919195 -0.6324162 0.0144921485 0.1738053 0.13451427 -0.021691244 -0.07720772 0.07932595 0.097737126 -0.37435132 0.45579824 -0.08101323 0.26301655 -0.0043679117 0.0012497314 0.20982145 0.06310863 0.017834354 -0.043409687 0.119862854 0.12180891 0.2689245
-0.023349456 0.034851655 0.10321993 0.0982699 -0.038048737 0.010995362 -0.03230326 0.019965177 -0.55765814 -0.095855586 -0.051668104 0.13464378 0.19204766 0.06459563 0.08329742 0.009360749 -0.13988668 -0.1789607 -0.3264295 -0.021996735 -0.06006493 0.09509136 -0.12562232 0.13475016 0.086759195 0.104049675 0.08521621 -0.39371616 0.08160613 0.1156103 0.11024804 -0.057587747 0.06634009 0.09374728 0.06654331 0.120892495 0.17119361 0.25574476 0.123113275 0.0034048895 -0.005452546 -0.04326577 0.097486936 0.0693775 -0.037973855 -0.040115952 0.024173742 0.0897052 -0.085142925 -0.07195675 0.1546622 0.1403328 -0.18626814 -0.043752644 -0.034741167 0.05781408 0.12283849 0.0055142893 -0.1310083 0.21176422 -0.10908742 0.08019691 -0.054535057 -0.027703347 -0.004020702 -0.41588405 0.027568161 -0.031257723 -0.09480522 -0.296809 -0.064369485 -0.088478364 0.1601451 -0.06248876 0.09488748 0.06650453 -0.004290236 0.08384514 0.110099636 -0.004056029 -0.13915017 -0.08362686 0.022133635 0.042857245 -0.20368508 -0.10783273 0.19298379 0.021584693 0.18517144 -0.13481036 -0.18244636 0.1702491 -0.009553526 -0.18867989 -0.17989121 0.018223053 -0.77853984 -0.07948702 -0.18080881 -0.0012476341 0.07174307 -0.12448582 -0.01536348 -0.00046000833 0.10591018 0.042349163 -0.09827323 -0.12519476 0.0722908 0.10887015 0.08762784 0.01936767 -0.0416301 -0.0006599022 0.029938247 0.0418529 0.10819031 0.16650924 -0.04757632 -0.10782831 0.049987517 -0.2613709 0.27840725 0.004641173 0.046254613 0.09832159 0.0054197186 -0.044410393
-0.12489298 0.01560711 -0.11797632 -0.083876036 -0.50980806 0.068029106 -0.066662565 0.022547096 -0.74394166 -0.085687816 -0.060195144 -0.07606266 -0.05990066 0.035287075 0.04411342 0.12731697 0.071496114 -0.1837212 -0.4011847 0.01058317 0.13540141 -0.34788024 0.054289516 0.10544328 0.072971135 -0.22042511 -0.08147846 -0.4905029 -0.046289634 -0.10687784 0.21101677 -0.027226921 0.047708154 0.116333455 -0.06921471 0.16817686 0.29689518 0.40407902 -0.0868468 0.11084413 -0.09133997 0.10613391 0.018521385 0.15512472 0.092142574 0.025640579 0.08493204 0.14478576 0.09899453 0.10920542 0.090845294 -0.0678278 0.019630054 -0.09974247 0.01650133 -0.23839271 -0.06626298 0.17200021 0.06604699 0.17678641 -0.030332198 -0.017698137 -0.22470579 0.13116886 0.054155674 -0.21391904 -0.08803838 -0.27022377 0.10084164 0.047688864 0.051607016 0.08244994 0.09602116 -0.067711905 -0.14184485 0.035810817 -0.1271037 0.01540165 -0.05712585 -0.061398838 -0.08089442 -0.08778279 -0.08201588 -0.039641924 -0.06352069 0.038957518 -0.038546316 -0.046812944 0.17849989 -0.041850504 0.093498334 -0.061804328 -0.21129982 -0.037724417 0.13421652 0.06422682 -1.3961734 -0.31076232 -0.8207755 0.056575168 0.1201224 0.24769011 -0.07409434 0.017723387 0.106618166 0.24516888 0.015077098 0.023304397 -0.060832046 0.13427685 -0.031872112 0.028892402 0.008626927 0.039557245 0.06697657 -0.21161523 0.1336226 0.023716094 0.13940078 -0.08094983 0.049356714 -0.32887837 -0.0261997 -0.07354808 0.13713944 -0.037360195 -0.07371382 0.14017233
0.013274629 -0.010022879 -0.12381706 -0.055136874 -0.5511215 -0.08602839 -0.09408066 -0.06327227 -0.44753024 0.6979409 0.087508485 0.025027333 0.025143895 -0.0797969 0.039875966 0.046666034 0.13703391 0.072789244 -0.72261137 -0.02764991 0.021849373 0.0748608 0.10470554 -0.12193407 0.015792625 -0.2518606 0.024481094 -1.4834139 -0.12359689 -0.18290088 0.00041126861 -0.018969264 0.09277122 -0.15538031 -0.08321081 0.13928108 0.27196214 -0.7119307 -0.093724266 -0.21252458 -0.03691359 0.05534403 0.0056633246 0.0046461555 -0.16235344 0.176383 0.053037316 0.31298685 -0.25124836 0.06349798 0.08645868 0.101175666 0.03573881 0.13750246 0.06793241 0.03660653 -0.101786494 -0.12851632 0.1014771 0.07559485 -0.12971878 -0.12803897 0.27640584 0.017608607 0.19776924 0.24784876 -0.18610917 0.2027002 -0.054464836 0.09889544 0.06746307 0.06335861 0.038456976 -0.075178206 -0.12591895 0.051646918 0.14234713 -0.48247933 -0.06178919 0.05585243 0.04406072 -0.0031538433 0.039788444 -0.029179111 0.12640552 0.08272034 0.14776641 0.09247455 -0.016687682 0.04826942 -0.1380156 0.07414497 -0.32926065 -0.048528556 0.025819646 0.08227218 -0.27289388 -0.22863857 -0.6086062 0.0750908 0.11836723 0.07948062 0.018100629 0.071732834 0.31581447 0.07533629 0.1556194 0.08096876 0.19166128 0.046672847 -0.1554711 -0.003047036 0.069786586 -0.123925485 -0.13672313 -0.2690147 0.14422494 -0.1635303 -0.075413115 -0.067291245 0.05557467 0.25112218 -0.10383356 0.046940744 0.19570872 -0.00877424 -0.19463716 0.0627174
0.1964535 -0.15574639 0.02700801 0.04222464 0.24670476 0.15589896 0.14967246 0.29377067 -0.06247952 0.015352593 -0.04659393 -0.1047491 0.01839555 0.068530135 -0.11078756 0.06376743 0.26110888 -0.09735451 -0.042929187 0.03503512 0.115682624 -0.09640479 0.17427278 -0.10332553 0.073478036 -0.10592017 -0.098471746 0.22407494 -0.028340803 0.09014505 -0.013238792 0.07374075 0.044210356 0.10473101 0.13413699 0.028189275 0.3260749 0.45188597 0.114155896 0.019550769 -0.21248773 0.14024928 0.026585983 -0.048376147 0.158676 0.0942809 -0.09511 -0.10043293 0.0063124457 -0.17425615 -0.06678957 -0.031025404 -0.03643832 0.046212588 0.15240115 -0.08812204 0.07447809 0.16094781 -0.08582627 0.045895327 0.17498101 0.15098672 -0.16834173 0.083273254 -0.08965184 0.053446785 0.030600656 0.110612184 -0.03028662 0.025067566 0.04132979 0.14188439 0.043597143 -0.042562723 0.12559147 -0.023499645 -0.0016259343 0.17518204 0.08012041 0.12525775 -0.041924253 0.03225972 0.0057834997 0.07899234 0.032877605 0.05115404 0.07893882 0.08097764 -0.12562332 -0.109439194 0.038463686 0.14292559 -0.017654195 0.17384295 0.19283105 -0.039459653 0.42794183 0.020278431 -0.06544606 0.020897241 -0.05286055 0.1821096 0.21114962 -0.08622954 0.12890953 0.12526071 -0.019872345 0.017050581 0.13499966 0.11563275 0.14897096 0.07628171 0.027988559 -0.030495137 0.13390148 -0.04037762 -0.012466931 0.08798862 0.0035858657 -0.20468946 -0.034434605 0.028136797 0.10065864 0.031694222 -0.04628743 0.070548125 0.11482694 0.04117373
0.056961443 -0.03288347 -0.035227306 -0.053742312 -0.40029642 -0.025219804 0.061674893 -0.072682 -0.7283227 -0.37875906 -0.028221892 0.09397047 0.11638949 0.032243326 -0.037849985 0.09080644 0.16531403 -0.30501795 -0.43797478 0.10963395 0.03576351 -0.354895 0.0073573967 0.010713152 0.115555614 -0.10873788 -0.18673569 -0.48493445 0.06012044 -0.027735222 0.01184547 -0.15824693 0.12609155 -0.050578073 -0.11749081 0.3309718 0.14121509 0.45242622 0.25120002 0.096344404 0.06716712 0.04021199 0.04221911 0.27064216 0.107702546 -0.17491736 0.11214121 0.104820356 0.10218489 -0.0027700637 -0.07857167 -0.13149504 -0.020426016 0.07258897 0.021209415 -0.046891477 0.24355 -0.10606638 0.027292117 0.08047938 0.049886197 0.061217915 -0.13160886 0.0020480722 0.13647625 -0.32014078 -0.044973545 -0.17310575 -0.0044931634 0.09255418 0.04490462 0.04174173 -0.009451876 -0.22133318 -0.10131401 -0.038802944 0.099568434 -0.037005737 0.05946445 -0.13683131 0.079050355 -0.049682558 0.0997158 -0.0482373 -0.16006526 0.010259067 -0.0036345145 -0.061728597 0.04461002 -0.092700295 -0.10882461 -0.03375549 -0.06729149 -0.10975838 -0.12500575 -0.0678404 -0.94312114 -0.1728982 -0.5913507 -0.0482842 0.09736011 -0.00961751 0.12686695 0.086051814 0.29387572 0.017453687 -0.022929307 -0.01183697 -0.11839573 0.117365345 0.152662 0.1496446 0.018860668 -0.11903563 -0.03660732 -0.16703896 0.26441723 -0.1845493 0.00043466268 -0.03351599 0.04861526 -0.16019332 0.0457438 -0.004361908 0.025816143 0.29301617 -0.041792005 -0.040172875
-0.04846466 -0.038845077 -0.029685209 0.10673003 0.020299355 0.067138225 0.025943356 0.1501724 -0.5853148 -0.051809467 0.08014194 0.16471131 -0.06189832 0.00042446906 0.018029029 0.18798746 0.10400631 0.06457047 -0.19164228 0.109863944 0.00059509545 -0.1261623 0.06528344 0.092708305 -0.14506242 -0.11587883 -0.11436595 -0.5821143 0.08554051 -0.31458303 -0.12651482 0.14237395 0.010554138 0.014833324 -0.12728514 0.056657963 -0.011548289 0.18304299 -0.085206985 0.038191058 -0.024508134 -0.184404 -0.06399522 0.12533441 -0.09944734 -0.0122150015 0.049880967 0.054661408 0.14655022 -0.0418014 0.018052442 0.073156215 -0.038918186 -0.040357202 -0.011349174 0.09027186 0.1141986 0.016904626 -0.12954181 0.046950217 -0.033388454 0.18683858 -0.30330643 -0.012183776 -0.07660511 -0.18416001 -0.1338045 -0.03062757 0.03728284 0.101975136 0.1371225 0.025523698 -0.0827005 -0.056153134 0.08619078 -0.13046671 -0.101594105 0.115596175 0.029640855 0.004454734 -0.0009607419 -0.23035832 -0.08856433 0.15082233 -0.050295636 0.07547761 0.08120569 -0.09321014 -0.069143735 0.041752845 0.034266 -0.010917231 -0.19842021 -0.06920107 -0.09060357 -0.11831577 -0.5378028 0.065333575 -0.6018069 0.13713141 0.08617963 -0.019304056 -0.11990555 0.015118189 0.10496426 0.026186477 0.08384024 -0.09907041 0.019539446 -0.047297582 0.1465066 0.11358036 0.13967267 0.028702699 -0.080595024 0.17350589 -0.001467661 -0.14428462 -0.099611975 -0.015267091 -0.00021087335 -0.13010663 0.104124986 -0.02155571 0.15312037 0.11446838 0.20681979 0.0061267517
0.16975828 -0.0481832 -0.11592022 -0.13006423 -0.10316391 -0.016857896 0.016505228 0.019445594 -0.148756 -0.053998422 0.12765113 0.014617947 0.004380626 -0.09367659 -0.046142958 -0.14041346 0.029950837 -0.24447833 0.036542036 0.17324133 0.13334817 0.10356778 0.07603863 0.31506935 0.084960856 0.08302167 0.12296024 -0.88793266 -0.08024231 0.028641075 -0.07176156 -0.108250216 -0.053304907 0.06476097 0.053931214 -0.027748544 0.3627718 0.42217347 0.04434123 0.26550192 -0.050575662 0.14684592 0.13891137 -0.046458077 -0.062363293 0.19272904 0.13420254 -0.108317845 0.29363388 0.036949772 -0.039625615 -0.06089949 -0.00068610447 0.017234476 -0.08475691 -0.123667404 -0.10239808 -0.028523194 0.10981177 0.022887329 0.035475228 0.050364684 -0.05008635 0.2184067 0.14819977 -0.402809 0.052068587 0.1982051 0.13479266 0.058615923 0.016237305 0.027658064 -0.047954004 -0.059885886 -0.010885544 -0.06113667 -0.13743271 -0.019602045 0.06882381 0.04385533 -0.07111732 -0.037386265 -0.1383857 0.164861 -0.080200106 -0.05118255 0.07370206 0.14245747 -0.051413007 -0.18658586 0.11102817 -0.026702894 0.13893871 -0.04661555 -0.080330625 0.13237329 0.4928742 0.029597996 -0.09243216 0.08779615 0.17833225 0.029192843 -0.008279463 0.058018256 0.28157237 0.021723116 -0.080793805 -0.15880965 0.10668378 0.10402851 0.021892853 -0.1315023 -0.036089215 0.2295932 0.17228472 0.06603396 0.068366736 0.051297523 0.033384066 0.012975678 0.01590625 -0.41964394 0.12977819 -0.084255666 -0.0032115672 -0.0029599313 0.051370576 0.062339555
0.084603794 -0.05225338 -0.0889819 -0.119975656 -0.0791894 -0.13888352 -0.1028567 0.05506449 0.031738378 -0.18338495 0.105986305 0.058498997 0.093948975 -0.1552396 0.12561618 0.01004622 0.0015658364 -0.17887838 -0.064816706 0.036808472 0.06244315 0.03860343 -0.08995907 0.12623817 -0.033207353 -0.04630016 -0.20575444 0.01590422 0.03725241 -0.030227207 0.09268406 0.22585362 0.036340278 0.077307954 0.20000497 0.11883507 0.27692893 0.48050615 0.1664278 0.0666425 -0.059014104 -0.0068060462 -0.13934518 0.3045819 -0.006735324 -0.0153390495 0.07121606 0.24093233 -0.049216993 -0.15371276 -0.02186913 -0.024501288 0.08176916 -0.020752596 -0.044175327 0.081466205 -0.056666277 0.058403637 0.023957858 -0.012378269 -0.05262983 0.0047434866 -0.1103671 -0.2468674 -0.07192656 0.119456515 -0.08682808 0.08552643 -0.0805783 0.1220765 0.016175421 -0.14069106 0.086605 0.014471056 -0.098159045 -0.046929043 -0.11844333 0.17756696 -0.029131107 -0.0061506564 -0.06420164 0.18851882 0.04168922 0.004896038 -0.048614845 -0.049133357 0.10809996 0.03627468 0.05490379 0.09221371 -0.15009418 -0.07471364 0.01603592 -0.14733864 0.044496533 -0.029052572 0.3843169 -0.12674008 -0.21446376 0.022847963 -0.045734387 0.05884737 0.054063648 -0.10701573 -0.042966034 -0.08404947 0.30214137 -0.027554594 -0.093656495 0.013305631 0.22765295 -0.08884641 0.021916503 -0.02494554 -0.021818629 0.03680619 0.03953776 0.1330774 0.025333034 0.01830701 0.15541002 0.06934768 0.02324045 -0.13406059 -0.061218902 0.020268904 0.11666057 -0.07303097
0.08361924 0.1095636 -0.2235252 0.015251682 -0.046580706 0.0069829724 0.114653446 0.37148276 -0.57336307 -0.3549534 0.09571776 0.015348776 -0.006163449 0.091602825 0.10435234 -0.011737687 -0.06343302 -0.23304157 -0.0006959914 -0.09203495 0.043309864 -0.013043524 -0.08878909 0.17395532 0.22765262 0.17602746 0.08689578 -0.48082906 0.07658884 -0.00559 0.05836869 -0.047279734 -0.022012949 -0.019468 0.033565305 -0.20995902 0.25652012 0.2305125 -0.25155658 -0.030063173 0.014115447 0.18079267 0.04698843 -0.075308196 0.041559987 0.04110531 0.10943691 -0.009683463 0.09574783 0.09620641 -0.13847132 -0.08512309 0.28504422 -0.007308899 -0.046572346 0.029880228 0.19723968 -0.17189234 0.0786537 -0.07384649 -0.036241673 -0.04367709 -0.089373425 0.08006054 0.09697042 -0.24262841 -0.054043323 0.09990257 -0.0017111063 -0.057134297 -0.101965494 0.035307392 -0.12943469 -0.04364278 0.0058332095 0.08472152 -0.024245044 0.05758213 0.08334172 0.11401349 0.016041301 -0.0587163 0.017822176 -0.16961323 -0.06362962 0.10278936 0.09575874 0.010366722 -0.02945562 0.11906083 0.098805 -0.08634328 0.04212834 -0.023569284 -0.03567742 0.10447182 -0.27422455 0.06950872 -0.28784338 -0.06986596 0.16028039 0.043334592 -0.015574623 0.06661024 0.117615186 -0.05345826 -0.048287116 -0.043807115 0.055411175 0.024049541 0.10737542 0.043692376 0.12805744 0.19623472 0.05983541 -0.14568834 0.043830298 -0.005007008 0.024181401 0.07691362 0.08027208 0.071991704 -0.05279877 0.07510799 -0.07936523 0.17979343 0.037467044 0.09561863
-0.031976372 0.17298818 -0.00045089616 0.007001179 -0.10674799 -0.27037364 -0.1027467 0.06697276 0.09236439 -0.051938947 -0.2486372 0.03291537 0.047699004 0.10802297 -0.021509688 -0.09485498 0.123714656 -0.07419946 0.106145166 0.014677535 -0.009186689 -0.16964763 0.06431683 -0.038533542 -0.026395163 0.1779696 0.17876695 -0.41679925 0.07429529 0.01799033 -3.52651e-40 -0.14507158 -0.23674035 0.17018531 0.03550198 -0.11872446 -0.072416894 -0.047517017 -0.0742544 0.004572908 -0.0735503 -0.123566106 -0.045469776 0.0853589 0.074600704 -0.11615527 -0.1332965 -0.12557752 -0.005290107 -0.10337304 0.048111834 -0.062228385 -0.18782511 -0.025321668 -0.06626952 0.043304246 0.01652263 0.0032582353 -0.25162762 -0.17306092 0.060700744 -0.0746739 -0.070177555 -0.030488346 0.17633411 -0.051038753 -0.12040442 -0.13316375 0.015997438 -0.008693148 -0.14316566 -0.030453688 0.14382438 -0.055796366 -0.14230458 -0.065073356 -0.04467155 0.012024122 0.17249379 0.019907065 -0.16277526 0.03229002 -0.08697221 0.06872807 0.07555208 0.030299459 -0.22516724 -0.06145576 0.13353904 -0.060712073 0.055456825 0.11710734 0.08985722 0.09838441 -0.011888594 0.040762845 0.02070801 0.04980431 -0.115704596 -0.0029691323 0.09184631 0.074080035 0.137039 -0.11999303 -0.003750606 0.07977578 -0.087262824 -0.17440052 0.14800051 -0.16278958 -0.15704836 0.15255824 0.11422687 -0.02321498 0.01701842 0.02373766 -0.073129155 0.048450597 -0.065962024 -0.029482095 -0.09503701 -0.056500986 0.1861738 -0.084081575 -0.08435762 0.08307783 -0.02425662 -0.14488843
-0.22743987 -0.029962184 -0.07120709 -0.041057818 -0.021311412 0.06772371 -0.00012420586 0.04952013 -0.16930087 -0.056655835 -0.07863733 0.001726904 0.002213523 -0.04745492 0.033441134 -0.043574523 0.021590188 0.011237336 -0.06858181 -0.04934051 -0.13670439 0.03596789 0.061895974 0.12990102 0.0873994 0.12639426 -0.05526173 -0.09297713 0.15511797 -0.017733583 0.017396701 -0.013683894 -0.04659244 0.07946257 0.004394922 0.08744118 0.16169277 0.23626311 -0.10977663 -0.03871524 0.054166526 0.040553037 -0.025200577 -0.063876726 -0.0041721635 0.01971085 -0.061053943 -0.124359965 0.042479575 0.18373981 -0.21207891 -0.08032994 0.11927671 0.0631639 0.17434129 0.16590565 0.13181867 -0.0009768845 0.06736076 0.13409293 -0.059520908 0.054054912 0.032327063 -0.16078897 0.19209611 -0.0067463773 0.03991575 -0.29110384 0.09212598 0.051856127 0.013201439 0.15531133 -0.11299679 -0.061408356 0.006868654 -0.0043867645 -0.043180592 -0.17388032 -0.21709482 0.02811422 -0.013277944 0.06481237 0.01552977 -0.04193187 -0.16655558 0.026970057 -0.09462139 0.063925706 -0.051960304 0.0063090455 0.10219311 -0.16291553 -0.21563697 0.021030474 -0.056971144 0.15828985 -0.15779525 0.07414252 -0.13791871 0.1311654 0.06600071 0.10418994 0.04758009 -0.21896169 -0.12802334 0.030668711 -0.078179836 -0.028583754 -0.13289246 -0.07372586 0.068281576 -0.024534078 -0.16564576 -0.23897687 0.084403634 0.18418495 -0.2048544 -0.11378487 -0.057467327 -0.13403417 0.013542435 0.013109676 0.23844096 -0.054186925 -0.133049 0.15688662 -0.102505215 0.069194004
-0.029933754 -0.007895025 0.0095223505 -0.025352111 0.00049595674 0.051578596 0.0024184068 -0.033371285 -0.00046589613 0.055098526 0.09843978 0.16530393 -0.13212171 -0.032360375 -0.011003767 -0.07669055 -0.105137184 -0.01533 -0.06518801 -0.08382038 0.1390264 0.08864087 0.002155167 -0.04083925 -0.08051384 0.026595933 0.023691231 0.026841901 0.14006113 0.025404323 -1.282129e-05 -0.10192474 0.056724675 -0.09533302 -0.07349542 -0.12196902 -0.0026211927 -0.04445823 0.09486136 -0.059574015 0.05031372 0.0011104789 -0.031640097 -0.002228634 -0.031509668 -0.112591565 0.06377206 0.06237886 0.014959213 -0.025481485 -0.16399868 -0.12047567 -0.045407526 0.038109213 0.0068362025 -0.020484818 -0.052933574 0.012558647 -0.104437254 -0.28709644 0.03411114 0.020510402 0.04999447 -0.11928905 0.00062745786 -0.0548996 -0.12508458 -0.010430215 -0.04367456 0.0013874491 0.07662557 -0.0073440527 -0.10535082 0.033140156 -0.025751859 -0.014905067 0.0048717842 -0.014585495 0.12129825 0.010279176 -0.0866661 -0.108424306 0.08273141 -0.08475029 0.14470994 0.00087343727 0.057273787 0.0031015715 0.07605968 0.00022808532 -0.15233813 0.090564765 0.05310783 0.03759754 -0.05214854 -0.039657213 -0.00017412947 -0.034717474 0.046035487 -0.059870657 0.0020510838 0.026926095 0.018694423 0.078406796 0.02050386 0.005881849 -0.07722798 -0.08335383 -0.014047797 -0.030490534 -0.00019999532 -0.0353959 -0.066819884 -0.10197117 -0.04401435 -0.0032482548 0.1232393 0.075414635 -0.23308903 -0.063923225 -0.01512392 0.002857075 -0.08694291 -0.036286034 -0.055993155 -0.009049759 -0.104700886 -0.061144494
0.094698995 -0.04468956 0.008472657 -0.039291855 -0.09968068 0.022250123 0.023069048 0.15830235 -0.078000404 -0.05339337 0.03384424 -0.02611421 0.09524401 -0.010861458 -0.021285016 0.18709762 0.12554546 -0.10142946 -0.05524889 0.18197621 0.07383325 0.058437593 0.078331344 -0.05652104 -0.0901683 -0.02715449 0.15828942 0.09294249 -0.07518193 0.047146387 -0.06322315 0.20912619 -0.05020464 0.09515549 -0.094482824 0.116673455 0.44619632 0.12233938 0.0030407766 -0.0075980513 -0.06586275 0.039862514 -0.05355276 0.14387043 0.029319216 0.1758225 0.07297459 -0.06619336 0.040939186 -0.14614165 0.1729664 0.12736687 0.19843148 -0.12714738 -0.09434003 -0.15041608 0.06765032 -0.09638624 -0.2204673 -0.09626143 -0.27108398 0.19579008 -0.15689175 0.00080405676 -0.10805421 -0.122001775 -0.08784041 0.057033706 -0.10910657 0.06997205 0.24194776 0.03341148 -0.057465065 0.0659277 -0.053686623 -0.37856707 -0.092243016 -0.13911904 0.08186704 0.06961676 -0.08501644 -0.21569453 0.0065688626 0.05461265 -0.09235151 0.13517094 -0.015074294 -0.07181971 0.0011923936 -0.1114651 0.049427994 0.026627656 -0.055676986 -0.06490114 0.10551261 0.17488515 0.23456788 0.12721477 -0.088329196 -0.07555725 0.10986927 -0.12091239 0.09814818 -0.10739146 0.046345055 0.11224057 -0.003002603 0.0247888 0.05174843 0.20604035 0.17041123 0.019055162 0.16883439 0.061354294 -0.02221891 0.028780445 0.041252516 0.04006729 0.11712111 -0.1731285 -0.0037982415 -0.017682485 -0.010662702 0.30374742 0.098533794 0.032478277 0.10914283 0.029654877
0.030059014 0.052946653 0.040773254 -0.01968023 0.115577064 -0.091102004 -0.080225624 -0.06744648 -1.2796197 -0.44394267 -0.12854931 0.04158221 -0.15966973 0.07856874 0.06781235 -0.041632053 0.010898287 -0.06376798 -0.09515246 -0.004700991 0.016077355 -0.1525008 -0.02674597 0.063294366 0.10099189 -0.10608602 -0.05649874 0.42227566 -0.123978205 -0.05963574 0.021943917 -0.031826675 0.24267057 -0.09236877 0.0016601273 0.07168701 -0.030569552 0.877339 -0.05376595 -0.011494899 0.03533 0.13306047 0.004862635 0.065448284 -0.20416929 -0.07695746 0.1685622 0.051500678 0.16660166 -0.0069753714 -0.16768686 0.029389892 -0.01897476 -0.108147025 -0.148957 0.01856238 -0.018950984 -0.021002756 0.13700409 -0.0067881807 -0.07819213 -0.25730634 0.050553825 -0.16692592 0.11255872 0.30969095 -0.013343089 -0.032182302 -0.017767083 0.0013157948 -0.018560514 0.0525788 0.013992772 -0.14568986 -0.08528812 0.12193718 0.1070993 -0.046049535 -0.079271555 0.0748573 -0.052507866 0.11697008 -0.14208543 0.06250508 -0.052459504 0.027970903 0.14577341 -0.0016539992 -0.007459939 0.20639154 -0.11352965 -0.16076458 -0.16279455 -0.14744909 0.10056279 0.028231552 -0.09722766 -0.1578644 0.37343743 0.03749748 -0.087274745 0.019628173 -0.09303972 0.03248394 -0.05329957 -0.19199567 0.027529512 0.10185845 -0.06434189 0.10256117 -0.1706547 -0.01716725 0.023816 0.07893068 -0.024838062 -0.10756358 0.036367748 -0.019815408 0.08227541 0.13611169 -0.05457276 -0.017987372 -0.036801998 -0.052613918 0.008577486 0.09229662 0.036780052 0.054343067
-0.018265305 0.054372784 -0.13366656 -0.00027691148 0.14617963 -0.19660695 -0.20857005 -0.26456174 0.24481978 -0.101989456 -0.0407725 -0.06641356 0.008844647 -0.22030519 -0.12802854 0.03132618 0.043667026 0.039016638 0.19888288 -0.13647634 0.12219456 0.28115222 0.064526215 -0.11689112 -0.11590182 0.17109962 0.0010218255 -0.34715536 0.004596684 -0.09876956 -0.10899617 0.07300544 -0.11523195 0.073141806 -0.03916805 -0.106950745 0.2044014 -0.10434409 -0.0284837 -0.00874562 0.03508488 0.14859222 0.15928003 -0.14542367 -0.10938347 -0.014819705 -0.0992329 0.052715912 0.021070395 -0.103744514 -0.05007558 -0.21106824 0.05587703 0.0026934429 0.04151639 -0.0011390499 -0.0588276 0.035905357 -0.027487757 -0.004908861 0.048683926 -0.027365688 -0.079363234 -0.06044357 0.1873228 -0.041018363 -0.043649197 0.097101025 -0.1497552 -0.19891737 -0.054192703 -0.10790276 -0.08661816 -0.06772582 -0.042658243 -0.01449742 -0.048339278 -0.10619591 -0.022540625 -0.099211805 -0.00572617 0.067259684 0.07511716 0.08353994 0.20633098 -0.10712628 0.046400588 -0.14979705 -0.17311761 -0.10148435 0.13571535 0.09059852 0.11368667 0.18620583 0.04974855 0.13709919 1.3700294 0.13276668 0.16934748 -0.19428656 0.16427031 -0.19178998 -0.1484879 0.12108828 0.3103859 0.033076253 -0.0846701 0.104157545 0.05536497 -0.03785547 -0.056173317 0.0077091716 0.26339462 0.13948824 0.025996553 -0.021978628 0.06337508 -0.04373275 -0.044064987 0.055763274 0.25118116 -0.2797296 0.0058044195 -0.10144642 -0.08260049 0.15724127 0.122406326 0.09784148
-0.047569174 0.071406424 0.03408893 0.09789199 0.013229263 0.09225693 -0.14777964 -0.15929003 -0.5074814 -0.031982306 -0.058071245 -0.043084703 -0.105409905 -0.020671057 0.06897739 -0.0019054097 0.0011599115 -0.22867116 -0.02140441 -0.10135853 0.077928975 0.083948776 0.088717036 0.024491923 0.03962043 -0.015399179 -0.19713898 -0.33846948 0.030730033 -0.07282271 -0.078507006 0.2086258 0.089601964 0.09686059 -0.074426286 -0.14794192 0.08434862 0.3891414 -0.012336654 -0.10741355 -0.1233479 0.06490146 -0.022705551 -0.04200327 0.11919959 0.05548827 0.07635373 -0.04625026 0.19413067 0.055758066 -0.013002012 0.19589426 0.08872153 -0.20159937 0.11996638 0.06824533 -0.06371885 0.06697336 -0.05575021 -0.00032344455 -0.03343121 -0.031410947 -0.09262743 0.1401603 0.14192964 -0.21320003 0.010748074 -0.1429286 0.07917403 0.009650192 -0.04241963 -0.056594484 0.11662787 0.0037115156 0.2078424 -0.023006048 -0.16111085 -0.18528768 -0.041792084 -0.14158806 -0.016546514 0.088535294 0.021030195 -0.08602095 -0.16038892 0.049941756 0.19844383 0.102872804 -0.006262612 -0.17196304 0.16206233 -0.05196245 -0.018303027 -0.12098188 0.15271328 -0.06377227 -0.35802993 0.08132832 -0.18985839 0.09346642 -0.032639474 0.086297736 -0.04475059 0.064073555 0.019346954 -0.108432345 0.18307944 -0.119457364 0.16067179 0.17125183 -0.09751621 -0.06361209 -0.12082484 0.11637117 0.06002012 -0.23154648 0.03638183 -0.08516153 0.16179623 -0.04259575 0.008587617 -0.019168463 -0.030158399 0.025943028 -0.0912273 -0.06468916 0.05001122 0.045763575
-0.03354265 0.05601162 0.13010816 -0.09097404 -0.25634775 -0.111934625 -0.14974254 -0.012970435 -0.06434609 -0.18368328 -0.021070477 0.08862383 0.15631643 -0.03607478 -0.08260857 0.16153435 -0.037987225 0.027458955 -0.28926033 -0.00042548167 -0.013269467 -0.0051173684 -0.07601205 -0.007465506 0.03506199 0.13250528 0.16049743 -0.37122488 -0.13299517 0.02955075 0.16385503 0.08320058 0.05532073 0.12387483 0.054455914 -0.18038124 -0.035795372 0.20861508 0.107107334 0.22198364 -0.1302008 -0.06625211 -0.06262428 0.20027079 0.03743335 0.010565091 -0.03158124 0.077765726 0.090316996 0.038443994 0.19136 0.07459786 0.011354411 -0.035354007 -0.053631306 -0.18713945 -0.1272762 -0.13602069 0.13819258 -0.04225326 0.021792792 0.009130411 -0.142412 0.06849563 0.10610993 -0.05245413 -0.046702895 -0.03903124 0.014321909 -0.023661995 -0.20000021 -0.31357875 0.048944786 -0.009030143 0.06886804 0.003068393 -0.08126026 0.057399362 0.16994938 -0.14002156 0.032773368 -0.061446436 -0.11662314 -0.13922144 -0.09201311 0.05560881 0.0047280327 0.053273436 0.078536384 -0.011801316 0.076307535 -0.07739283 -0.14635229 0.044508766 0.056701202 -0.102789715 -0.5365315 0.036579788 -0.18241742 0.0692917 0.15805502 0.13043095 0.012505814 0.008221049 0.16305085 0.09326863 0.12825511 0.15998848 0.002605589 -0.12066489 0.12810625 0.09630291 0.01870074 -0.006896388 0.015080877 -0.021636192 -0.025568387 0.09537138 -0.009858199 0.11597246 -0.037025146 -0.029428383 -0.1528971 -0.03434685 -0.08583622 0.006776778 0.04825957 -0.09790171
-0.025126625 -0.12664425 0.080585465 0.03337364 1.1517912 0.07967315 0.029965525 0.11512685 0.45595956 0.0318865 -0.06639733 0.19655538 0.027066378 0.16733085 0.025705863 -0.051615745 -0.11745895 -0.36517787 -0.074658744 -0.023134734 0.045705914 0.302675 0.03326829 -0.06438399 0.07466214 0.12438441 0.09199733 0.07223548 -0.036425564 -0.06587231 -0.3645416 0.24169631 0.090644054 0.17737934 -0.00035864304 -0.19931124 0.0017379227 0.1323848 0.1356888 -0.08889268 0.037788626 -0.12645899 0.026431061 0.11884665 -0.27020487 -0.20156327 -0.042606324 0.1894798 0.30679813 -0.25076044 -0.062193684 0.08016046 0.025887119 -0.022231702 -0.06373673 -0.018113393 0.11156918 -0.052797113 -0.32146224 0.10135679 0.08970612 0.11184693 0.5064647 -0.04586965 -0.5029835 -0.4895216 -0.17171608 0.057507705 0.059000943 -0.055711173 0.11100335 -0.012677841 0.063689746 -0.05824957 -0.25025508 0.09538405 0.012375481 -0.02705222 0.046331435 0.07984548 0.12636518 0.044326805 -0.046789747 -0.00012339035 0.004075713 -0.024654776 -0.052159633 0.023171205 0.13178165 0.30853665 -0.23714429 0.26611277 0.19347537 0.49186006 0.14292899 0.036928486 -0.6061963 -1.6760032 -0.8068328 -0.013270465 0.2971324 -0.006052747 -0.040756043 0.20408697 -0.56399846 -0.14644215 0.023697881 0.016918657 -0.14325352 -0.031827934 0.014514052 0.008706258 -0.16124977 0.114566185 -0.018747939 -0.74731606 -0.06778009 0.049583264 -0.063031375 -0.039346807 0.023589587 0.19685233 -0.06627628 -0.07574249 -0.06151859 0.00812463 0.066449374 0.03454093
0.05576754 0.023794739 0.2002442 -0.12407454 -0.13077424 0.13193409 0.0038521166 -0.13742754 -0.18009147 -0.18467812 -0.10301737 -0.05519113 0.062142145 -0.027861359 0.2210422 -0.07237999 0.27097154 -0.22245604 -0.038627785 0.03911042 -0.14905249 0.019036965 0.113122106 0.014942353 0.055839982 0.044614963 0.1093109 -0.8467493 0.02013894 0.0679306 -0.018200396 -0.11855514 -0.13018109 -0.12324507 -0.030276898 0.04828847 0.027054446 0.5585568 0.029833974 0.122302435 0.116401106 0.08531905 0.14442372 0.07072839 -0.05302974 0.09688477 0.045248803 0.17010608 0.09126283 -0.037744593 0.08273483 -0.039271858 -0.123060904 0.15777807 0.18217906 0.14632358 -0.16358964 0.14270335 -0.082223795 0.0730948 0.03222637 -0.1581881 0.004455667 -0.032229576 0.11843463 -0.51463324 -0.009983295 0.062324855 0.077531196 0.14089109 0.25978014 -0.08495305 0.20026523 -0.009196265 -0.109494425 -0.048931982 -0.10028528 0.2501251 -0.10611392 0.068005994 0.0033535499 -0.23822345 -0.024010774 -0.051025186 0.16143152 -0.21624768 0.3146625 0.047153458 0.042288482 -0.011445584 0.13417265 -0.18912514 0.0014869645 -0.016311923 -0.010942956 -0.04321355 0.37573832 -0.08738242 -0.17030855 0.07808975 -0.08652952 0.14696781 -0.0625055 -0.06689006 -0.089990266 0.28117046 0.045775026 -0.19406839 -0.104569934 0.028798638 0.025396934 0.23747951 0.06171137 0.02119248 0.0030835415 -0.021515824 -0.018006762 0.01278799 0.12643297 -0.08320671 -0.05131521 -0.42784587 -0.19013034 0.14761786 0.18470468 -0.022638248 0.052282203 0.044084974
0.01080884 -0.081283465 -0.19308738 -0.12301011 -0.557884 0.11777121 0.19383784 0.0066020275 -1.3016945 0.17409809 -0.051158655 0.021797424 0.03363935 0.035498034 0.11797839 -0.001336393 0.18276605 0.38120806 0.027958509 -0.014438266 0.07702954 -0.5335626 0.045611687 -0.010340655 -0.05019255 -0.22680642 -0.025492128 -0.6797369 0.07141792 0.15925416 0.2395332 -0.13430569 0.3476891 -0.055518575 -0.021837585 0.31646854 0.1439486 0.37986776 -0.07375592 0.055928987 -0.27844143 0.09414009 -4.7477224e-05 -0.053974472 -0.10410064 -0.11444606 0.10344805 0.10410064 0.027971454 0.0424842 0.014527013 0.12149976 -0.004561604 -0.030067818 -0.03935186 -0.013278191 0.045563716 0.06657625 0.17900845 0.05315341 -0.3901869 -0.017437866 0.03630247 -0.043631863 -0.08868603 0.47865596 -0.0043557948 -0.3715561 0.15028799 0.09581521 0.025268931 0.18881859 0.1911535 -0.26509506 -0.051033635 -0.04142876 0.12907018 -0.31181604 0.06172215 -0.11846721 0.0021829195 0.0343615 0.07349459 -0.06476216 0.11389494 -0.045589063 0.010159204 0.04985184 0.073409185 0.57637084 -0.13641736 -0.03154179 -0.411402 -0.08173045 0.20573975 -0.021496039 -1.496955 -0.06505937 -0.7251122 0.0889134 -0.050844755 0.06462992 0.32198533 0.04663371 0.54680246 -0.13887222 -0.0052880654 -0.011122649 0.13286516 -0.010630289 -0.07897505 0.05701302 -0.064807855 -0.11975092 -0.10018237 -0.51352435 0.2162921 -0.10913793 0.17775589 -0.105696045 0.32395443 -0.03484867 -0.13284306 0.07344919 0.12879348 -0.0075666807 -0.17392935 0.14053123
0.18127014 0.015092529 -0.10905025 -0.106379405 -0.070485175 -0.028252445 -0.108059466 -0.051568173 -0.3208609 -0.055105146 -0.09732643 0.014959343 0.21461539 -0.03321397 0.1348402 -0.00029739822 -0.109227024 -0.25038067 -0.0823138 -0.054237332 -0.06826019 0.1991752 0.118665 -0.13609566 0.021904703 0.04088703 0.03431105 -0.61953413 -0.09205928 0.014585932 0.031318657 -0.018042171 0.16284092 0.11215342 -0.06887725 0.056398775 0.19727701 0.40486476 -0.045397032 0.092990994 -0.027225772 0.17427503 0.01108461 0.20649377 0.09753453 -0.044979256 0.100890115 0.20706588 0.23070313 0.12118376 0.055964287 0.122428626 0.030970247 0.16441509 -0.10092128 0.024018696 -0.0018878392 -0.15051807 0.07499855 0.1502296 -0.14133054 0.22904748 -0.10231796 0.016260803 -0.019051328 -0.20493962 -0.064874925 -0.055992857 0.049381547 0.020101283 0.041795682 -0.09439234 -0.09667708 -0.27761793 -0.0901423 -0.06461788 0.07730143 0.023872722 0.013900499 0.12699968 0.17442858 0.08173671 0.040607333 0.17217915 -0.14482562 -0.20856683 0.15263991 -0.10075529 0.10380795 0.099156454 0.02489016 -0.049848687 -0.13523012 0.042655062 0.16251649 0.0062922384 0.12534055 -0.17251024 0.0135836955 -0.010713651 0.11724308 0.031741437 -0.04134599 0.2069833 -0.055494756 0.11136774 -0.07574656 -0.12622687 -0.043019537 0.06984587 0.1610396 -0.11087586 -0.16658074 -0.043729857 0.001521956 -0.016849937 0.048562177 -0.03917959 0.44968718 0.042804703 -0.009209568 -0.25697765 0.048961032 0.0343478 0.22645997 0.03434037 0.09765221 -0.20338084
0.047517203 0.0016168731 0.02456432 0.06176286 0.0026961865 -0.008829032 -0.003727619 -0.010110531 -7.5615506e-05 -0.0009373507 -0.0103669735 -3.2307424e-05 0.10229419 -0.034836885 -0.066870406 0.013966233 -0.0041256202 -0.049554728 0.00020601544 0.10033647 -0.19318473 -0.09805783 0.012883137 0.044886045 -0.0026085146 -6.811796e-05 0.07727679 -0.00582723 -0.048729748 0.051642884 -9.311115e-06 0.010176315 0.0050769323 0.053101745 -0.18010612 -0.011919137 0.0048607793 -0.0014621462 -0.09733805 0.03702363 0.11820809 -0.03331949 -0.077799134 -0.0027218645 -0.019936863 -0.19958168 0.08477682 -0.037147187 -0.00010270981 0.0015908151 -0.049818236 -0.0014026685 -0.041184243 0.064859346 0.0032476073 -0.044627864 -0.042202663 0.02583876 -0.041509278 -0.0107542025 -0.04516142 -0.04793777 0.00073752744 0.06740654 -0.009375215 -0.0066138436 -0.038071085 -6.3356653e-10 -0.073077194 -0.11622402 0.001555961 -0.017081093 -0.02865195 -0.017413812 -0.034975756 -0.0007768297 -2.9610692e-05 -0.0042434363 -0.008316575 -0.0019474014 0.09525432 -0.016481811 0.012900023 -0.00011232068 -0.0047281007 0.06630562 -0.14239763 -0.0041757044 -0.1231278 -5.1437874e-31 -0.030079728 -0.1328191 -0.0064262412 -0.00019027079 0.19232394 0.014171317 -8.189585e-25 -0.011617951 -0.004159849 0.038576815 -0.08514143 -0.021160379 0.023066116 0.07828349 -0.0096171545 -0.015943184 0.042683113 -0.020843977 -0.012247296 -0.059522606 0.06381418 0.0025192637 -0.12564173 -0.0018554473 -0.12061627 -0.008877641 -0.031250708 0.01982717 0.026291938 -0.08972895 0.015005634 -0.003976025 -0.031190207 -0.022299003 -0.0348931 -0.028447783 0.05972419 -0.09580994
0.12803568 0.0041927528 -0.0083149485 0.023606403 -0.0080576865 0.15475523 -0.02572494 -0.0490494 -0.042597648 0.105835356 0.03521829 0.04018352 -0.1075854 0.06439899 -0.28725573 -0.057581406 -0.18254314 -0.0059827594 -0.015816644 0.076253444 -0.14276022 0.019732894 -0.045164883 0.17305273 -0.0373625 -0.16593362 -0.06054789 -0.08285788 -0.06984145 -0.0699307 -0.009010902 0.023936136 -0.0066053197 -0.12112311 -0.00556232 -0.025084216 0.06518082 -0.072794825 -0.11665123 -0.031890556 -0.0068772496 0.113441005 -0.23449834 -0.109149896 0.032662116 0.07107667 0.06025849 -0.04810571 0.051806178 0.007935742 0.03810041 -0.013749116 -0.055278543 -0.20012897 0.144185 0.1652551 -0.22916672 -0.08222102 0.028673569 0.06281729 -0.036477 -0.02779182 -0.0031862077 0.16625884 0.048989758 -0.097918384 -0.018058643 0.011995173 -0.20861241 -0.0022746292 -0.07483905 -0.055188805 0.039624568 -0.122676596 0.1461055 -0.042814992 0.022886787 0.08491823 -0.09448054 -0.011859403 0.025118764 -0.2224103 0.07299703 -0.1472844 -0.077749476 -0.12213695 0.09521935 0.19624622 0.09285997 -0.0071244626 -0.023458548 0.018232785 -0.036366146 -0.008047827 0.06793506 0.019216593 -0.03887729 0.056131188 -0.13782346 0.05859739 -0.006620029 -0.028504072 -0.13173221 0.07954937 0.024332322 -0.09954845 -0.0053293966 -0.092612 -0.1191034 -0.061672058 -0.17227541 0.09399316 0.044334922 -0.050873384 -0.07785298 -0.07364198 0.1305082 0.26782984 -0.020552417 0.15298438 -0.03346103 0.12230785 -0.077129476 -0.13483877 -0.05458596 -0.13537861 -0.12763442 -0.045150142
0.10878852 0.16928735 -0.11953229 -0.02221773 0.10730472 -0.15071493 0.020295834 -0.06989058 0.09919128 -0.07041616 -0.15846856 -0.048038743 0.049780436 0.016162043 -0.068762414 -0.0020348064 -0.09338288 -0.08304759 0.0032294407 -0.03249846 -0.062280603 -0.14558654 0.032009095 0.00015281733 0.01397356 -0.04840738 -0.09267202 -0.0612904 -0.22979692 -0.0015185997 -0.041656148 -0.04942566 -0.028223652 0.0022218649 -0.030259635 -0.082124114 -0.15646319 -0.07171558 0.046505406 -0.03358156 0.023105362 -0.058766045 -0.0132593475 -0.12619205 -0.038924325 -0.092570305 -0.027909132 -0.06291565 -0.022277836 -0.024227887 -0.018729057 0.07810805 -0.016423842 -0.007001283 0.10154336 0.011582529 -0.011983556 -0.178358 0.075453594 -0.19005299 0.07986356 0.020474669 0.17259568 -0.06768072 0.099419825 0.045449555 -0.05195545 -0.1109099 0.16079117 0.04223531 -0.14109287 0.032800887 -0.015958153 -0.023136508 -0.15481253 -0.17917687 0.0026618626 0.20627049 0.004955067 0.062094145 -0.052894484 -0.14908274 -0.12285738 0.023293177 -0.05188351 0.08415306 -0.10740115 0.2790566 0.037669152 0.1557353 -0.022980945 -0.032623127 -0.07647088 -0.0004101267 -0.15880033 -0.16843954 0.09603225 0.0023215911 0.04443071 -0.09639184 -0.13845924 -0.065078095 -0.016034676 -0.0075365216 -0.012636799 0.13101976 -0.039018724 -0.15228228 -0.0005929691 0.12803935 -0.021074232 0.0725461 -0.040228218 0.20961662 -0.04723715 -0.07456757 0.060641497 -0.015147383 0.05032235 -0.015938185 -0.049478695 -0.029405465 -0.09696021 -0.16859964 0.10909216 0.106054924 0.17584951 -0.11148866
0.06921113 0.00526949 -0.18048504 -0.06856186 -0.14331852 -0.039931074 0.061698794 -0.019922452 0.16518246 0.015874555 0.008305213 -0.10912514 0.21578896 -0.044399105 0.010708318 -0.14170064 -0.050178256 -0.122307785 -0.032651506 0.005320062 0.058010127 -0.08617517 0.097876266 0.20330395 0.16134617 0.0035724717 0.08201436 0.2729035 0.055581402 -0.04766349 -0.12172978 0.023391677 -0.1653761 0.20063844 0.22014542 0.16736381 0.3707319 0.075206906 -0.07417727 0.043690845 0.16566329 0.207701 0.1832571 0.04172611 0.16387697 0.070164345 -0.004786111 0.117618166 -0.07555425 0.07405875 0.015999066 -0.011082031 0.13950732 0.0498896 0.06230197 -0.020850945 -0.07837144 0.13753575 0.022935137 -0.061783362 0.009220547 -0.0017099176 0.13006563 0.10699122 0.008988025 0.083741896 -0.07599687 0.033007108 -0.02606678 0.08431325 -0.14125681 0.16487707 0.1388634 0.10222239 0.021176102 0.07496929 0.1349738 0.21076697 -0.12620215 -0.085675195 0.025675641 0.07520608 -0.12280435 -0.01943562 -0.038161922 0.08272546 0.1276222 0.24572612 -0.010755696 -0.107741624 -0.057222478 0.18999809 -0.076361515 0.091625325 0.06925885 0.115507 0.48569512 -0.07991118 0.008156486 0.047034934 0.10626458 0.061899703 0.03290217 0.052239276 0.057899434 0.09820224 0.018855087 0.03577987 0.06613316 -0.071424454 -0.026802102 -0.17003061 0.019826494 -0.23147912 -0.13572979 0.1241253 -0.057658304 0.0630915 0.023721749 0.08649413 -0.011864854 0.2724973 -0.0375497 -0.06666904 0.05767641 -0.035823368 -0.006471674 -0.017613227
0.16210267 0.066733815 0.082514755 -0.106874235 0.0144511955 0.15523915 -0.052810106 -0.10929832 -0.33975428 -0.20659079 0.15753509 -0.011756655 -0.08196045 0.049955014 0.09732704 0.12865053 0.04599125 -0.21361901 -0.17810549 0.030800829 0.14751077 0.22269388 -0.03371824 -0.085914664 0.12959449 -0.005036486 0.19170645 -0.6683209 0.10859873 0.029297577 0.07676911 0.11317111 0.032254707 -0.066985056 0.078874655 -0.026433948 0.45770383 0.4941276 0.16528629 -0.015214195 -0.008093381 -0.031174792 -0.034667138 -0.14144379 0.20665142 0.09208691 0.05490004 0.10495778 0.08029025 0.10801513 0.0046140654 0.06750613 -0.19967695 -0.019201329 -0.15319495 -0.012198983 -0.0037208942 0.08735842 -0.022711674 0.035720833 -0.07239045 0.044084016 -0.3011616 0.0376177 -0.009233079 -0.35721692 -0.03993516 0.05067168 0.08463229 0.1669414 -0.036607932 0.12067692 0.14257246 -0.004431945 0.02785956 -0.11575673 -0.091410436 0.01673144 -0.030242836 -0.024937313 -0.025636017 0.0037341956 0.073341236 -0.22447523 0.019587241 -0.16176832 0.027472895 -0.061506014 -0.04287 -0.050277136 0.1267283 -0.0029899112 0.014508733 0.07206001 0.1526093 0.0043531274 -0.03210386 0.048418954 -0.31186265 0.010127168 0.03359417 0.14497113 0.09775065 0.17882776 0.085223496 -0.14369112 0.02933261 -0.101466365 0.07792571 -0.017977351 0.15387887 0.01117959 0.014554216 0.24058294 -0.061422225 0.062945925 0.025342742 -0.09620711 0.06153922 0.043509863 0.094431214 -0.23019978 -0.092341475 0.14098732 0.01511713 0.11917552 -0.032172017 0.13611616
-0.1872721 0.116524644 0.13121614 -0.14792533 -0.17211534 -0.007446202 -0.11230542 0.04951523 -0.527483 -0.06525681 0.13691227 -0.04577901 0.10394302 0.13982788 -0.001802581 0.05861398 0.08418433 -0.15514879 -0.34771958 -0.083772 0.16985442 -0.008152654 0.0015918984 -0.04173294 0.06646797 0.039866373 0.06915989 -0.69845515 0.087358825 -0.06066116 -0.080258586 0.107754104 -0.069970265 -0.09328656 0.07190953 -0.082766026 0.2100809 0.21376505 0.12760885 0.041484274 -0.03547781 -0.048225816 0.005193773 0.10049414 -0.016106553 0.05712323 -0.04943071 0.11993842 0.050106682 0.03450009 0.12996176 0.21232088 0.13769573 0.14538004 -0.06773631 0.00075459457 -0.13760284 0.1957942 -0.0385893 -0.054701116 0.007469617 0.042033542 -0.117301345 0.013648956 0.12275449 -0.48261932 0.140573 0.068124846 -0.07596991 0.21673532 0.03222409 -0.047801036 -0.13908276 0.03237481 0.06177723 -0.073484674 0.006291009 -0.05404301 0.06572785 0.09804362 -0.008223861 -0.10630687 0.08860195 0.012235255 0.040160567 0.09877723 -0.036748916 -0.036380056 0.11422142 -0.060157146 0.074334346 -0.011771393 -0.07703731 -0.18750623 0.24174985 0.088755086 -0.5349182 -0.25158963 -0.34863532 0.10129474 0.07841526 -0.0015529646 -0.014160369 -0.051828355 0.13505942 0.29771337 0.034081347 -0.029414 0.04075934 -0.004266504 -0.029912516 -0.05319624 -0.024755685 0.08185813 -0.037367612 -0.11963191 0.014934141 -0.008591891 0.0664213 -0.14040862 -0.116722606 -0.20554246 -0.025131254 -0.011145653 0.062048066 -0.008487287 -0.20679933 0.064214624
-0.43919227 0.7654059 0.35045546 -0.028023213 -2.4159968 0.15523066 -0.28776404 0.26938167 -2.77818 -0.17133568 -0.20374537 0.769214 -0.053346146 0.12447789 -0.837889 0.10056118 0.12287014 -0.24895954 -0.49278125 0.085642114 0.16651677 0.08839566 0.30860752 0.3638642 0.1964895 0.17170691 -0.0029620666 -0.862301 0.068059586 0.1664593 -1.1842945 0.03562164 -0.16481097 0.1830242 0.07450884 -0.40277994 -0.12795144 0.5631015 0.12723655 -0.11168563 0.30107713 0.15732947 0.071961194 0.079931386 0.13275816 0.059465077 -0.29866445 -0.95329994 -0.24331181 0.003097215 -0.064340115 0.33746693 -0.080637164 -0.14917818 0.083602466 -0.001750146 0.109855905 -0.028620787 0.20795941 -0.23070355 0.20883757 0.022123113 0.105855815 -0.10785266 -0.09813315 0.18114866 0.08991993 -1.1906637 0.07010467 -0.38984805 -0.11304342 0.1295415 -0.6072401 0.0820137 0.10669879 0.039259482 -0.13391161 -0.22415946 0.04480486 0.1348737 0.11820337 0.02265959 -0.0020521565 0.04647257 0.10883175 -0.20296013 -0.10319869 0.023652019 0.058190852 -0.1357492 0.021248292 0.1960259 0.08338018 -0.34730422 -0.07574726 0.24967219 0.88669866 -1.0938255 1.0558404 0.12681608 -0.018564463 -0.98577505 0.06604305 -0.4859727 0.3850041 -0.0054627424 -0.07662106 0.19532765 -1.2275674 -0.029589104 -0.028871031 -0.25974074 -0.07475616 0.11131637 0.1499754 1.2596245 -0.645437 0.08173496 -0.29726863 0.3095744 -0.33414686 -0.18605731 0.08639685 0.08973748 -0.024683114 -0.53336984 0.12883575 -0.39012247
-0.048208896 -0.0024790303 -0.10476917 -0.052217964 0.14825158 -0.015995272 -0.073736206 -0.115644716 0.024872664 -0.1654392 -0.045174602 0.030331189 0.031320352 -0.081451155 -0.119864024 -0.25570625 -0.17184982 0.19108729 -0.16672961 -0.07931393 -0.04386096 -0.13425763 0.13601425 0.050541375 0.0629098 -0.11230858 -0.16062172 -0.00015646001 0.07793335 0.089900866 0.08044724 -0.014303427 0.08903094 -0.0101469355 -0.03629553 -0.1722571 0.115205616 -0.05502424 0.11407368 0.13795209 -0.11332985 -0.22982651 0.017905263 -0.010660647 -0.06111273 -0.15641198 -0.12869862 0.08807735 -0.026626844 0.035043687 0.07526763 0.09551858 -0.091632865 -0.08097773 0.010716528 -0.13057645 0.013463399 -0.07254094 -0.09246673 -0.12882803 -0.15112622 -0.057884637 -0.21289569 -0.009035858 0.089366294 -0.08641541 -0.01328779 -0.109374896 0.2530194 -0.16664 -0.07523684 -0.046555832 0.06790488 0.10371617 -0.02750515 -0.1387177 -0.060689285 -0.04754862 -0.056937665 -0.10523137 -0.11888452 -0.025852757 -0.0046603745 -0.0016150874 0.21638751 0.1147894 -0.151111 -0.18547715 -0.004600275 -0.07796864 -0.13006069 -0.10634364 -0.04712445 0.070915565 -0.11607176 -0.06781711 -0.028646275 0.036285814 -0.014459231 0.021400439 -0.06930861 0.09801962 0.011603847 -0.09227176 0.0074351137 -0.11214771 0.055605605 -0.08105087 0.16404197 -0.13879901 0.013033297 -0.25256547 -0.01773197 -0.0011357974 -0.0110862125 0.009064233 -0.09403787 -0.088955104 0.06882775 -0.05328241 0.025297936 -0.022884957 0.075688474 0.002564078 -0.05967666 0.073633775 -0.1407359 -0.14525042
-0.05972313 0.09375 -0.12374898 0.06718649 -0.18366396 0.024911098 0.017771658 0.11104169 -0.5778967 -0.23065203 0.20016375 -0.06399107 -0.052037403 0.014763029 -0.13768774 0.01110668 -0.0039316663 -0.40650177 -0.27315667 0.17608257 0.19448836 -0.20439495 -0.29951662 -0.0040247566 -0.033246543 -0.062033396 -0.011327245 -0.19057469 -0.06934699 -0.027708886 -0.13452151 0.10241395 0.0606205 0.012531047 -0.22635517 -0.047993045 0.0668063 0.40091196 -0.021443231 0.16750254 0.13193367 -0.13743424 0.030623265 0.11542299 0.07380267 -0.068094164 0.0016615357 -0.011639341 0.2072717 -0.025801439 0.10171853 0.006576939 -0.023976495 0.05266745 0.2126392 0.06810959 0.10192729 0.015036576 -0.08806837 0.12981544 -0.055379525 -0.07081255 -0.13874431 0.017728182 0.024454359 -0.2847831 0.092898145 -0.06555785 0.24990517 0.0115807885 -0.095531166 0.014299974 0.021631716 0.010803041 -0.26723745 -0.0054877033 -0.012983595 0.08428947 0.050013125 0.0011089734 -0.047573328 -0.06044515 -0.0038718903 -0.05002289 -0.1548263 -0.00029632382 0.04955936 -0.024980944 -0.019465907 -0.032524474 0.19274984 -0.009263079 -0.23735557 -0.059760116 -0.18620606 -0.101496994 -0.71365047 -0.19735661 -0.59568554 0.07577739 0.1279113 0.025883403 0.16031517 0.12087306 -0.024579918 -0.06303897 -0.16478115 0.13481686 0.1096116 0.054519143 -0.0049111135 -0.001944361 0.12302025 0.106295936 -0.23705024 0.112703316 0.108618505 0.036799 0.06026287 0.022624841 -0.023383128 -0.027385026 -0.062475774 0.14055784 0.10506791 0.0892932 0.052023064 -0.03471225
0.011303497 -0.22517677 0.06260041 -0.072777264 0.060676698 0.06632137 -0.026778407 -0.007016031 0.15165369 0.013801992 0.29725263 -0.051516272 0.061457843 -0.024860239 -0.11254755 -0.1269313 -0.118059814 -0.0511976 -0.15738672 -0.098608814 0.03163251 0.425482 0.13093875 -0.06326635 0.015567928 0.04532603 0.075314105 -0.85385513 -0.13598497 -0.061674483 0.043308225 0.19341223 0.09800585 -0.022220604 0.036324754 -0.0412295 0.4371881 0.13858004 0.15372035 -0.19506207 -0.057446636 0.057427663 -0.07342495 0.1375738 -0.14851464 0.1721867 -0.024600763 0.07536352 -0.011404208 0.055053268 -0.06304973 0.10853786 -0.024038287 0.03106288 0.11346865 0.06578116 -0.040697727 0.11712296 -0.044714253 0.0023508533 0.07987762 -0.029037617 0.115458585 -0.05527161 0.01477889 -0.064811885 -0.15402521 -8.890123e-05 -0.0021254271 0.04520728 0.08515786 -0.24934375 0.027828217 -0.042447787 -0.060327098 -0.02486013 0.06489906 -0.12161615 0.0073612425 0.16998045 -0.12972814 -0.10398339 0.1336108 0.06441902 0.18366618 -0.17893606 -0.20830536 -0.04231355 0.031964157 0.102097064 0.052239686 0.16679451 -0.20709313 -0.09691048 0.036568128 0.15018426 1.0521917 -0.094963245 0.287868 -0.19034444 -0.058786135 0.010634395 -0.102269374 0.044815633 0.042695526 0.027723234 0.22368196 -0.106100485 -0.04502011 0.071393214 0.02192172 -0.25823042 -0.015354148 0.104131944 -0.12314305 -0.08170523 -0.043127116 0.013334365 0.04584082 0.10129291 -0.0036967753 -0.11374618 0.076896474 -0.21837862 0.02788816 -0.094665304 -0.022412572 -0.041707832
-0.009799286 0.17056559 -0.2506201 0.0053260755 -0.3657741 0.0038646793 -0.11481968 -0.0036423814 1.3117434 0.003333503 -0.032469865 -0.018441968 -0.06965718 -0.48817316 -0.025916962 0.06638225 0.071816385 0.34906188 -0.08675662 0.0269788 -0.09323823 -0.27189687 -0.053208962 -0.05581512 -0.039036192 0.09402652 -0.09257271 -1.8344718 -0.049186945 -0.10788439 -0.15080605 0.020416504 -0.2677679 -0.11664883 0.16340894 0.11933978 -0.18205653 0.24362206 0.10799411 -0.072182946 0.08918624 -0.017189642 -0.13485071 -0.089447714 -0.06045329 -0.14836627 0.087982856 0.05577374 -0.1949094 0.026676884 -0.052160926 -0.11645925 0.10250611 0.13780347 0.052315705 0.24608617 0.09906315 -0.036857955 -0.08235517 0.07571116 -0.20945583 0.040919144 0.197089 -0.10029714 0.084473014 -0.6922228 0.028398365 0.09475869 -0.05592756 -0.0667609 -0.22053395 0.2377215 0.094529636 0.13870639 -0.18337184 0.15293775 0.16450131 0.089150034 0.0138574 -0.028561274 -0.17366304 0.14840691 0.032656286 -0.012174214 0.2564862 0.06699811 -0.07724194 -0.09868379 0.11514726 -0.06951618 0.023856778 -0.025086481 -0.06252604 -0.49133682 -0.097453676 -0.12706749 -0.3046942 -0.18257098 -0.2540578 -0.032466654 -0.27505586 -0.06596846 -0.09427932 0.037494306 -0.010156425 -0.04525979 0.15562221 0.026244557 0.058874875 -0.0035556813 0.02082515 -0.08425909 -0.024422076 -0.025649156 -0.08053388 -0.17739198 0.060384672 -0.08123593 -0.0018683977 -0.048778858 0.07602408 0.09965116 -0.040025268 -0.15979458 0.058454905 0.0036099271 0.0055146716 0.13498369
-0.019668497 -0.026464555 0.16301984 -0.1317863 0.12794793 0.23799999 0.09362684 0.05080566 -0.004429798 -0.17479554 0.16728386 -0.04223156 -0.10090171 0.066006206 -0.03560526 -0.20491499 -0.031228764 -0.11597248 -0.12225223 -0.14881605 0.058734946 -0.14059928 0.018782247 -0.11069697 0.036992893 -0.041426986 -0.0670899 -1.0557755 -0.08153006 -0.032406565 -0.11329975 -0.011295221 -0.04995685 0.115690954 -0.08820521 -0.16013762 0.35972792 0.41702318 0.05081326 0.06908445 -0.051560502 0.06532686 -0.062026754 0.0942724 0.07608302 -0.09153804 -0.09832666 -0.022440853 0.34193292 0.046950858 -0.04802145 0.25097394 0.16467981 0.13408272 -0.0014334616 0.048765294 0.15090214 -0.16996013 0.22909789 0.11372399 0.0029085618 -0.19386904 -0.10490013 -0.18923894 0.10378813 -0.34880438 -0.122354366 0.09093126 0.1742227 0.06679566 0.038556486 0.15245922 -0.034216158 0.0920542 -0.13562442 0.09493921 -0.034067694 0.29353723 -0.12604244 0.095267564 -0.013464644 -0.023912614 0.07360925 -0.01762489 0.075343594 -0.0034716753 0.06850442 0.040776413 0.1300954 0.004498129 -0.07246288 -0.20935789 0.026397979 -0.106572196 0.04166013 0.31622988 0.941019 -0.05642724 -0.3848041 -0.04916945 0.06552421 0.20898329 0.0032953327 -0.011143424 -0.06407841 0.0545503 -0.05422971 0.32868594 -0.03980091 0.12581925 0.07226228 0.096145816 0.011049222 0.08056915 0.13590279 -0.015263153 0.020506032 -0.0916794 -0.03598684 0.10139224 0.045080163 -0.24726005 -0.13438392 0.10713285 0.06549473 0.08502203 0.15294598 -0.035783555
-0.05239678 0.17713898 0.12571871 0.05247603 -1.4496882 -0.06435625 0.08541301 -0.028839778 -2.029577 -0.11403841 0.2847049 -0.10750836 -0.008886968 0.056060184 -0.017423104 -0.048110496 0.027456867 -0.7381553 -0.726 0.06712188 0.2241182 -0.23153618 -0.11588361 0.20105952 0.22432622 0.043459006 -0.055161107 -0.86710006 0.15260816 -0.056187388 -0.85738707 0.111296 0.19126177 -0.10016494 0.0069783577 -0.13082652 0.11091562 0.50874037 0.10629272 0.15258825 0.1588003 -0.083161145 0.10364876 0.14108098 0.19481656 -0.07720055 0.089062326 0.32770506 0.20869312 -0.07636019 0.07205986 -0.061263278 0.18914978 0.023629917 0.0453725 0.14325607 0.22740018 -0.051588304 0.9164565 -0.008505474 -0.068121225 -0.10755693 -0.6235978 -0.08833321 0.00063335197 -0.123504564 -0.1186003 -0.40099588 -0.05449737 -0.10390536 0.11635476 0.35680225 -0.040882353 -0.10523382 -0.20156662 0.12432405 0.111651525 0.11981411 0.074081406 -0.01382646 -0.009174656 0.16722682 0.0153297195 0.051019385 -0.21582009 0.1750445 0.14028159 0.03782021 0.18017353 -0.59598553 -0.20438918 -0.054704066 0.2736416 -0.062030576 0.108668305 0.08803715 -2.3450031 -1.347723 -2.8580036 -0.042202458 0.3733393 -0.05862752 0.07719028 -0.17890324 0.22223589 0.3376332 -0.09593104 0.021742968 -0.16520433 -0.013403745 0.2918549 -0.083247475 -0.11392205 0.104011334 -0.064871624 -0.26739708 0.15510643 0.096058294 -0.17749442 -0.02179135 -0.0053657014 -1.732902 -0.10288243 -0.10607461 0.0017471701 -0.07817756 -0.07205392 0.24075674
-0.0062216762 -0.1035398 0.00709563 -0.07441179 -0.55661124 -0.026220554 -0.1116522 -0.07564432 -0.9223095 -0.30719104 0.052410305 -0.14045326 -0.1598882 -0.1144071 0.15351436 0.18108766 -0.01520488 -0.029827612 -0.23755318 -0.06619678 -0.061932717 0.042709343 0.20542447 0.0060541066 0.068200484 0.01643101 -0.014841507 -0.44815138 0.07397142 -0.19108206 0.051980864 0.011790611 -0.008757456 -0.07160768 0.11125004 0.060930334 0.013005095 0.61798084 0.1268548 0.0844799 0.15269111 0.108789675 -0.088162936 0.032195944 0.08220445 -0.02018881 0.09985866 0.037980918 0.17663756 0.045795914 0.10855407 0.025317835 -0.09124866 0.13448192 -0.056384586 0.031088566 0.103943005 0.09820453 -0.030611876 -0.0991763 0.04248545 0.022479067 -0.20470092 -0.044539638 -0.10051932 -0.333439 -0.031674433 -0.10435688 0.012208646 -0.017457357 0.09614074 0.14964114 -0.09515698 -0.14944443 0.05487187 -0.0134926215 0.10140786 -0.0018699395 0.0032730137 -0.1998288 -0.04722738 -0.2100405 0.005211032 0.08494957 -0.09109582 0.0047726776 -0.09789112 0.015949912 -0.09056362 -0.14240092 0.29180863 -0.035911795 0.21376242 -0.31410104 0.15554729 0.17400561 -1.0310612 -0.116164185 -0.847719 0.06546016 0.08103677 0.107906155 0.07583536 0.0047242157 0.11273568 -0.03519057 0.027796924 -0.1702422 0.08785027 0.03213363 0.07685367 0.07946383 -0.17731336 -0.00761323 -0.015211375 -0.023502791 0.011214211 0.10944837 -0.04575113 -0.14243066 -0.04175644 -0.24781103 0.029531104 0.079775326 -0.03883604 0.056939658 0.078252174 -0.04705229
0.08445644 -0.025537783 0.0894582 0.022254685 -0.08265599 -0.16440423 0.18932725 -0.07774232 -0.53583974 -0.1617527 -0.027967704 -0.09719052 -0.10754176 0.05037385 0.08533502 0.0675368 -0.05114924 -0.43056658 -0.39728594 0.094448246 0.00429796 -0.2803712 0.068890445 0.16179451 -0.21333376 -0.23363122 -0.066367716 -0.48576444 -0.051243104 -0.06980839 0.08730692 0.07626169 -0.14843836 0.029360771 -0.11881939 0.16222797 0.15345673 0.32374737 0.13232422 0.067437895 0.06375256 0.007257543 -0.18605803 0.09619753 0.24073581 0.024576297 0.10377467 -0.052425206 0.15823862 -0.10502255 -0.06496069 0.019255534 0.04821321 -0.024754936 0.066847414 0.035900027 0.08426167 0.044126313 -0.04906851 0.120858245 0.061174765 0.11312906 -0.17034893 0.106486864 -0.12000174 -0.36909437 0.048376054 -0.025526278 -0.013809193 0.11903167 0.12307594 0.19251016 0.13248423 0.039806142 -0.022448713 -0.039555985 -0.05562536 0.045751963 0.033719607 0.047255166 -0.06275169 -0.04363694 0.013440646 -0.032548774 -0.00036036878 0.058224954 -0.06316713 -0.051374394 0.2770548 -0.031281568 0.0049212547 -0.024993587 -0.15173854 0.06664798 0.0012034874 0.072737604 0.22234625 0.040178876 -0.89797497 0.04459163 0.09775489 0.08822738 0.06273519 -0.0063836896 0.13300647 0.11479199 0.12380706 0.09039829 0.17732063 0.10450217 -0.022145648 -0.025769126 0.04753 -0.07171655 0.018745517 -0.16437182 0.12544906 -0.101932876 0.1093073 0.1106449 -0.100850634 -0.32844272 0.16371074 -0.009943257 -0.045218673 -0.11892292 0.027988233 0.18192214
-0.0068978276 0.0707668 -0.116959885 0.123571195 0.026261793 -0.032269254 0.029099576 -0.026423885 0.038387034 -0.013478943 0.18891121 0.023817431 0.13839804 0.061392333 0.100135416 -0.08738782 0.1428306 0.05329486 -0.11034969 0.023327755 -0.014589452 0.1122438 -0.02195067 -0.10207733 0.06825519 0.08966008 0.047783237 0.49240124 0.083932556 -0.0047276868 -0.019607622 -0.110995956 -0.1946482 -0.0031181215 0.13991311 -0.050908078 0.1112399 0.12374439 -0.11564684 0.048051406 0.20904215 -0.07808907 -0.0836502 0.10171993 0.05433067 0.054745857 -0.039425205 0.20383792 -0.08528443 -0.069626495 0.18956068 0.20885652 -0.2045452 -0.021669056 0.0876532 0.05428309 0.018756226 0.17964818 -0.027937466 -0.0323435 0.0024709918 -0.11935882 -0.06874547 0.08127638 -0.021959567 0.1279167 -0.04425245 0.15722162 -0.05104521 0.037974183 -0.027446738 -0.08523808 -0.07174142 -0.02173757 -0.0026747754 0.16306677 0.09480046 0.089983396 0.15621105 0.11938229 -0.049630012 -0.09499253 0.12880038 -0.2350878 0.11391342 -0.069261596 -0.021842958 -0.03855068 0.052757766 -0.28964624 -0.10779493 -0.06467531 -0.2903551 0.117675155 -0.15118669 0.20732386 0.5864157 0.026585964 0.07429869 0.03047252 0.052661546 0.16141625 0.051244207 0.060041215 0.050469063 0.20568338 0.051998224 0.06519291 0.03693653 -0.04071428 0.13831186 -0.10953226 0.041188046 -0.0018005039 0.05209417 0.0839354 0.11165685 -0.1406284 0.1898274 -0.05710559 -0.03069069 -0.20939012 -0.032285642 0.17966953 -0.023769649 -0.040213943 0.020827284 -0.06973871
-0.043992925 0.13523865 1.1901207 -0.16483334 1.6840187 0.4708178 0.25668788 0.460375 -0.004633789 -0.09863015 0.030079799 0.8196116 0.101513386 0.82074565 -1.0454633 0.33127207 -0.32548216 -0.7488119 0.18470803 -0.34332746 0.16630596 1.2281631 -0.82502925 0.21930453 0.15545297 1.1162636 0.23020126 -0.46513447 0.055291057 -0.5017187 0.103932075 0.319367 -0.8716986 0.025610851 -0.019770028 -1.104687 -0.3852148 -0.20461409 0.08380001 -0.34801468 0.8045768 -0.44997156 0.26227835 0.3050118 -0.042355806 -0.36839288 -0.928616 -1.0206016 -0.61296874 0.119563855 -0.48320132 -0.33390912 0.2645069 0.13841355 -0.46059075 -0.141504 0.040198755 0.31258208 -1.4234899 -0.37184662 1.300159 0.49173298 0.31862232 -0.111080736 -0.6576249 -0.54445946 0.9316547 -0.3325863 0.049331114 -1.0086329 0.20743316 -0.052669954 -0.45464727 0.5048023 0.4975138 -0.31234333 -0.43918648 0.45300916 -0.30912957 0.54066294 0.73570484 -0.45697218 -0.56062716 -0.056924596 -0.51067376 -0.38147214 -0.20740022 0.1829105 0.13987672 -0.025581965 0.20057683 0.030539649 0.95073104 -0.5155334 -0.036989212 -0.62455225 0.4206747 1.5498383 0.40117577 -0.20503134 0.6484401 -1.0014716 -0.22365247 -1.2293783 -0.15081887 0.21912982 -0.10180876 0.5667532 -1.0530635 -0.8031509 0.17400083 -0.19096056 0.40038535 0.53448415 -0.07455379 2.865876 -0.80996 0.89358443 -0.82685643 0.28929916 -1.0486747 -0.6541791 0.030129664 -0.012609509 0.07161656 -0.78946096 0.6350948 -0.82938015
-0.20890734 0.11524998 -0.04016567 -0.011837468 0.055241264 0.13933519 0.05839118 0.02102396 -0.046610173 -0.006392145 -0.07377798 -0.039758783 0.039662506 0.06979038 0.14591879 -0.061780848 -0.1332161 0.020658793 -0.070804246 0.06954443 -0.051766552 0.052666936 0.030027734 -0.046737257 0.095698394 0.11189009 -0.13651553 0.0405245 0.16456997 -0.16329677 -0.07394356 0.16407292 -0.20300922 -0.29197258 -0.10582185 -0.09675592 -0.21976586 0.016889883 -0.06487912 -0.00743343 0.033477087 0.15671434 0.1269672 -0.059875086 -0.041631475 -0.12113441 -0.0894008 -0.036606442 -0.18575214 0.15258908 -0.19639158 -0.013713237 -0.19198838 0.015310772 0.094858356 -0.039576344 0.0028363068 -0.16584693 0.11417976 -0.01285484 0.027750328 0.16444159 -0.06594663 -0.05581122 0.17677937 0.15362793 -0.07094331 0.15425792 -0.1135614 -0.028004045 0.08679535 -0.09130262 -0.16399601 0.007336144 0.0034406853 -0.12531482 -0.13212346 -0.034920502 0.08500584 -0.05710247 0.075611785 0.16043669 -0.09337789 -0.32885677 0.08395257 0.052662715 0.13090828 -0.08849549 -0.04236616 -0.019075615 0.03590618 0.0396946 -0.10507199 0.07006428 -0.0497994 -0.037233997 -0.07500777 0.006264944 -0.052121874 0.003908576 0.05279699 -0.031556863 0.022129621 0.07062415 0.3149178 0.05263615 -0.1903742 -0.26146156 -0.011517712 0.029915806 0.020582383 -0.06841188 0.0006651342 -0.057961337 -0.12811208 -0.08181492 0.10058613 -0.01758 0.046459682 0.09908929 0.06751677 -0.099517904 -0.036253337 -0.04913331 0.07985645 -0.06348707 -0.21047537 0.10305633
-0.025069585 -0.059151202 -0.029591583 -0.1744582 -0.00723764 -0.14785856 0.20577149 -0.09308261 -0.22346035 -0.13406684 0.106062874 -0.040351424 -0.10919645 -0.09504175 -0.11278377 -0.10118845 -0.016293306 -0.34696645 -0.04537824 -0.034816183 0.05455989 0.23415425 0.24707793 -0.05011296 0.16901252 0.09020786 0.03157248 -0.66828036 -0.008916727 -0.028964441 -0.02968487 -0.04299871 -0.1976894 0.18991853 0.14674795 -0.000267773 0.21086147 0.40347877 -0.06538783 0.30165693 -0.010998834 0.0044613383 0.08427161 0.24516156 0.024996473 0.13743918 0.0052031404 0.048444953 0.07930832 0.10698597 -0.048463557 0.027104214 0.07280119 -0.05124671 -0.20713948 0.072951905 -0.060309656 -0.016106637 0.10671742 -0.07545644 -0.055253882 0.08835537 0.009281754 0.059764624 0.015434141 -0.45565534 -0.09953559 0.063977644 0.0796798 0.03295584 0.24769779 -0.04047215 0.070489936 -0.0022016054 0.14170896 -0.062221352 -0.03846311 0.06518632 -0.04424431 0.15678014 0.11813498 -0.035156265 0.030434452 0.0012924046 0.013460029 0.21111423 0.1771081 0.14958745 0.009875143 -0.05299435 0.16115232 0.046623006 0.006455817 -0.0106342295 0.07240376 0.12480467 0.11057008 -0.023815498 -0.19020246 0.0055617527 0.1770425 -0.009154414 -0.08311054 0.13056728 0.3431025 0.25579295 -0.021764345 0.041319575 -0.0019787403 0.1403143 0.0066866335 -0.030060202 -0.092415735 -0.066589616 0.042662624 -0.055173323 0.2492983 -0.03517933 -0.052051526 0.050098985 -0.022686984 -0.4287809 0.025385907 0.05375944 0.08438311 -0.020788528 0.09550798 0.032580864
0.08616696 -0.07200545 0.32972622 0.020968651 1.3140392 -0.18088357 -0.21929117 -0.11237954 1.7673426 -0.42791942 0.082928345 0.093168914 0.07037445 -0.09661938 -0.20155337 0.042371135 0.071670055 -0.33683902 0.19079737 0.029322118 -0.28514507 0.5876346 0.33224803 -0.20916736 -0.23827447 0.17029314 0.23713231 -1.3443873 -0.07486851 -0.21196961 -0.376949 0.121384546 -0.4146366 0.02282542 0.13050608 -0.28126398 0.7124537 -0.8767143 -0.09332166 -0.08855028 0.019883312 0.039796222 -0.17415145 0.042586494 -0.00859025 -0.010763021 -0.055135835 -0.22099225 -0.13467866 -0.0071393596 -0.1531146 -0.12134332 0.12079603 0.09935922 -0.0128922975 -0.033619072 -0.1749522 0.37837857 -0.027026314 0.011964409 0.12530512 0.2698106 -0.18278837 -0.080360025 0.20417741 -0.5238546 -0.07203413 0.7682169 0.014587605 -0.2629105 -0.03755753 -0.31110966 -0.12869562 0.031570133 0.28168622 -0.22297804 0.024445234 0.15053067 -0.028941892 0.27628797 0.066752106 -0.26883724 0.059756912 -0.073249765 0.4793249 0.030789422 0.051900167 0.06312924 0.06352698 -0.2615825 0.12540537 0.04783593 0.31368724 -0.17581952 -0.19943509 -0.086269155 2.8828151 0.5498166 1.4628652 -0.281626 0.013367983 -0.17532507 -0.039941054 -0.19549277 -0.16617543 0.26667774 -0.12328513 -0.11444129 -0.16672699 -0.13570002 0.24776042 -0.121093795 0.0697321 -0.054913983 -0.011265421 0.15957867 -0.54513526 -0.23304738 -0.11142502 -0.033141963 -0.33212146 -0.6362101 0.17049848 -0.04173328 -0.18283348 0.057467155 0.06408402 -0.19090793
-0.050880086 0.1261925 0.24260066 -0.10336066 -0.23655401 0.27281657 -0.21975586 0.0588105 0.08833088 0.1763988 0.00033222427 0.12697187 0.0021956698 0.52094275 -0.31357768 0.043468673 0.054384597 -0.43407977 0.15320674 -0.06747754 -0.05002892 0.19611628 -0.013261927 0.49233714 -0.23759817 0.009672217 0.033392325 0.48791903 -0.05360275 0.010065546 -0.07979381 0.25960082 0.12954043 -0.026329082 0.09660844 -0.26042226 0.071361996 0.16759937 -0.032182824 -0.04049345 0.101626456 0.040850483 0.10026572 0.04005215 0.08438524 0.026724536 -0.043824445 -0.36396065 0.11151171 0.17324156 -0.076010406 -0.0035373892 -0.016140433 0.03219703 -0.066029824 -0.0947438 0.044395555 0.013886148 -0.17708813 -0.05044807 0.08240194 0.15342577 -0.25633958 0.13034159 -0.12082999 -0.107678734 0.22332454 -1.5166247 -0.0807249 -0.16478573 0.0502768 -0.14138426 -0.10242064 -0.029541269 0.27339345 -0.28111625 0.049212866 -0.08655813 -0.110107444 0.017574906 0.19502874 -0.041126076 0.08284761 -0.02272966 -0.022810753 0.19192943 -0.14650586 0.13040327 -0.06977205 -0.05824982 0.09505516 -0.005644736 0.07490137 1.7385414 0.072578795 -0.39437315 -0.13140133 -0.59305614 -0.07999292 0.0831743 0.16195671 0.1345365 -0.013390173 0.057794567 -0.04516509 0.16423574 -0.037078444 -0.12448445 -0.0933636 -0.2179451 0.13644037 0.031700216 -0.13287577 0.031571414 0.009005216 -0.18933406 -0.2849333 0.15170437 -0.43154433 0.102209605 -0.082717076 -0.40671563 0.08661678 -0.14556153 -0.0049526123 0.040052406 0.057764105 -0.24136953
0.02876789 4.729008e-06 -0.057116486 -0.069799036 -0.057987463 -0.081291296 -0.09269987 0.12186453 0.014841935 0.0014388476 0.06428095 0.084484264 -0.04490951 0.09292443 -0.007694207 -0.0956288 0.13418445 0.013215939 0.030855915 -0.038535558 0.010511813 0.14813308 -0.051839873 0.0026985144 -0.008633946 -0.23071177 0.047636267 -0.0053122444 -0.05817902 -0.16447304 -0.00059490267 -0.27271098 -0.073334895 0.021521362 -0.29460123 -0.01945619 -0.0650389 -0.05774287 -0.0014573323 0.040503714 -0.058637194 -0.0072915833 0.11278176 -0.055706546 -0.15349236 0.041397806 -0.0816351 0.075431004 -0.13136049 -0.06199006 0.0019067604 -0.052615296 -0.043584783 -0.21312124 0.081569865 -0.070227996 -0.007433898 -0.19197081 -0.06216113 -0.06305648 -0.052063916 -0.1453268 -0.107473895 -0.18572083 -0.022548037 -0.07085596 -0.21760254 -0.060714368 -0.07365694 0.027558751 0.00044868854 -0.06310131 -0.1512629 -0.0025837484 -0.07098246 -0.14492977 -0.026240703 -0.01394578 -0.096598424 0.0030809443 -0.1522329 -0.124571696 -0.1401513 -0.19420196 0.14294259 -0.0413504 -0.1527453 -0.025474504 -0.08818066 0.055545382 0.0024947526 0.048032455 -0.022630002 0.070081376 -0.10134132 -0.0005094585 -0.033374306 0.011558396 -0.0110428175 0.1635795 -0.09792547 -0.01731422 -0.017407987 -0.015337729 -0.0036175884 0.120177306 -0.08813746 0.052130386 -0.01745291 -0.13056676 0.14354743 0.021028234 0.11059829 0.028728534 0.17379005 0.07731413 -0.073272094 0.11337549 -0.14264576 -0.109856404 -0.015485509 -0.07266319 -0.012506333 -0.08595102 0.072421126 -0.0925987 -0.10802653 0.034098703
-0.040541347 -0.08319717 -0.03391096 -0.13554066 0.07979751 0.12745275 -0.14551213 0.006140472 0.016292194 -0.17893851 -0.020190502 -0.015856253 -0.00017197062 0.024911113 -0.015054945 -0.058449533 0.036565788 -0.10372713 -0.012190968 -0.1843048 -0.107313946 0.08798547 -0.06345241 -0.112433165 -0.13205713 -0.009595574 0.08584126 0.0046884995 -0.061214723 -0.047569636 -5.614339e-06 -0.1856553 -0.064936146 0.046048205 0.07643381 0.048680257 0.04924423 -0.00093408825 0.13271797 -0.18374325 -0.17023669 -0.15137883 0.012968274 0.017392825 -0.053219143 0.07549572 0.09203694 0.032407798 -0.06638288 -0.093653426 0.17467447 -0.020900855 0.09921912 0.20519651 0.13402379 0.11804901 -0.034960628 -0.017811252 -0.01733157 -0.10697069 0.012061111 -0.03672022 0.084416986 0.057088323 -0.055254888 0.123596184 -0.20973688 0.0010938596 0.15352874 -0.07034515 -0.06564788 0.033832833 -0.015643505 -0.06705552 -0.14691816 0.016001679 0.05018881 0.16865386 0.19913633 -0.002864528 0.018771335 -0.2350878 0.061728694 -0.20455244 -0.07415733 0.13003069 -0.061693963 -0.12992455 -0.008981993 -0.095741086 -0.03623635 -0.011904705 0.045593914 -0.059412144 -0.06416826 0.031756084 -0.019195225 0.03865237 -0.021996189 -0.17218338 0.0010953485 -0.18692909 -0.077356726 0.19252126 0.03768231 -0.042187296 -0.06892989 -0.16064775 0.07166346 -0.13928944 -0.109447315 -0.12112593 -0.0012858032 -0.20191227 -0.046902165 -0.022822605 0.05087055 -0.10603132 -0.20703793 -0.044081666 0.013175114 -0.0077504786 -0.12150064 -0.13770844 -0.027248094 -0.058039263 0.033463784 -0.008399898
-0.012486625 -0.15914282 0.056831546 -0.12534249 -0.07052561 0.0066159014 -0.1160637 -0.045897666 -0.09263897 -0.08859235 -0.22390696 0.19399312 0.03378202 0.12056294 0.009446788 0.036080364 -0.09773184 0.09803529 0.09295153 -0.10926926 -0.028532643 -0.07024568 0.05516485 0.07286866 -0.070250124 -0.15647645 0.0074423007 -0.075210944 -0.13883084 -0.09115781 0.033456944 -0.034223072 -0.0050824396 -0.041733146 -0.06832166 0.06282231 -0.11720316 -0.029796978 0.13816269 0.13629764 0.05404037 -0.12241114 0.08903748 0.013430933 0.10690867 -0.11983448 -0.08946686 0.06852133 -0.06072542 0.25865844 -0.13770235 0.1272614 -0.031264972 -0.11032451 0.054460198 -0.043723 -0.30830678 0.01410376 -0.094123855 0.07654519 0.089623965 0.05094643 -0.003119022 0.030274484 -0.016635349 -0.15008327 0.0162035 -0.036817294 -0.16080855 -0.14057313 -0.06596708 -0.1237329 -0.07410916 -0.020685297 0.025551187 -0.07983212 0.06437665 0.13576853 -0.012562416 -0.11186008 -0.0029231177 -0.07567707 -0.058165137 -0.14573202 0.07489563 -0.06810726 -0.010743067 -0.0011305573 0.03458258 -0.11290447 -0.06816201 -0.0032645115 -0.20539044 0.076092266 -0.13686481 -0.06628991 0.07204494 -0.025073243 -0.11756537 -0.15465745 -0.13823278 0.07146901 -0.011015276 0.09482072 -0.31052792 0.08289707 0.06593114 -0.079784825 -0.026980245 -0.069092184 -0.069191106 -0.13700858 0.035017684 -0.09611181 -0.022179449 -0.0328256 -0.088046245 -0.06987683 -0.24785548 -0.06777306 0.0244652 -0.021802701 -0.28248513 0.07247127 -0.1218463 -0.014466388 0.2634442 -0.06943595
-0.07256516 -0.03104706 -0.15882571 0.099078104 0.14314207 0.18273617 -0.17352006 -0.06392505 -0.15224153 0.0030134276 0.084451266 -0.08950738 0.03781475 -0.06410637 -0.003920839 0.11262614 -0.29326093 0.12709841 0.058962166 0.0651013 -0.26147148 -0.03517036 0.121743515 -0.09210975 0.139318 -0.016337188 -0.18606518 -0.12326332 0.06645272 0.061285336 -0.06614594 -0.049623255 0.034013625 -0.12354625 -0.04619649 -0.022634428 -0.010435705 -0.082945265 -0.02757308 0.12581521 0.05106572 -0.107365966 0.029478705 -0.13900715 -0.012480596 0.01086138 -0.055299114 -0.15489872 0.012920842 0.10237268 -0.04233492 0.0998292 -0.13725324 0.022928445 -0.054833192 0.058289293 0.09520499 0.022064054 -0.03637294 -0.12704489 -0.105870746 -0.0064809453 -0.10363474 -0.104455195 0.08141399 -0.051796578 -0.14257117 -0.15844576 0.049030244 -0.13998571 -0.1147192 0.0076317824 0.31186566 -0.0067620706 -0.02625359 -0.017301701 -0.0038324501 -0.14301041 -0.017542377 0.034548067 0.052335 -0.11816467 -0.03634349 -0.16119812 0.23389705 0.03569628 -0.035743237 0.11343891 -0.023292972 -0.16753867 0.056713793 0.09895492 -0.15760854 0.08303137 -0.11412165 -0.12142328 -0.069788314 -0.03523101 0.003858245 -0.08815669 -0.15347551 -0.037213784 -0.054269057 -0.06176659 -0.1524622 -0.030892547 -0.059974983 0.11787191 0.05068387 0.092218325 -0.21800743 -0.09500195 -0.12549405 0.047301184 -0.1858822 -0.09225828 0.034034472 0.0011194389 0.02421685 -0.09123093 0.14424022 0.16168949 -0.13457546 0.024089837 -0.101139024 0.11488986 0.042611025 -0.090830564
-0.017730618 0.01657429 0.21332458 0.019810451 -0.017394343 0.067595154 0.14114767 -0.018515112 -0.09697763 0.1200805 0.07140521 -0.0055385935 0.091714665 0.11148909 0.14338326 -0.23667534 -0.044518135 0.08420453 -0.017997477 0.26021686 -0.02856013 -0.121328086 0.019761156 0.027752224 0.21802746 -0.051855877 -0.038394928 -0.00090926036 0.06998359 0.10226591 0.0009266661 -0.117151074 -0.10081797 -0.02857895 0.013363934 0.10713707 -0.06602558 -0.05904008 -0.102142796 0.09062517 -0.19958743 -0.19678041 -0.2426906 0.009075507 -0.15819333 0.013417983 -0.04192776 -0.14799511 -0.110411316 -0.06166955 -0.13586888 -0.05588747 0.17633444 -0.21971244 -0.08407678 -0.074726865 0.11223299 0.027769241 0.073267676 -0.0031294874 -0.031676494 -0.13741426 -0.07534754 -0.1178638 -0.03444017 0.047936227 -0.0032502343 0.008139242 -0.056566905 0.09525683 -0.045926087 -0.0007664037 -0.07088703 -0.14880048 0.044068307 0.066052064 -0.0030169915 -0.1274288 0.12395969 0.012040369 -0.095741585 -0.0021056863 -0.16230187 -0.19608542 -0.059769772 -0.15231994 -0.076182924 0.031009646 -0.0468822 0.0032704913 -0.1441372 0.14678758 -0.033286512 0.04740633 0.12413824 -0.105516165 -0.009785626 -0.05479829 0.20913185 -0.004022481 -0.06341014 -0.044111162 0.019777687 -0.07258165 0.056635007 0.06726375 -0.17265143 -0.20599529 0.107424684 0.010045943 -0.12356183 0.03585711 -0.12897508 -0.025026593 0.057073127 -0.031510115 -0.07394815 0.03401837 0.08105454 -0.11694805 0.051813703 -0.042494122 -0.06432033 0.055973046 -0.031513922 -0.07757332 -0.07570987 0.18414311
0.119949676 -0.024362018 0.0420287 0.14633475 -0.12192692 0.1032177 0.009229799 0.15001208 -5.551699e-05 0.044472843 0.05038795 -0.04650299 0.060378022 -0.04183261 -0.028825557 0.12054689 -0.18646021 0.015912408 -0.06565401 0.11356168 0.074076064 0.124695145 -0.062313385 0.005362336 0.061526988 0.15293783 0.04490197 0.19098459 0.13055931 -0.02446396 -0.09988065 0.10504646 -0.014524683 0.09354433 -0.13534968 0.07135179 0.19554296 0.20092656 -0.06436363 0.10346958 -0.12541561 0.015235143 0.09521228 -0.0009409272 0.30475557 0.063920625 0.13123107 0.22492363 0.0020305992 0.15687327 0.1526332 0.053548653 -0.08451748 0.12914637 0.05665789 0.06527436 0.17454776 0.22821318 -0.15940015 0.0393691 -0.03234661 -0.0011475214 -0.024034118 0.12796412 0.2307156 0.0019145122 0.07037416 -0.18328884 0.0074761766 -0.07508762 0.17899796 -0.10426498 0.030410092 -0.002620019 0.05592874 -0.15898833 0.047270812 0.006875849 0.1533803 -0.003629001 -0.023367316 0.07467938 0.04133455 -0.068564974 -0.030742649 -0.12666456 0.12879972 -0.016545657 0.073756635 -0.086594395 -0.006209431 0.16355844 -0.03392883 0.18034327 0.0465588 0.10027549 0.4634987 0.05690623 0.073048085 -0.027403789 -0.10314954 0.095328435 0.07712695 0.084926136 0.016378516 -0.12042314 0.0857633 0.043150503 0.17525305 0.0014429924 -0.04598044 0.19371611 0.07999672 0.12412555 -0.0071772784 0.11214471 0.010256435 -0.027055992 0.29076424 -0.013314844 0.077587545 -0.11376674 0.17096043 0.17347534 -0.18041655 -0.10476688 -0.030323695 -0.00016760865
0.06492209 -0.11474134 -0.04164312 -0.05126991 -0.08472678 -0.116101414 -0.105482064 0.14602365 -0.22391659 -0.1759492 0.089330435 0.04398143 0.04594798 -0.04196639 -0.09696357 -0.06278817 0.004359353 -0.020044351 -0.14105102 -0.052669246 0.11241456 0.16317193 -0.043766666 -0.064544246 0.15915406 -0.121153004 -0.03003395 -0.60250074 0.052185003 0.14181668 0.18343846 -0.059036907 -0.082415104 0.010943866 0.02500413 0.037419952 0.16196862 0.31486183 0.11410677 -0.059091453 -0.1933255 0.048537105 0.14590156 0.09008672 -0.0062159523 0.18836337 0.07909814 -0.08745707 0.112453565 0.051362805 -0.15254398 0.10873781 0.04555833 0.0012319083 0.06173998 0.015707398 -0.15045805 0.3459298 0.095413946 -0.04810309 0.036957104 -0.03184274 -0.083021514 0.047948178 0.20526488 -0.39440593 0.036483258 -0.031042192 0.039984673 -0.065024815 0.036890127 -0.05868595 0.06458564 0.17078474 -0.07605882 -0.034948424 0.13979241 0.024725428 0.15459457 0.06857796 0.07822613 0.075230025 -0.05564754 -0.088304326 0.09237567 -0.037107117 0.07940327 -0.008440804 0.06941269 0.061396495 -0.020857694 0.06558077 -0.13425131 0.10601723 -0.11059 -0.04791097 0.28689352 -0.031986702 -0.1007499 -0.02227294 0.100988 0.13579953 0.11489589 0.05636692 0.23579063 -0.046867102 0.044233173 -0.07435143 0.050209608 -0.005706639 0.12949693 0.016756112 0.22213511 0.13884346 0.056923937 -0.005678076 -0.15781973 -0.111332 0.064294904 0.12892565 -0.04110026 -0.25738284 0.0758126 0.030110938 -0.014501005 0.11793118 0.08007511 -0.00023114555
0.12899621 -0.03422818 -0.032699514 -0.07911802 -0.10853948 -0.06932482 -0.020242952 -0.092360616 -0.07011064 -0.05199013 -0.04371444 0.013341834 -0.249909 0.04006518 -0.113591194 0.077693775 -0.0068065478 -0.0694909 0.03346293 -0.07068926 -0.011445936 -0.12746572 0.064392515 -0.05866916 -0.09234636 -0.06368877 0.12669507 0.10999752 -0.014755777 0.09541514 0.00959493 -0.11175899 -0.021596558 -0.033684667 -0.19830664 -0.2237101 -0.10639624 0.22402391 0.037636105 -0.10450778 0.075644925 -0.051719673 0.14156021 -0.16264026 -0.04518688 -0.09721508 0.23718128 -0.089648485 0.095987424 -0.034749825 -0.019045552 0.036925565 -0.053443007 -0.0017613415 0.01785642 0.02570292 -0.0070971847 -0.06984085 0.016225448 0.009047699 0.14827093 -0.08497247 -0.051021557 0.033461146 -0.10736625 0.012212584 0.0055159596 0.009916213 0.032601323 -0.09541339 0.04990919 -0.020017877 -0.12533247 -0.1824254 -0.04109061 -0.014745881 -0.10133662 0.0557898 0.09624086 0.010346116 -0.104448736 -0.12555894 -0.013146186 0.07416234 -0.16065513 0.040089913 -0.0433464 -0.097949736 -0.057051536 -0.0938538 0.256351 0.020940695 -0.057684857 -0.14061917 0.04395358 0.16904157 -0.014795862 -0.14253664 -0.08637592 0.10523107 -0.15775067 -0.116043985 0.0856108 0.021886433 0.007736269 0.104239255 -0.11320569 -0.21594438 -0.23160195 -0.030797089 -0.030081231 -0.18691853 -0.04453704 0.037589286 -0.28032812 0.017150715 0.032026406 -0.01249529 -0.109258465 0.1023231 0.024242777 -0.008438674 0.038408842 -0.022220826 -0.03216231 0.092677556 -0.048504665 0.04646807
-0.20014241 -0.12120372 0.007368442 0.018434979 -0.09918373 0.02009671 -0.14566526 0.17315292 -0.1608495 -0.24167351 -0.11228593 0.04069025 0.048204347 0.14989305 0.12056979 -0.04834578 -0.108748786 -0.16976687 -0.16906615 -0.07765654 -0.006513106 -0.024647601 -0.049325522 -0.053601094 0.1674649 0.09551028 0.15540177 -0.5126995 0.15996632 0.040520705 0.07956039 0.15465997 0.028356947 -0.09201782 0.03618736 0.09878438 -0.1511864 0.18605666 0.025721405 -0.17058331 -0.13941759 0.15850355 0.06156271 0.013704637 0.021126464 -0.031662107 -0.065486476 0.0820053 0.16535594 -0.105017945 -0.10235445 -0.15416905 0.12235126 0.037100583 -0.046319295 -0.02440638 -0.07941978 0.34853014 -0.07428748 -0.035861913 -0.1402077 0.28156784 -0.08320868 0.10292081 -0.09257277 0.01201212 -0.038055412 -0.24256316 -0.15842089 0.16900638 -0.15266106 -0.11228394 -0.049330454 -0.15620047 -0.087871514 -0.14432758 0.07381761 -0.03128097 0.0033170257 0.1095376 0.07744476 -0.10577674 -0.02217702 -0.036641184 0.06983489 -0.009128922 0.10325142 -0.1452779 -0.104192644 0.1378136 0.05937894 0.124714665 -0.18159805 0.038384974 0.018655019 0.076603 -0.34573814 -0.14509444 -0.3807105 -0.0502908 0.2141255 -0.10804753 0.076646745 0.016491368 0.11733584 0.037143476 -0.077518746 -0.061339445 0.020717774 -0.135156 0.11185585 0.061351694 -0.25213668 -0.020122252 0.0065846355 -0.124043874 0.08580963 0.11560528 0.14919063 -0.09959914 -0.049287762 -0.09648867 0.11616035 0.10863649 -0.040910758 -0.017367644 0.058768395 0.07916907
