0.00940437 0.007950837 -0.124986805 -0.0038422586 0.018676326 0.17417078 0.018730123 -0.12403192 -0.065059945 0.04936217 0.08199984 -0.16424079 0.3831828 -0.033907883 -0.016323721 -0.103749685 -0.24781865 0.08419044 -0.113940604 0.058084078 0.019180417
0.014184094 -0.09909527 0.046033766 -0.027170576 -0.020894352 0.09859705 -0.038410693 -0.0072061475 -0.22665367 0.19425963 0.24123995 0.12993738 -0.32931703 0.07823364 0.03637579 -0.31598955 -0.44801563 0.051847693 -0.85958546 -0.33467913 0.013403098
0.01443576 -0.32828653 -0.30127692 0.0009608504 0.2757219 0.013102401 -0.018506803 -0.01010236 -0.25381517 0.06857438 -0.08028369 0.16704 0.030430213 0.0280501 0.050284598 0.16388428 0.02872427 -0.09152598 0.3352733 0.27841955 0.0050097057
-0.0014308833 0.036769442 0.08442957 0.23721646 -0.28338662 0.058030467 0.0036409607 -0.0029261468 -0.07078817 -0.16291887 -0.6212175 0.21847798 -0.03541312 -0.0024854266 -0.0038360676 -0.054585695 0.065881684 0.09342989 0.07752625 0.029276067 -0.0017221483
0.0014147069 -0.059929978 -0.25736403 -0.13676205 0.034843214 0.017064923 -0.0051792497 0.1017361 -0.13575083 -0.17147411 -0.38931853 0.011958407 -0.119192846 0.0025544425 -0.026724018 0.32325011 -0.15830365 0.10536351 0.025373569 0.14840123 -0.01162335
-0.025179876 0.07254568 -0.101455644 -0.15055543 0.046890818 0.22426966 -0.06354851 0.015555271 -0.06975896 0.27636504 0.38318568 -0.08048518 0.1247219 0.114777304 -0.060877204 -0.14878146 0.033665065 -0.15121457 0.079076156 -0.14517374 0.004374134
0.0085430695 0.08874666 -0.01994668 0.0063548917 0.052067436 -0.5048371 -0.049800083 -0.034645382 -0.024403345 0.004599881 -0.3046758 0.3023681 -0.34857425 0.116594896 -0.050148763 -0.10584704 -0.06537816 -0.005245342 0.11437259 0.3024541 -0.057278644
-0.016968148 -0.042916235 0.2711809 -0.03729172 -0.012486776 -0.089558914 -0.045161426 0.09663751 -0.017190328 0.17034283 0.16433413 0.08553448 0.2679753 0.06516979 0.029756771 -0.2384213 0.39563337 -0.1179602 0.39689726 0.19830175 0.0074766558
-0.015297246 0.16890983 0.29739502 0.19612043 0.055923294 -0.06290216 -0.0051255585 -0.0691275 0.2065748 0.09723347 -0.57164985 0.043332767 0.0009869011 0.003250037 0.058395755 0.2861504 0.029198034 0.25904587 0.13905565 -0.024206053 -0.003320489
-0.0064699664 0.054486427 0.075116314 0.07296441 0.18233183 -0.04086452 -0.0050148377 -0.014580898 0.20562321 -0.08561039 -0.34642795 0.18215476 -0.03242862 0.005154139 -0.026544355 -0.25484315 0.3393495 0.0746372 -0.122373804 -0.07034168 0.0029132485
0.008697456 0.12514168 -0.07430567 0.03447527 0.100681216 0.20679209 0.032230143 -0.022675494 0.24067737 0.13242757 0.15872082 0.10448527 -0.19534992 -0.037707835 -0.03560652 -0.014795364 -0.23708223 0.08310421 -0.14042038 -0.13926539 -0.030726045
-0.015424012 0.02130897 0.20710431 0.054388087 -0.23424841 0.16838871 0.004188648 0.024048844 0.14990488 0.31007445 -0.18595606 0.18062365 0.12721926 -0.0030468744 -0.015577731 0.25535724 0.060448762 -0.107936375 -0.48456696 0.093891084 0.009504685
0.0037350794 0.0040554637 -0.053098354 0.18482107 -0.21007146 0.26707965 -0.018384323 0.013637309 -0.043830127 0.13989918 -0.15420793 0.041570507 0.076506846 0.044540405 0.00914569 0.049589016 -0.038377136 -0.022448523 0.12368428 -0.16235293 -0.033949424
-0.023873713 0.007271478 0.42028552 -0.05931602 -0.033890653 -0.11154811 -0.0110444855 0.028263157 -0.042251952 0.16155267 0.4251249 -0.07836327 0.24371244 0.030626258 -0.044912495 -0.14643449 0.011155351 -0.1661844 0.21595147 -0.20436502 -0.010887888
0.015569704 0.020383196 -0.19893129 0.09279485 -0.29181233 0.16262864 -0.038068026 -0.12335317 -0.011023526 0.019961981 -0.26696938 0.21932866 -0.16530587 0.09268744 0.021120865 0.3999142 0.16035637 0.052269906 0.07569523 -0.25423 -0.01303208
0.0020957761 0.23133303 -0.07628173 0.09300607 -0.008803854 0.2362849 0.0059138113 0.017934032 0.1228139 -0.32276678 0.07344427 -0.033419657 -0.016943429 -0.011070621 -0.0032866776 -0.04999275 -0.28558937 -0.020079708 0.016931498 0.12209369 0.008358937
-0.01774373 -0.07840987 0.01037785 -0.019989878 0.22714159 -0.013072144 -0.0070812893 -0.010251867 0.007760521 -0.0025625434 0.13625747 -0.019209733 0.13385081 -0.0024460477 -0.02740895 0.093004934 -0.5431812 0.10591699 0.39088455 0.39639115 -0.013406415
0.027125776 -0.20845717 0.06868405 0.06081728 0.03781067 0.10322351 -0.014968551 -0.022970624 -0.27916467 -0.5534151 0.3394378 -0.24546957 0.25560492 0.032914642 0.02793655 -0.13158476 0.3617494 0.090832315 -0.078138 0.19418414 0.01056803
-0.0024752978 -0.08308098 0.043670304 0.03227504 0.012045534 -0.002253775 -0.0013327575 -0.012253338 -0.27163902 -0.27571866 -0.08007355 0.15535094 -0.027169293 0.016528469 -0.06585592 0.22636825 -0.4462933 0.1654774 -0.12456658 -0.08463438 0.011119955
0.033920888 0.00012425383 0.10721907 -0.3672536 0.11072332 -0.05299895 -0.045336694 -0.018610444 0.044946715 0.06890022 0.23859574 -0.03395473 -0.15142906 0.051653303 -0.1724013 -0.13772504 0.05709203 0.08274647 -0.12942652 -0.10984209 -0.014788889
-0.0088806255 0.114039525 0.023608983 0.0658475 0.0014932534 -0.20856115 0.19116928 0.00865527 -0.101286754 -0.02112081 -0.2772428 0.024374666 -0.20521455 0.19356908 -0.020834273 -0.033350483 0.030893195 0.09081181 -0.028402798 -0.22305089 -0.35118246
0.004939913 0.05034965 -0.107211575 0.015609714 0.12982647 0.20633587 -0.08910339 -0.011946 -0.11485298 -0.04980197 -0.26103103 0.11942185 -0.11907059 0.16754721 -0.010338518 0.38421938 -0.18959302 0.24708211 -0.015644625 -0.21682751 0.02812834
-0.018433172 -0.16214177 0.31720892 0.19341664 -0.03254939 -0.078160204 0.010441942 0.11566693 -0.040830772 -0.48046154 -0.24243121 0.14945263 0.05855004 -0.030108582 0.028169049 -0.12384687 -0.30145618 -0.16323316 0.060483087 -0.27842763 -0.00077227654
-0.015771732 -0.10905622 -0.17852466 -0.07757475 -0.11495523 0.018040039 0.027442884 -0.029221602 0.18502112 0.23217966 -0.44851202 0.27814817 0.018868063 -0.04545051 -0.005326088 -0.42072648 0.014097508 -0.07541993 -0.472313 -0.2669477 -0.0033219517
0.008300453 -0.3470842 -0.05057115 -0.15429558 -0.03871852 0.07544217 -0.02671971 0.004760195 -0.038963452 -0.07628773 0.27320513 0.07597206 -0.32384866 0.04672704 0.07344126 0.053273384 -0.11924786 -0.12594667 -0.016413668 0.036235303 -0.020021899
0.012136781 -0.18035725 0.39453858 -0.14367755 -0.21865082 0.108881496 0.0014772194 0.022405045 0.066047594 -0.31978735 0.34453952 -0.021493446 -0.022494325 0.01105549 0.010769798 -0.026171375 0.11858968 0.040285993 -0.13402623 -0.10471166 -0.0018056438
0.004773903 0.20219976 -0.112745784 0.23296835 -0.093115866 0.11118349 -0.023550397 -0.050269272 -0.03795965 0.22909127 -0.53842574 0.33224076 0.14520529 0.05034241 -0.145831 0.15019368 -0.56786704 0.20290488 0.060059514 -0.37851015 0.009780672
0.018044762 0.1734642 0.23112096 -0.1534514 0.11755882 -0.047643736 -0.0041457005 -0.03174638 0.37469602 0.06353958 -0.1111875 0.11024612 0.1857982 0.02714944 -0.00024141678 0.13419794 0.13267581 0.25839445 0.29841596 -0.09393017 -0.0092941085
0.0021103937 0.29738832 -0.13036232 0.037224937 -0.050292823 -0.0157162 -0.010825313 0.0898241 0.14866745 -0.3591471 -0.119172655 -0.059892602 0.102766216 0.019833218 -0.06307256 0.05940202 0.25370324 0.0971595 0.06402134 -0.026221171 0.009566885
0.034081563 -0.21833695 -0.39563182 0.18525118 -0.07073033 0.2136248 -0.0042360774 -0.0423759 -0.20112826 -0.18471774 0.250087 -0.31288582 0.10089164 0.020504128 0.04275757 0.1568362 -0.20248947 -0.23330791 -0.5367783 0.06392472 -0.010187173
-0.009476756 -0.018460577 0.10658522 -0.19099812 0.049801607 0.18247868 0.013802364 0.0039519398 0.009293201 -0.18380351 0.32369608 6.6543915e-05 0.01889219 -0.03642865 0.03222822 0.09856899 0.07235091 -0.008110735 0.20892197 -0.13371043 -0.017525418
-0.00985814 0.17496008 0.046180144 -0.01434891 -0.2197512 0.13436863 -0.01668119 0.05782776 -0.02775706 -0.186547 -0.1632372 -0.16394117 0.117274895 0.009745513 0.059543494 -0.11257161 0.118143246 -0.018554853 -0.29296985 -0.069895074 0.0010596854
-0.007693748 -0.25340387 -0.00022867085 0.045197327 -0.055979136 0.03379466 -0.0013186673 0.052610777 -0.17589666 -0.42959622 0.19134416 0.3060335 -0.08844763 0.0113711115 0.037397474 -0.24186094 0.06335872 -0.08837628 -0.052342467 -0.26788965 0.004569486
-0.021035995 0.031367682 0.039948896 0.21455222 0.10893341 0.30338165 0.02777202 0.010573486 0.044222828 -0.08841076 -0.24519409 0.67016 0.42071012 -0.031715497 0.013396786 0.1389015 0.1093516 -0.020173993 0.13457023 -0.2203641 0.010345663
-0.08092757 -0.008221278 0.033482365 0.010238743 0.0011063225 0.111442715 -0.05985829 -0.032769192 -0.009273172 -0.080288075 0.19423096 0.09884148 -0.10668104 0.12834609 -0.12224964 0.003848174 -0.13079244 -0.07588655 0.10721427 0.106797405 0.012407654
0.026113585 0.1748587 0.26839474 -0.2528537 0.18230619 0.16448434 -0.010132239 0.03375122 -0.19419669 -0.21913877 -0.16176659 0.11953621 0.075045414 0.012251912 -0.01588798 -0.0941862 0.117744744 -0.05643518 0.24051803 -0.21002495 -0.051645197
-0.0046693296 0.05164503 0.017549057 0.004339968 -0.2405744 0.14645775 -0.024801923 -0.038357258 0.13802516 0.13306427 -0.031988062 -0.14410469 -0.04714 0.038765874 0.0084806625 -0.15044557 0.17545128 -0.061825104 0.14924257 -0.13941216 -0.004889581
-0.06548562 -0.05613412 0.15075777 -0.11785237 0.04311193 0.034796987 0.0035082796 0.043875135 0.13536097 -0.13686365 0.41575062 -0.26461583 0.0009434639 0.026366213 -0.014503659 0.051243894 0.08338 -0.27875206 0.22296911 -0.034815285 0.016999995
0.032453857 0.00321203 -0.21035741 -0.055567544 -0.037618283 0.0375898 0.03825374 -0.028211547 -0.100480795 0.12179277 0.34716415 0.104856536 0.040171694 -0.06548884 -0.029384147 -0.08639048 -0.10066962 -0.21393046 0.11842046 0.06400185 0.009848196
0.026090818 0.22595653 -0.14822954 -0.044119556 -0.15111266 0.00025258708 -0.037363064 -0.014689067 0.05437884 -0.049545135 -0.15296209 -0.18307805 -0.055619232 0.0737959 -0.032539736 -0.12338886 -0.3533228 -0.031392395 -0.11439929 -0.2749416 -0.029151853
0.0042922436 0.15181117 -0.008880068 0.001911263 -0.2890509 0.08347135 0.02137896 -0.009477986 -0.24938357 -0.050542127 -0.010415655 -0.087641865 -0.033090413 -0.03729221 0.037811153 -0.047161352 -0.032372087 -0.017270803 0.2229317 -0.2943675 -0.012737737
0.0061809374 -0.08341114 0.06605767 0.04791468 0.168187 -0.025127623 -0.07822834 0.030090354 0.03404139 -0.06138544 -0.24280618 0.53064877 -0.23311856 0.14906456 0.012961702 0.04985672 0.10653838 -0.0017485562 0.32882175 0.13796982 -0.027396167
-0.0018139067 0.032205656 -0.11625467 0.07083306 0.035063356 -0.006259167 -0.023751045 0.018154338 0.07675447 0.060772393 -0.16567026 0.42558908 0.22432822 0.044172853 0.003279657 0.10304674 -0.11135344 0.04128756 -0.24900885 0.4669382 0.007954234
-0.00028846558 0.3344497 -0.03982966 -0.11502349 0.05028372 -0.07667803 -0.003001834 0.047609236 0.20530398 -0.46773353 0.18089187 0.26885083 0.076447725 0.010578881 -0.027089633 -0.1378748 -0.39380544 -0.058250118 0.07835757 -0.025706893 -0.0039694807
-0.068076365 -0.0018178821 0.109633334 -0.0058071236 0.14250138 0.087003745 0.02474624 -0.097915195 0.013352378 -0.05754787 -0.1271146 0.022260578 0.16759376 -0.07066976 -0.111595474 0.010194618 -0.10692884 -0.01586222 -0.12347133 0.26307485 -0.01554874
0.006617387 0.08442633 0.008705437 0.124806 -0.037002034 0.31232715 -0.012540029 -0.008465141 0.012991593 0.12456574 0.07392225 0.17809391 -0.096918 0.022712791 -0.0146213975 -0.22812541 0.12104453 0.14063743 0.5120817 -0.18306173 0.0026901343
-0.023453353 0.26503488 -0.111465074 0.046208736 -0.08592995 -0.05382118 -0.0067062937 0.10256172 0.13050845 -0.33830377 0.37800807 -0.29486743 0.3057066 0.017690394 -0.024640508 -0.101864316 0.50493735 -0.17638907 0.14540929 0.06926489 0.013867241
-0.019458182 -0.18719046 0.4214377 -0.1762365 -0.0025655346 -0.049490627 -0.018167844 0.0067978427 -0.08234924 0.02952683 -0.026094124 -0.0773261 -0.014798321 0.027154233 0.0071120635 0.056585204 0.03940645 0.012156399 0.32684618 0.024062539 -0.030304719
0.011697173 -0.13449097 0.23166986 0.06594855 -0.22924101 -0.07456494 -0.0070053693 -0.022393547 -0.18227057 -0.19921277 -0.08753163 0.0376938 -0.17442921 0.011377304 -0.008160038 0.077088244 -0.24178113 0.043960825 0.058919 -0.17802763 -0.0075780815
-0.015144494 0.07225431 0.18878911 0.14835744 0.12847982 0.19758071 -0.048584264 -0.03197254 0.017825488 0.43845496 -0.12041814 -0.24274199 0.09446218 0.08008082 0.17291135 0.12117408 -0.1744012 -0.055594116 -0.14208932 -0.059446186 -0.0012601434
-0.0010984654 0.08577955 -0.06485762 -0.1516002 -0.022576943 0.18702461 0.01466002 -0.039091244 0.151252 0.92092437 0.16603902 -0.0760421 -0.056528457 -0.024609335 0.032870267 -0.086057685 0.16720268 0.18454267 -0.3612673 -0.121707365 -0.013030266
0.003071048 0.07918831 -0.050498456 -0.07170711 0.08227283 -0.085194476 -0.04114481 0.025550954 0.01058609 -0.08080989 0.7514452 -0.16269442 0.1322076 0.061444107 -0.07050533 -0.5137644 0.056408033 -0.08243782 -0.37713245 -0.3287118 -0.00014745256
0.01155377 -0.005997976 -0.12187716 0.04197167 0.25070366 0.19429845 0.049813513 0.05977689 -0.22274637 0.108858265 -0.13333039 0.15463994 -0.022074554 -0.09189522 -0.01845947 0.2041891 0.00458312 0.2788962 -0.3183771 0.0569418 -0.013926702
-0.00026159937 0.086019196 0.20194341 -0.20919712 -0.006409675 -0.034492385 0.0075598336 0.059421793 0.112467654 -0.31918168 0.2988129 0.062074203 -0.30312872 -0.025389094 -0.06582275 0.010106745 0.11868474 -0.019384542 -0.024024324 0.0121900905 -0.0075319167
0.0026693142 -0.11792063 -0.0017358128 -0.02421066 0.066144586 0.061914887 0.03294353 -0.040581938 -0.18009214 0.1054767 0.14656922 -0.124922045 -0.106851175 -0.051979065 0.074154936 -0.19038025 -0.18807454 -0.042104237 -0.039977234 -0.33672112 -0.0101250475
0.01674677 -0.121700965 -0.06455326 -0.25261736 -0.16406147 -0.13488005 -0.033585843 -0.045864057 -0.0057358597 -0.05124163 0.23520659 0.06453699 0.14969409 0.076321825 0.07084579 -0.18560709 -0.10044764 0.2026606 0.36723712 0.1825061 -0.0236168
0.0019479084 -0.024310408 -0.025987193 0.061269872 -0.039886303 -0.019491278 0.003750786 0.0074585974 0.05723367 -0.458755 -0.28656837 0.26506203 -0.035585638 -0.008160845 0.00054183626 -0.1818819 0.15411343 0.13340448 -0.06690472 -0.02267546 -0.010161792
-0.010623041 -0.055162735 -0.23262763 0.05509047 0.24418624 0.10136088 0.010344211 0.005018899 0.066136844 -0.21625331 -0.21714678 0.22078559 -0.05532458 -0.022168614 0.012751845 -0.2132074 -0.20020694 -0.04361704 0.049127743 0.014557471 -0.0008355079
-0.0044968436 -0.09247067 -0.25465423 -0.14116949 -0.037093576 0.006507439 -0.011418726 0.04856446 -0.047920812 0.10220111 0.68510646 -0.13819385 -0.04522744 0.021031734 0.3170119 -0.0008971285 -0.27323136 -0.14400162 -0.20852013 -0.06808703 -0.025612505
0.0067398283 -0.20675713 0.30406454 -0.015436785 0.29285747 -0.22371559 -0.024217352 -0.0023299651 0.06228797 0.27026975 -0.20000833 0.40415466 -0.15755418 0.0449124 -0.010828363 -0.19401582 -0.38835388 0.14700305 0.40414864 0.09101707 0.0017143751
0.00317136 -0.14857122 0.0039985357 -0.058881916 -0.055009153 -0.06223504 -0.0016680013 -0.004058091 0.0073633096 -0.092721544 0.56878775 -0.13241115 -0.02495849 -0.001489633 0.019250331 -0.01416066 -0.16418748 -0.24667108 -0.27093747 -0.18919109 0.0065990495
-0.0011430852 -0.30623254 0.11104125 0.11742869 0.09480563 -0.0017203616 0.008976658 0.010964258 -0.14001076 -0.13141832 -0.20200405 0.045448482 0.22737941 -0.022923002 -0.0012985992 -0.15249643 0.24961145 0.06322455 0.046589494 -0.21035784 0.0089142965
0.0061735306 0.13015085 -0.0507639 0.1636659 -0.0099168075 -0.044182364 -0.018744782 -0.016647043 -0.009667502 -0.16886832 -0.44266135 -0.11948502 0.19220242 0.033138007 0.011990302 0.26658666 -0.22616546 0.04675187 -0.39872083 -0.034214433 0.009111394
-0.00010592707 -0.018392157 -0.03696428 -0.019772893 0.1568179 -0.3391137 0.018679984 -0.08131993 -0.16798677 0.5550509 -0.037420537 -0.075641826 -0.119378075 -0.05384855 -0.020226533 -0.24997976 0.14552961 -0.2462398 -0.13143782 0.24465083 -0.00042107908
0.002372461 0.3287898 -0.11616255 0.052841395 -0.10819157 0.13675882 -0.001120375 -0.0060404935 0.032165095 0.0131879905 -0.0349138 0.0458718 0.09759781 -0.0020107531 -0.0016709478 0.07646061 -0.3846549 0.20587368 0.11762989 -0.07701103 -0.0058136773
0.0019154649 -0.19102167 -0.16591541 -0.025066422 0.03670203 -0.15910293 -0.011531535 0.039796293 -0.064084806 -0.29685792 -0.16196384 -0.40633586 0.10816626 0.030631604 0.03873549 0.1511202 0.13945183 0.074874744 -0.016985768 0.12922627 -0.007435414
-0.0056237136 -0.072338596 0.144202 -0.09896991 0.13546109 0.00486509 0.0044588586 0.030845676 0.014448011 -0.21383134 0.6808442 -0.12615521 0.052286565 -0.0071437014 0.0067512784 0.064576894 -0.13200068 -0.13375317 0.22215573 0.12603734 0.003451643
-0.0048842714 0.21294384 -0.16015254 0.12821777 0.018736597 -0.023594158 -0.0009173931 0.09580727 0.21727392 -0.3611375 -0.31915927 0.11697189 0.044588912 -0.005015027 -0.027032401 -0.23847803 -0.26052976 0.21511535 -0.11856404 0.04271105 0.00023706525
-0.0003371517 0.16171838 -7.370396e-05 0.12012653 0.005899232 -0.05158789 -0.012281382 -0.009648029 0.24391907 0.056132525 -0.23084708 -0.013267159 -0.19990896 0.026466498 0.0033006838 -0.28507358 0.5250807 0.07125046 -0.13507865 0.08779145 -0.0022191722
-0.0031814377 0.0033282533 0.08027053 -0.017529402 -0.0047002775 -0.043877818 -0.0014237368 0.016898386 -0.15362497 0.06826579 0.2749021 0.097681545 0.123426974 0.006347743 0.04186016 -0.1397865 -0.47739992 -0.120785825 0.49645883 0.11451018 -0.007997995
-0.0019221491 0.051990103 0.0038822456 0.05231903 -0.00010230783 -0.37217566 -0.042965204 -0.005546725 -0.050982766 -0.008975688 -0.16448778 0.01961945 -0.28030545 -0.35972834 -0.009346769 -0.01775924 0.005391491 0.043134734 -0.023331126 -0.08284647 0.4716211
0.017003562 0.0028385662 -0.2039511 -0.21407388 -0.06711313 0.15237884 0.00022253487 -0.036065537 0.12622078 0.05675199 0.16729003 -0.07611463 -0.067811094 -0.015531387 -0.11999286 -0.3104209 0.052920826 0.1258314 -0.24270143 -0.02089739 -0.020501018
0.034237605 0.015183773 0.3361395 0.036351707 -0.035198987 0.044150125 0.0032418494 -0.13571252 0.17312726 0.31010696 0.00447707 0.014448627 -0.00535375 -0.002660395 -0.10475186 -0.34053773 -0.17848676 -0.031271543 0.14287807 0.18144278 0.004221162
-0.026328884 -0.044686563 -0.02077204 -0.08296611 -0.07648295 0.07610721 -0.005995946 -0.07476507 -0.0151245035 0.36042458 -0.080921955 -0.27143887 0.07819176 -0.004178123 -0.0053536124 0.13549176 -0.024711398 0.1811701 0.065119155 0.12999247 0.007958381
0.00072940777 0.18639219 0.18197031 0.09460902 -0.14654486 0.067337066 -0.0079142805 -0.08028975 0.08367238 0.1866418 -0.3959228 0.051621735 -0.040746428 0.00059655163 -0.057687435 -0.21094021 0.26008978 0.028059756 0.17404118 -0.19789475 -0.016496196
-0.009603193 0.03250107 -0.0004373922 -0.23399971 0.15007554 -0.3332723 0.10576947 -0.001293376 -0.13454366 -0.050578397 0.61619294 -0.17186219 -0.6074086 -0.20133084 0.031926 0.19038898 -0.214082 0.005864534 0.104789056 0.19097261 0.032399885
-0.0005878912 -0.01708794 0.3663931 -0.053093128 -0.016415779 -0.04604531 -0.00065301417 -0.017211236 -0.28568688 0.23523982 0.4370168 0.22337475 -0.123366535 0.007323709 0.021924838 0.106385715 -0.12829956 -0.161472 0.11548743 -0.08281592 -0.0016952815
-0.01185801 0.10626328 0.24356751 0.0646587 -0.020661395 0.09595566 0.0028649836 -0.02713453 0.21703465 0.32764888 0.03301571 -0.19782256 -0.08933341 -0.012134539 -0.08218586 -0.28553617 0.2669027 -0.2522801 -0.08631258 0.035309058 -0.00064244366
0.021879805 0.065769635 0.13296059 -0.21668655 0.0074446225 0.17777783 -0.009546615 -0.02662681 -0.020456 0.048842337 -0.13938887 -0.17942199 0.31546107 0.042870793 -0.07925726 -0.06636078 0.07492602 -0.06512216 -0.059306633 0.16826332 -0.06977996
-0.0021895915 -0.0104901 -0.017263513 -0.16647771 -0.011148714 -0.3421689 -0.02526936 -0.040368874 -0.08136628 -0.26735237 -0.35898453 0.41708633 -0.26071367 0.044807274 0.015486689 0.074277 0.065597944 0.15321563 0.38545555 0.3133957 0.0020052562
0.011974166 0.07408883 -0.13965288 0.007933645 0.1468688 0.15584315 -0.019596951 0.0022509438 0.1472531 -0.22383605 -0.37084636 -0.001539255 -0.11484157 0.026250444 -0.07097124 -0.45119596 0.110002935 0.08284497 0.15338342 -0.03986476 -0.004455649
-0.00015695332 -0.037176557 0.007143187 0.1044624 -0.016843427 -0.596416 -0.009835875 0.007068682 0.017956957 -0.028890133 -0.34869754 0.044306654 -0.25654888 0.042451266 0.009849336 0.3954664 0.009624089 0.3631202 -0.10773376 0.2879571 -0.016864844
0.0066074766 -0.302354 -0.20230636 0.25699207 0.017609922 0.27705345 -0.0028851896 -0.01134621 -0.055135142 -0.047753673 0.0050606625 0.0526831 0.10164766 -0.0069786496 0.050614778 0.050428864 -0.08351124 0.11500785 0.18334109 -0.061168987 0.004161855
0.023668494 0.35873017 -0.4435033 0.33399057 -0.15001097 -0.2539747 -0.016411629 -0.06664583 0.25075004 0.24736238 -0.039806493 0.13942891 -0.30052567 0.033720624 -0.045902684 0.11466905 -0.2680241 -0.03260705 0.13979797 0.17837039 -0.02106563
0.004852702 -0.02129788 0.3940667 -0.07881616 0.18722902 0.115805216 -0.0126700625 0.044526696 -0.18901876 -0.05601554 -0.019367972 -0.07031274 0.11584876 0.024066424 0.009587375 -0.0026162113 -0.032323226 0.06917847 0.036081612 0.11420802 -0.012340441
-0.013540729 -0.018032271 -0.036995642 0.11672324 -0.036447175 0.12053445 -0.0115274545 -0.0014983787 0.02242496 0.009022906 -0.05057199 -0.039467994 0.2787203 0.03503213 -0.036490783 0.006068509 0.060027435 0.17677726 0.11297941 -0.13769655 0.017986786
-0.022919899 -0.029981565 -0.1095031 -0.01953358 -0.025572224 -0.057733852 -0.011349831 0.057705704 0.105928384 0.014826505 -0.4408197 -0.060519848 -0.19919287 0.02279782 0.019291649 0.2338865 0.111506656 0.15132508 -0.18240127 -0.09353775 -0.01626865
0.011901181 0.057436578 0.120957725 0.035338365 -0.14542758 -0.16294754 0.0071388264 -0.011062993 -0.03728907 -0.078711666 -0.18790735 -0.3424285 -0.08178435 -0.019829905 -0.01441904 0.106625594 -0.12942253 0.076744206 0.15976615 0.23761518 -0.00034022977
0.009398263 -0.30217654 -0.17251967 0.05448446 0.012498869 0.04096864 0.0029272488 -0.017341796 -0.11285885 0.07862972 -0.1986828 -0.04096435 0.14368846 -0.0037149198 0.038736425 0.1361688 0.23405175 0.25455573 -0.12263288 0.15540266 0.0014162763
-0.025583426 -0.3202024 0.16554917 0.17662112 -0.24201716 0.106969826 0.013241499 0.06728667 -0.3885785 -0.7070649 -0.1694545 -0.04884596 -0.22315106 -0.026149483 0.10463893 -0.40347734 0.055333704 0.043934442 -0.045869093 -0.104788095 -0.004943886
-0.012641119 0.024168259 -0.11298387 -0.05314535 0.03710972 0.116376266 -0.043121353 0.06295098 -0.21049923 0.1889653 0.36853826 -0.11011096 0.31789473 0.052997585 0.03417015 -0.09736068 -0.10246383 0.029270826 -0.23242314 0.10365996 -0.0376223
0.017846987 0.35736948 -0.07580819 -0.20836881 -0.04460625 0.04682721 0.0015100704 -0.06717204 -0.035164397 0.2143376 0.233847 -0.10043928 0.14142552 0.023014577 -0.075676225 0.23889302 0.0442864 0.07755015 -0.14670907 -0.04443567 -0.0077244844
-0.03741577 -0.24484211 0.15952967 0.03999837 -0.07176723 0.18139778 -0.025625767 0.14070943 -0.2260595 0.16895837 -0.13485771 0.14727946 0.2153323 0.014172779 0.090537965 0.24943942 0.089025036 -0.030202216 0.07103863 -0.1174243 -0.016589371
-0.0105361445 0.044801306 0.17805415 0.09816006 -0.027293593 0.12991253 0.011839928 0.02776704 -0.09518 -0.0980371 -0.45820814 0.11798313 0.1929301 -0.021644484 0.01444774 0.1802573 -0.0763962 0.20299645 0.011639591 0.12574859 0.0044032885
-0.070343636 -0.038307462 -0.045614257 -0.052597873 -0.1039087 0.27683833 0.03738705 0.023235973 0.14304867 0.012225588 0.0480423 -0.1102849 0.35173988 -0.0773029 -0.10296083 -0.36594543 -0.037025627 -0.20923641 -0.09852865 0.0183195 -0.04571319
-0.0015303782 -0.015106221 0.019386454 -0.03202779 0.018729767 -1.1698308 -0.02635031 0.0015158537 0.007322474 0.049409587 -0.18758126 -0.030673621 -0.98912734 0.11630357 0.014712235 0.07677515 -0.089060694 0.111199625 -0.11724397 0.2538281 -0.059769318
0.14883547 -0.13068636 0.11526739 -0.0809924 0.012734561 0.090109564 0.041305304 0.045072652 0.033608537 0.41023576 0.13425322 0.27206913 0.14151122 -0.0808596 0.095965005 -0.062321126 -0.22131582 -0.08888975 -0.13761722 0.14448819 -0.01823413
0.054290116 0.030329216 -0.017464943 -0.10216173 -0.024921017 0.14432767 -0.054576784 -0.002602343 -0.07566349 -0.053448856 -0.31656826 0.015049644 0.36160535 0.16894427 0.06398197 -0.013210392 0.10143801 -0.0623947 0.33498797 0.066496894 0.013366815
0.018763667 0.23464191 0.07866925 0.19294342 -0.23927896 0.12629825 0.01491473 -0.015164785 0.20023549 -0.21639751 -0.32002082 -0.04692062 -0.18147951 -0.039790332 -0.04331397 -0.37015134 -0.39352778 0.08071142 0.29812604 -0.13131614 0.0027404749
0.016190479 -0.20443748 -0.17305657 0.24588041 -0.0038340406 0.0090487385 0.0006042631 -0.12658072 -0.16285624 0.34927368 -0.8015268 0.13049977 -0.05655874 0.0007557086 0.055107884 -0.23673552 -0.2969594 0.21069837 0.006873163 0.13006471 0.010199259
0.0026639602 -0.12035286 -0.03172598 0.14797229 -0.31958738 -0.04198341 -0.001361147 0.025187107 -0.010650164 -0.18626145 -0.40020007 -0.038764995 -0.039799206 0.00045263584 0.014672975 0.068815485 0.4275785 0.016338712 0.09506917 -0.06608128 -0.009595268
0.042928375 -0.05642194 0.28354138 0.06448689 -0.17048123 -0.11474641 -0.043627337 0.30871275 -0.0014176848 -0.051863518 -0.5054452 0.12914605 -0.032255523 0.05397614 -0.13959001 0.36084992 0.12940042 0.029159809 -0.014801672 0.17447507 -0.033571023
-0.017808167 -0.14413074 -0.06961984 -0.043051034 -0.25423658 -0.16915864 -0.09196899 0.029679686 0.17189379 0.08258028 -0.23227692 -0.3220897 0.09536098 0.17654961 0.0073917294 -0.22060294 -0.1141321 0.091783434 0.074395806 0.17892553 -0.006585673
0.0176946 -0.04827354 0.22907245 -0.13459274 -0.044301998 -0.07096032 0.014714893 0.023012828 -0.106145255 -0.017469782 0.26721278 -0.084231265 -0.12506449 -0.031059826 0.01367346 7.514551e-05 0.14286326 -0.1267517 -0.037200022 -0.18328695 -0.00012474871
0.04238072 0.1806574 -0.23615737 -0.21829604 -0.025401598 0.31961277 0.06395648 0.011165774 0.11244201 -0.13075714 -0.12664282 -0.14084537 0.21541816 -0.123813465 -0.013539305 0.07010753 0.16471486 -0.03134887 -0.23525594 -0.084475376 -0.02102572
0.009254454 0.24681447 0.17612568 -0.14141788 -0.28109533 0.14020838 -0.00473503 0.038060475 0.08147106 0.09179845 1.6123471 -0.34472686 -0.12948537 0.013187984 -0.02502468 -0.36995026 -0.2555958 -0.075285405 -0.5938396 -0.23618156 -0.006861861
-0.005555981 -0.031395644 0.14858492 0.10061876 0.040216476 0.2137366 0.00486062 -0.030351305 0.08737093 0.21497203 -0.074509144 -0.3463361 -0.0751008 0.007337973 0.041321054 0.26961085 -0.15485615 0.07266692 0.007643779 -0.055564996 -0.0098499255
-0.0033768404 -0.13757928 0.21089898 0.2557346 -0.019807944 0.18914174 -0.010475016 0.04644567 0.084530674 -0.27711692 -0.37703988 -0.050743844 0.1659042 0.023974184 0.016152209 0.17084266 -0.18131146 0.048323993 0.20746732 -0.22537416 0.0001701932
0.016841728 0.27882838 -0.26209816 -0.04187209 0.021835897 0.013530644 0.0026092809 0.023643138 0.29018524 -0.0847888 0.6350699 -0.07315166 -0.0039252876 -0.0014314847 -0.10530319 -0.693779 -0.024611432 -0.14319819 0.09052275 -0.25542617 3.3115248e-05
0.013373972 0.12508582 0.2636588 0.18260786 -0.03207205 0.115058325 -0.00014476782 0.061863445 0.017251413 -0.48188716 -0.15792891 0.054550976 0.033790253 -0.0037720338 0.0011151534 0.19607478 0.0036765675 0.31088382 0.0062857466 0.04087172 0.012271205
-0.010141493 0.044807512 -0.0020390998 0.10063862 -0.16478093 0.22132932 0.030746615 0.03564763 0.12065025 -0.114207424 -0.18668093 -0.13962416 -0.119687825 -0.063813105 -0.011883274 0.2001412 -0.061957546 0.14098005 0.06707617 -0.041735176 0.0036046936
0.01064937 -0.04202665 0.09236567 0.11626543 -0.087405294 0.16528623 0.033430126 0.0023857928 0.04327407 -0.0036150715 -0.18661053 0.1268905 0.12329194 -0.0466314 -0.0013893388 0.14993405 -0.15724696 -0.04730874 -0.13911097 0.05027502 0.0010967016
-0.07973055 -0.11197491 0.2063242 0.14547 -0.24337971 0.023970935 0.0077611906 0.015584586 0.17902625 -0.09737543 -0.32094032 0.12958778 -0.003218799 -0.020267803 0.10151681 -0.05772228 0.09047226 -0.14516746 0.14118125 -0.11570117 0.0057464927
-0.36537093 -0.18409061 0.063029975 0.19576494 0.01499082 0.11451058 -0.0032505994 0.0032826131 0.019850632 0.21371071 -0.035167713 -0.0080063585 0.092039414 0.005769473 0.16687097 -0.060888536 0.119171456 0.24071915 -0.020937862 0.07795958 -0.008929076
-0.026791552 0.24408534 0.20855205 -0.22606876 -0.1885361 -0.040271234 -0.027396899 0.051261492 -0.0379478 -0.17430475 0.0799313 -0.0032928789 -0.03119356 0.04362985 -0.032731067 -0.037910886 -0.02290997 -0.11420191 0.21105266 0.21527605 -0.011486234
-0.0115353195 -0.03263207 0.18295084 0.0012044626 0.19005567 0.15978785 0.028162813 0.010172253 -0.15929596 -0.0524343 -0.03187499 0.5491686 0.09508476 -0.051274538 0.0070497515 -0.03612657 0.024444751 -0.2579772 -0.049682744 -0.27007 0.0013519408
0.0013371975 0.18807192 -0.26340672 0.024790281 -0.0024857686 0.08352001 -0.010377076 0.05231374 -0.0257271 -0.07356421 0.0040385304 0.083480425 0.1361751 0.02744917 -0.02675832 -0.125059 0.27845147 -0.23725182 0.1307605 0.07598942 0.0017235203
-0.061319016 -0.044500917 -0.07393607 -0.16110735 -0.0865849 0.2721666 0.02704633 0.085709736 0.10235268 0.06126347 0.20443718 0.16745643 0.007771713 -0.03474048 0.0832535 -0.08995372 0.036157243 -0.057657823 0.10133887 0.064559944 -0.042617
0.015650438 0.035608042 -0.1434389 0.115313016 0.00126852 -0.0047210674 -0.02683509 0.20661494 0.17462318 -0.52629316 -0.22407503 0.17731725 0.1712916 0.05179734 0.07692061 0.08505891 0.0034851956 0.11259593 -0.028953156 0.030746894 -0.0024085904
-0.22076048 0.15952395 0.026405504 0.05339142 -0.022409983 0.06464991 -0.008884831 -0.028623752 0.01652814 -0.005730159 -0.20012765 -0.1674376 0.089747526 0.014804957 0.0033289841 -0.05041313 -0.025814423 0.04539174 -0.11628782 0.09520158 0.0032218818
0.005401546 0.07970272 -0.012053995 -0.03894764 -0.020052703 0.025756437 -0.020489637 -0.10880272 0.25246927 0.18827704 0.2241013 -0.00925516 0.09989653 0.06488554 -0.09501839 -0.0570421 -0.42462903 0.13833125 -0.053255986 0.022011373 -0.024041774
0.15478463 -0.042443614 -0.021919206 0.029746996 -0.043091215 0.08466339 -0.006520669 0.0076320064 -0.0527371 0.18461673 -0.18632714 -0.08584019 0.046552233 0.016480327 -0.19626142 0.15905504 0.1597187 -0.0314529 0.04687795 0.008059272 -0.0012925371
0.0041782204 0.034920484 -0.1275096 -0.12816902 -0.051773448 0.09467843 -0.018814586 0.07410688 0.13812871 0.11953002 0.14149979 -0.038351733 -0.07171969 0.025840802 0.0075512724 -0.08689543 -0.17769106 -0.08128844 0.002055921 0.07004555 -0.017763088
0.005144905 0.30759162 -0.38895872 -0.028411448 -0.06629593 -0.10964323 0.019292438 -0.0042030504 -0.04417512 0.35141626 0.42235723 -0.46440214 0.047652416 -0.039661687 0.005633439 -0.05303771 -0.64793885 -0.091814965 -0.2425687 -0.04784124 -0.012221537
-0.011243505 0.25371343 0.2705228 0.1872741 0.08599273 0.040429 -0.014115247 -0.05885432 0.11782701 0.46603578 0.03360214 0.06265011 0.1160291 0.025441883 0.027647758 0.2145811 -0.117351145 -0.19730625 0.32653508 0.109027915 -0.0049600876
-0.0011095221 -0.3808646 -0.036138833 0.03457761 -0.018804953 0.11892484 0.0049308552 -0.02809569 -0.15683453 0.3060297 0.09670374 -0.095463715 -0.20267805 -0.0057387343 0.038685095 0.041682795 0.2773037 0.04663396 0.13421673 -0.2044981 -0.002697058
0.0018753732 -0.44541246 -0.0833614 0.10160404 0.008094001 0.08524893 -0.13589786 0.06464754 -0.16931815 0.042141315 0.34731236 0.1285999 -0.045475602 0.25601465 0.3083841 -0.18548176 -0.51302445 0.1158575 -0.069375396 -0.060030963 0.042907372
0.07585385 -0.12956986 -0.09721346 -0.22537154 -0.065510534 0.14191067 -0.027273135 -0.10848937 -0.0054100673 0.1111699 -0.14441305 -0.15215547 0.02407501 0.016557042 -0.007293592 -0.01621883 0.013163937 0.21747988 0.20434134 -0.15496421 -0.047061883
