0.13193008 -0.6627304 -0.39953128 0.23775092 -0.010020562 0.04930249 -0.13887128 0.08324291 0.32258418 -0.13364394 0.17526835 -0.60364956 0.04265852 -0.2964909 0.13352485 -0.165082 -0.0706214 0.4585763 0.10847185 0.009273419 -0.03736202 -0.8234255 0.04282305 -0.22942717 0.14732654 0.18264076 -0.26539147 0.7600703 -0.105053 0.055306613 -0.008403366 -0.09040438 -1.6498764e-06 -0.1845807 0.08386017 0.28114158 -0.36084402 -0.27954817 -0.06808794 0.2139009 0.033620264 0.23308356 -0.20482153 0.06742277 0.30490905 -0.02293614 0.20844422 -0.054562815 0.18382797 0.2034414 -0.03644152 -0.33909035 0.29476154 0.12578218 0.026175447 0.37694362 0.08477137 0.08555835 -0.055005226 -1.181198e-39 -0.32608646 -1.1892254 -0.005788138 -0.025004592
0.14155734 0.117737606 -0.42767277 0.21744457 0.016651781 0.044589072 -0.18049765 0.10847443 0.1300669 -0.31872737 -0.10717994 -0.55633014 0.16102743 0.18840313 0.04521119 -0.121279135 0.017151969 0.5617631 0.43955815 0.065413125 -0.07011602 0.059977632 0.13253327 -0.0616968 0.30200875 -0.060606167 -0.37257746 0.4878276 -0.050828665 -0.1346891 -0.25886995 0.0075997207 -0.07892612 -0.7184485 -0.017661305 0.41682273 -0.25895187 -0.14299768 -0.15844086 0.07563319 0.054466557 0.2706237 0.12614582 0.029848354 0.53546166 0.019896178 0.11475433 0.062169217 0.11715053 -0.039410092 0.18699852 -0.13652837 0.25228137 -0.13647105 0.038599536 -0.10000159 0.40035006 -0.09220931 0.010900741 0.055063173 -0.57558274 -0.13245617 -0.036115244 0.18085885
0.19756706 -0.0012958247 -1.110515 0.4362447 -0.10942712 -0.13771527 -0.23417234 -0.009271849 0.23198098 -0.20545226 -0.25797853 -0.5925862 -0.246002 0.03586004 0.09403235 0.27108783 0.047858823 0.18887725 0.17871042 0.11077314 -0.132761 -0.29999238 0.25315443 -0.21469937 0.26219633 0.14781787 -0.19118315 0.38402766 -0.38379598 -0.13857205 -0.33275056 0.30435643 -0.1522511 -0.7169293 -0.13352074 0.56525177 -0.5032625 -0.091247655 -0.24851982 -0.15293382 0.039531466 0.23343033 0.013788866 0.08273774 0.47553754 0.061520454 0.16816269 0.14301684 0.15906122 0.06185065 0.25601298 -0.37871048 0.2283194 -0.24527559 -0.10337713 0.090212435 0.115192525 -0.01038176 0.13584746 -0.05052303 -0.4669253 -0.3519127 -0.077208504 -0.034451976
0.08453788 -0.1562266 -0.06699884 0.29598144 -0.08247461 -0.22848152 -0.157627 -0.33263645 -0.13080005 -0.0028394994 -0.24156103 0.0129581755 -0.04640488 0.004307344 0.1925767 -0.015642943 0.07727439 -0.8438454 0.11616202 0.07480164 -0.25615707 -0.057110034 0.07546904 0.14678505 0.03292393 -0.13232952 -0.4656885 0.6773478 -0.7480468 0.3549838 -0.3135661 0.052936025 -0.15159589 0.08512433 0.32426012 0.08331526 -0.3617105 -0.4584249 -0.11709684 -0.24061845 0.19872038 0.22565372 0.1155455 0.09457202 0.633787 0.26688975 0.12954679 0.045766804 0.1659633 -0.05846828 -0.09396327 -0.4016425 0.060064014 -0.039991148 -0.15721874 0.2389164 0.082740344 0.025013989 -0.19149569 0.07239829 -0.4652117 -0.31921577 0.104226835 -0.028813919
-0.19825155 0.29381597 0.43190423 -0.2928948 0.373882 0.19142729 0.3342341 -0.36269102 -0.17373225 0.094838336 0.2278878 -0.021738043 -0.1448328 0.362098 -0.18382317 -0.16679876 0.0034299227 -0.29729623 -0.4655695 0.19841781 -0.15347645 -0.18180859 -0.10291034 0.17195098 0.19109115 0.11198641 -0.13459598 -0.7444149 0.084660046 0.11753459 -0.12603965 -0.31429255 -0.0004499347 -0.52188104 0.22231655 -0.7582113 0.104600504 -0.1660392 -0.044420876 0.22679536 0.16155334 -0.24293347 0.041432098 -0.047501814 -0.22721823 -0.009970589 -0.075152226 -0.01988646 -0.12115015 0.43590707 -0.48634014 0.10748485 -0.23879416 -0.007585109 -0.11468191 0.12438398 -0.28108212 -0.0059417738 0.1763918 0.092100166 0.3590865 0.18321241 -0.023430068 0.009661065
-0.068301655 0.26228923 0.30240953 -0.71782833 -0.09249011 0.24522449 0.41854408 -0.39160448 -0.13986062 0.112975314 0.33138862 0.121923946 -0.0077127344 -0.13831627 -0.07544265 -0.33393285 -0.027690697 -0.39083248 -0.48818135 -0.051360775 0.41704413 0.5926792 0.3523861 -0.19848046 -0.1117169 -0.1227767 0.090758964 -0.20045964 0.109462045 -0.4660431 0.31044513 -0.4279564 -0.015005988 -0.27163202 -0.090918794 -0.051992204 -0.20981601 0.15564847 0.096358225 0.49575713 0.15467694 0.1784564 -0.052646425 0.031467713 -0.61667603 0.222041 -0.15288611 -0.16384225 -0.10806312 0.3096311 -0.17586899 0.14378756 -0.2370928 0.19542645 -0.29468605 0.35669997 -0.33266655 0.09703558 0.119214915 -5.0678985e-08 0.3649649 -0.13264185 0.05751322 0.08252608
-0.30046222 -0.2949469 -1.1048714 0.22197574 -0.042194728 -0.11703006 -0.38029045 0.0038494268 0.2017012 0.093958974 0.082979076 -0.92434996 0.0001238771 0.19802792 0.114000164 0.06253446 0.0139351 0.5467703 0.45807922 0.04164786 -0.1272158 -0.09464624 0.0033184588 -0.22364469 0.0072651207 -0.08771352 -0.4410366 0.47670785 -0.12666324 -0.873638 0.049556427 -0.18019159 -0.28673142 -0.41735536 0.20049153 0.52925307 -0.81249446 -0.24772333 -0.16321279 0.12913233 0.13048653 0.3928177 0.11733337 0.25268978 0.57564044 0.22117108 0.28130084 0.10360126 0.2532988 0.18798251 -0.15677527 -0.848117 0.40702498 0.056250047 0.051027708 0.34201047 0.042140625 -0.18279336 -0.1444936 0.055120755 -0.5142388 -0.20661943 0.036871154 -0.1805813
0.08999178 0.16966417 0.1927654 -0.38396436 0.040309954 0.0049440875 0.07969288 -0.27629042 -0.06945683 0.44835168 0.060079265 0.39822045 0.09675411 0.264236 -0.28042147 -0.30910894 0.11645576 -0.25684506 -0.24431427 -0.10534741 0.011204151 0.33465824 0.13446425 -0.15497851 -0.08513133 0.20135842 -0.21265718 -0.44422582 0.4508853 -0.29066584 -0.013704846 -0.12649411 0.16363306 -0.77472734 0.056380954 -0.42515972 -0.022525853 -0.0052409363 0.036705352 0.30567214 -0.11113899 -0.41167834 0.114654794 -0.24046014 0.23943906 0.2807506 -0.09864872 -0.39993215 -0.063950464 -0.05017471 -0.25108734 -0.06200615 0.052562445 -0.0021868611 -0.097423814 -0.089871556 -0.18799576 0.4262151 -0.00510227 -0.05169561 0.36266527 0.07452399 -0.05200826 0.13324116
-0.08805651 0.23093536 0.44038087 -0.30247438 0.09480176 0.070694394 0.12400635 -0.008084799 -0.09453765 0.3082979 0.12450335 0.038510587 0.12428994 0.040414546 0.09308144 0.0525719 0.06551326 -0.23100732 -0.2928823 0.030776482 0.10316134 -0.27676383 0.28952572 0.0029142736 -0.19909976 0.19821955 -0.1159749 -0.6261011 0.13579088 -0.14203918 -0.0546495 -0.08898063 0.07931701 -0.49696946 -0.11641647 -0.8769914 0.059021775 0.05564035 0.09548349 0.11778477 0.16562323 -0.20323996 0.31341094 0.14088835 -0.16228689 -0.0010876607 -0.21878336 -0.06919566 -0.000983415 0.048165 -0.2575123 0.22737323 -0.43481174 0.07951205 0.05805292 -0.033435516 -0.23299354 0.04237963 0.12555452 -0.08560358 0.30179006 0.1878859 0.11491441 0.27398887
-0.060189314 -0.37517512 -1.2304701 0.25034505 0.02154871 0.07752178 0.23214282 -0.15704629 0.44939914 0.27132908 -0.07733245 -0.02624803 0.15004139 -0.3401371 0.24762647 0.13147175 -0.12546988 0.54306 0.3761625 0.007694175 -0.29104415 -0.0026384688 -0.03227577 -0.048247177 -0.12360627 0.020225227 -0.3310505 0.41083148 -0.45329824 -0.47864303 0.17070939 0.07201589 0.0042610164 -0.29591927 0.20111418 0.46138066 -0.39466384 -0.18901853 -0.2790243 -0.2676931 0.36922604 0.114783406 0.030099154 0.072629414 0.26551682 -0.09684448 0.1967667 0.11603201 0.08352711 0.06242503 0.2990556 -0.25024894 0.28847545 -0.13009812 -0.09668646 0.05060331 0.06430299 -0.017564546 -0.06692604 -0.0018931618 -0.41428486 0.04599357 0.009721391 -0.18370356
-0.022114962 0.19410245 -0.22443178 0.059888188 0.32283783 0.3087642 0.11789882 0.14456263 -0.342811 0.004846871 -0.059373487 0.23225786 0.09826104 0.045247782 -0.18718915 -0.41567993 -0.04327068 -0.09964419 -0.42888668 -0.12033429 -0.060037732 0.023421932 0.121711746 -0.06513905 -0.05733218 0.18700488 0.02642537 -0.42936295 0.08059962 0.10963423 0.14688998 -0.109793946 0.34063563 0.022253685 0.020171564 -0.64273626 0.2942758 0.14406934 0.22107546 -0.09468404 -0.08368559 -0.09679622 0.09409226 -0.057951957 0.17257082 0.122213945 0.033345234 0.19342208 -0.18360037 0.13632448 -0.22561528 0.39526767 -0.35333148 -0.09443218 0.07748553 -0.31376213 0.02992707 0.19113246 0.06915741 -0.16377778 0.095729776 0.038092624 0.100259446 0.058523893
-0.0023524452 -0.052145984 -0.045373023 0.1780894 -0.029765805 -0.1958239 0.22166629 -0.014915586 -0.20691712 0.06592446 -0.14400494 0.0491463 0.020173859 0.0018633587 0.12516534 0.055159975 0.014326409 -0.26424816 -0.13655142 -0.09524691 -0.1549764 -0.18209258 -0.0041146143 -0.23550294 0.110034205 -0.139832 -0.49677706 -0.048255764 0.038721904 0.12317726 0.038909413 0.12986943 -0.20886697 -0.2214712 0.08751745 -0.29058546 0.13802084 -0.18338378 -0.046267256 0.0018172977 0.012368684 -0.17052826 0.1302228 -0.030802706 -0.30747163 0.016169144 -0.08494395 0.0005133007 0.06655922 -0.056325186 0.032833464 -0.2495675 -0.111261345 -0.049755584 0.024513392 -0.044394564 0.030172503 -0.2358078 -0.012535299 0.18324478 0.1329201 0.00670913 0.04223449 -0.2657301
-0.15626974 0.15403756 0.22539158 -0.22107469 0.29814458 -0.10170463 0.22683482 0.15885927 0.03799574 -0.043184638 -0.13932124 -0.140339 -0.18419564 0.059067897 -0.3552808 0.101347215 0.00441357 -0.83817476 0.01762487 -0.14946209 0.1606409 0.011533961 0.019568872 0.01667861 0.27955902 0.2104907 -0.05823934 -0.853483 0.34185505 0.19770671 0.27618888 -0.10293114 0.019779867 -0.433456 -0.016499653 -1.0091923 0.05346952 0.11228227 0.3915405 -0.3661605 0.2679771 -0.08867899 -0.072418414 0.16025828 -0.37138158 0.005418094 0.076924704 0.06223037 -0.18505213 0.015340784 -0.16815431 0.12496431 -0.60407364 0.032222323 -0.07600337 -0.13569261 -0.15634108 0.31292117 -0.022408668 0.05121381 0.24008857 0.096841425 0.04888068 0.11337235
0.07597348 0.4516875 0.12593697 -0.7162065 0.015202344 0.09932504 0.36458403 -0.34820855 -0.020697754 0.3056736 0.22578366 0.0785492 -0.10953172 -0.041261133 -0.23564863 -0.28505406 0.1708034 -0.42707613 -0.24964581 -0.21452506 0.019630952 0.41153762 -0.14840153 0.21722648 0.11770311 0.28763947 0.0632788 -0.24899729 -0.0897118 -0.25148278 0.027029049 -0.27382895 -0.24222058 -0.093122 0.1262855 -0.24821278 -0.09427399 0.14398462 0.15980512 0.2205684 0.05547034 0.16701317 -0.21002218 0.06091592 -0.18540166 0.25953528 -0.13034937 -0.31622157 -0.1009732 0.062278785 -0.09937486 0.21393944 -0.117120564 0.20467724 -0.33018482 0.13621993 -0.2947238 0.02124112 0.0031094053 0.0016311104 0.27378505 0.07849809 -0.011804576 0.2503751
0.1331296 -0.35730952 -0.75888515 0.35011366 -0.17460145 -0.13850659 -0.08759539 0.20183592 0.18869027 -0.1173194 0.12141962 -0.29575935 -0.2802479 0.0070213624 0.06611198 0.071397394 0.15871431 0.20684624 0.4390058 0.1226976 -0.17231356 -0.05222842 0.047038086 -0.21101661 0.06047552 0.035103634 -0.45882133 0.42969328 -0.23430912 -0.2511184 -0.11686454 0.3301349 0.025805408 -0.47064567 -0.055621292 0.32532042 -0.515069 -0.16742624 -0.0077442992 -0.009008334 0.11353378 0.24838567 0.002721061 0.25212795 0.52385205 -0.01267409 0.29778066 0.15265591 -0.029597638 -0.1312491 0.30663797 -0.32799706 0.273136 -0.22692908 0.10523806 0.14721383 -0.1085318 -0.005807465 -0.036736153 0.26542893 -0.3142114 -0.30516183 -0.23864616 -0.04310901
-0.13961603 -0.20594287 -0.37048832 0.119828664 0.03839396 0.023183638 -0.18900698 -0.08779927 0.16397938 -0.209866 -0.26214403 -0.40723184 0.0688416 -0.03399653 0.15842383 0.05104664 0.18415436 0.58577377 -0.06654526 0.021543061 -0.23694873 0.114926 0.22293682 0.03911813 0.13664787 -0.1329492 -0.4323998 0.5957793 -0.2757433 -0.16413553 -0.1370927 0.1820521 0.1348002 -0.47983444 -0.058601737 0.026471348 -0.28432912 -0.41883776 -0.15807934 -0.121599324 0.23002702 0.14486676 -0.013489857 0.31068015 0.5046571 0.2369912 0.07937729 0.13241152 0.35495976 0.1272392 0.18522431 -0.32614768 -0.1326041 -0.24451494 -0.06686588 -0.054555785 0.14152727 -0.3897498 -0.3169461 -0.06853396 -0.65015954 -0.2522216 0.032089528 -0.24131837
-0.080314815 -0.18306202 -0.7785891 0.4087321 0.030908158 0.107246794 -0.29171336 -0.13046373 0.42197654 -0.22637253 0.058589436 -0.66223305 -0.18342236 -0.03247434 0.07753272 0.13249171 0.0033327322 0.46322504 0.20695074 -0.07360624 0.0098797195 -0.014972404 -0.051055882 -0.068123035 0.13866103 0.05979589 -0.301557 0.7066287 -0.14277822 -0.61053306 -0.10370214 0.08313646 -0.09696195 -0.655676 -0.051281836 0.4503163 -0.58264416 -0.2175183 -0.1786744 0.08159563 0.09837225 0.33399922 0.048941404 0.029970981 0.68218493 0.10952752 -0.116807 0.23033145 0.3390862 0.027093722 0.37380847 -0.29144847 0.27452382 -0.061485678 -0.05956169 0.059168898 0.35284072 -0.022321355 0.3329478 -0.2978895 -0.59496546 -0.38963675 -0.07042928 0.0007609472
-0.12031563 -0.18576765 0.5319463 0.17242159 0.06473956 -0.09361686 0.011465432 0.44543424 0.12265641 -0.64043194 0.1005343 -0.18246317 -0.018218724 -0.012853368 -2.1684434 0.2866115 -0.23173463 1.2248532 -0.2746119 0.3482935 0.0731628 -0.8658216 0.0019352047 0.44555962 -0.08184276 0.06682902 -0.3280542 0.031382795 -0.31964016 1.105645 0.013331068 0.32829157 0.008760541 -0.19468184 -0.35523143 -0.6300933 0.1567749 -0.8158992 -0.06908167 -0.64385897 0.24913336 0.21498057 -0.035094414 -0.16363117 -1.1792489 -0.24022266 -1.759551 0.3325132 -0.27507365 -0.041231677 0.027185827 -0.65534306 0.83391666 0.05003421 -0.019039974 0.15849271 -0.0502906 0.16101031 -0.094185196 -0.0003878552 0.24975152 0.082449496 -0.05718272 -0.19027698
-0.052822236 -0.3178017 -0.3087236 0.276221 -0.06039722 -0.19357856 -0.42759857 0.11241936 -0.114778645 -0.08415651 -0.17864232 -0.28266448 0.0003432779 -0.21168905 0.027948705 0.106668256 0.3775365 -0.008525016 0.31475785 0.1959817 0.24296856 0.022236813 0.22028637 -0.26036972 0.2453749 0.20436157 -0.33458695 0.7539477 -0.31760564 -0.47510755 -0.29358912 -0.050627265 -0.05512551 -0.5251987 -0.38809398 0.27875584 -0.26861432 -0.14101855 -0.22769092 -0.430258 0.06766172 0.38839883 0.10558279 0.18492489 0.33093274 0.28801006 0.37587327 0.24714838 -0.051042095 -0.16596836 0.07820808 -0.4330609 0.031118851 -0.16837859 0.33865604 -0.06898683 0.247731 -0.17613235 -0.27507022 0.028509606 -0.14107606 -0.30856702 -0.2564291 0.184709
-0.33799902 0.14343485 -0.3438813 -0.49565354 0.04972668 0.114584245 0.27028072 -0.35474658 -0.13563177 0.08273529 0.3179011 -0.01671088 0.14290734 0.20445214 -0.16196215 -0.05344011 0.0040349327 -0.5023825 -0.07750763 -0.2374798 0.2088031 0.5413113 -0.11980996 0.13476108 -0.34302786 -0.07340936 0.008007692 -0.6044223 0.049330715 0.05311236 -0.044854 0.027893646 0.09103196 -0.5895548 -0.046821255 -0.6939904 0.10864101 -0.08065892 0.40240443 0.119104564 -0.0017336167 -0.1929127 0.14061798 -0.04071255 -0.1878784 0.06286777 0.18141551 -0.432254 -0.11395555 0.3614718 -0.36464432 0.17210712 -0.006511037 0.29966787 0.26793736 0.4732796 -0.24805114 0.46154308 -0.068490885 -0.08375103 0.14162806 0.06773854 -0.10632393 0.38805678
0.117948286 -0.5408743 -0.8770177 0.21244799 0.06187096 -0.07428486 -0.15212163 -0.23982586 -0.13527422 0.21059 0.000589545 -0.15126479 0.041068617 0.11039976 0.30625746 0.12428188 0.05017345 -0.04810813 -0.0076596835 0.31527343 0.26280972 -0.2642767 -0.16277117 -0.43528628 0.34861007 0.009031812 -0.40786895 0.461024 -0.3825093 -0.27082443 -0.1642515 0.14458999 -0.0010571904 -0.16688676 0.016674673 0.30594543 -0.21244077 -0.30154756 -0.6916201 -0.0015191685 0.014219471 0.25151715 -0.009940601 0.09226393 0.65581626 0.07434683 -0.028793015 0.07917231 0.44777378 0.006518313 0.46157065 -0.9485594 0.35235727 -0.27415523 -0.123583466 0.3059356 0.24577299 -0.06834227 -0.012855923 0.01359798 -0.5476294 -0.9597857 -0.0010691718 -0.12394143
-0.0012758307 -0.3390866 -0.56930995 0.43709886 0.12520815 -0.038991295 -0.307148 -0.26587123 -0.015175838 -0.2518344 -0.016231345 -0.48771083 0.08876027 0.06470935 0.09255893 0.059848033 0.07445804 0.15706424 0.07685228 0.013514038 0.112603396 -0.2713102 0.2741846 -0.18654117 -0.042043943 0.36074635 -0.15809673 0.42398226 -0.15176043 -0.3861054 -0.15954912 -0.07469305 -0.05562058 -0.59979963 -0.13472487 0.12230151 -0.60620916 -0.09621062 -0.058760535 -0.051646728 -0.08583686 0.2819231 -0.06771134 0.19392078 0.53825045 -0.044192128 0.09625873 0.13982527 0.32652488 -0.23060282 0.24497376 -0.39627716 0.2010804 0.039255224 0.16167183 0.12516582 0.22864307 0.00039551503 -0.068150334 -0.055524517 -0.20776142 -0.111955814 0.07694274 0.014070927
-0.16243221 0.25701007 0.042117413 -0.30834997 0.29486182 -0.029597828 0.22869134 0.5414017 0.02236125 0.19450691 0.062232733 0.078618 0.032185737 0.08864254 -0.09872222 0.10403433 0.44338372 -0.27980596 -0.2020107 0.2348337 -0.2505119 -0.3463247 0.03021644 0.33840194 -0.04553644 0.149243 0.13986808 -0.2126378 -0.0037669914 -0.20781925 -0.003030068 0.06512884 0.01142426 -0.28360078 -0.057689376 -0.08592745 0.12942582 0.24909368 -0.11455235 -0.08430714 -0.014686148 -0.04889112 0.118046686 -0.03337874 -0.052335702 0.026923671 0.065169685 -0.038881898 -0.25099066 0.05111797 -0.05003334 0.11857229 -0.0023468684 0.120152585 -0.29859293 0.018638782 0.10026329 0.017343141 0.04226234 0.09674431 0.20106296 0.41001174 0.023492174 -0.028780062
-0.1601863 0.6382129 0.47811836 0.16020456 0.13307206 0.23693499 -0.013637713 0.010591551 0.051724583 -0.046232093 0.048815977 -0.14724486 0.078866735 -0.068111606 0.02332466 -0.53916687 -0.09910548 -0.37085852 -0.44537517 -0.31588596 -0.09538677 0.27206254 0.07601526 -0.033950962 -0.31495965 0.17577058 0.032783132 -0.43549287 0.19325559 -0.04733427 0.15815574 -0.11864454 -0.13299243 0.39215997 0.18682845 0.26423523 0.31285414 0.19630864 0.12135802 -0.4127363 0.08898765 -0.38819048 0.10645704 -0.13210312 -0.22072065 0.18446688 -0.38805673 0.023534343 -0.038902503 -0.041209083 -0.3736069 0.36567062 -0.29047722 0.10435747 -0.08912422 -0.07323326 0.061252058 -0.022352515 0.135424 0.004603389 0.4769472 0.45242056 -0.23843478 0.20442775
0.24398085 -0.12220151 -0.6117052 0.060812335 0.09644254 0.27268848 -0.3801687 0.059489902 -0.14879817 -0.16811727 0.06440855 -0.3648708 -0.28928325 -0.054601695 0.33646366 -0.021041783 0.10729087 0.043983076 0.16617686 0.054214407 -0.0056258026 0.07599432 0.17976284 -0.06975633 0.29853314 -0.03251957 0.03883436 0.36463892 -0.1847755 -0.008612821 0.09896038 -0.022887064 0.1394717 0.16503577 -0.12519498 0.2735999 -0.74438477 -0.00012210767 0.082407504 -0.10217276 -0.017657239 0.16257514 0.024022957 -0.11740357 0.5107804 0.25625962 0.115566745 0.06413509 0.17700984 -0.13166137 0.2894865 -0.54987067 0.089377604 0.22007702 0.2888034 -0.069746636 0.06078013 -0.26242217 -0.04462797 0.1503271 -0.6057165 -0.18715571 -0.05707262 0.08850413
0.07798222 -0.03302871 0.06888593 -0.42420843 0.13837728 0.068954684 0.044603623 -0.07656846 0.05822438 0.11331115 0.045869015 0.26366827 -0.21973388 0.103800476 0.14436135 0.1441929 0.2908136 -0.11420036 -0.21421792 0.099840365 0.19185284 0.0016116371 0.31501988 0.19956894 -0.014325119 -0.08266858 -0.06781169 -0.33967924 0.24677493 -0.013310367 0.017251138 -0.000491619 -0.047200166 -0.29981112 0.05526551 -0.04002794 0.14290951 0.101326786 0.11911027 -0.06137816 0.13194309 -0.21103294 0.2865171 -0.04019603 -0.39336866 0.20138319 0.053904086 0.20206498 -0.010499742 0.36162734 -0.09719189 0.32970563 -0.44968486 0.08356255 0.08375165 0.02785889 -0.06895001 -0.09285172 0.079201534 -0.18547596 0.37404466 0.39850172 -0.05429615 0.21437009
-0.08152372 0.2590433 0.07566019 -0.4953438 0.122842975 0.402801 0.30136418 -0.28861478 -0.33582434 0.3963718 -0.041371323 0.2590257 -0.07015787 0.0019362359 0.03137704 -0.41552228 0.14142458 -0.36054283 -0.23179908 0.12081762 0.012054286 0.45110574 0.1336561 -0.1897094 -0.068034045 0.29143602 -0.12674113 -0.26515844 0.107408345 -0.27176905 0.22095755 -0.44220117 -0.15396322 -0.22170955 -0.017796323 -0.32239828 0.2892602 0.15196499 0.2227005 0.25558934 -0.2735028 0.03042735 -0.09343271 -0.07415229 0.09304814 0.3147054 -0.027863001 -0.38452086 -0.32365143 0.20598614 -0.31612292 -2.8614893e-05 0.046512455 0.2519896 -0.11638215 0.1389057 -0.09298238 0.07008673 0.14188105 -0.050672054 0.13009655 -0.21322072 0.036961347 -0.06115841
0.07320243 -0.04457579 -0.47402945 0.26195183 0.037216965 -0.21026231 -0.042257678 0.06505835 0.15949602 0.13745591 0.24642132 -0.40274695 -0.10722003 0.046905 0.24718831 0.2421289 0.1451336 0.33920404 0.21519096 0.24582633 -0.01435217 0.18228984 -0.16829643 0.11031039 -0.056067728 -0.20939778 -0.37604833 0.38060912 -0.38850617 -0.526342 -0.20638715 0.20113307 0.23945053 -0.39111364 -0.15263742 0.32241043 -0.26880327 -0.25417063 -0.14903799 -0.24569032 0.04021107 0.25000823 -0.04621844 0.22460756 0.54999435 -0.060412828 0.29336718 0.19693834 0.31853732 -0.08587971 0.22578248 -0.35995504 0.272787 -0.006286945 0.25793117 0.104919255 0.24086563 0.08736449 -0.06376051 0.15784101 -0.23131464 -0.047832802 0.15732256 0.067280374
-0.24410173 0.15226679 0.3023945 -0.29435512 0.07706065 -0.1252311 0.14021043 0.15995789 -0.102507375 0.053414945 0.096127965 0.082762025 -0.120458454 0.14784342 0.04287763 0.1022255 0.19195439 -0.25579563 -0.5655349 0.06411679 -0.14118724 0.045038223 0.1661417 0.415776 -0.21003194 0.13831761 -0.015834492 -0.5333496 0.024702279 -0.11109188 0.24500407 0.10508515 0.17269813 -0.56534487 0.151032 -0.17599727 -0.012672791 0.28508312 0.103286915 0.17360426 0.21948268 0.11789401 0.38158596 0.29804647 -0.30955625 0.18482746 -0.14657682 -0.0757359 -0.00029755288 0.2764177 -0.32279897 0.432259 -0.027779449 0.08550234 0.050936587 0.0035891358 -0.30976307 0.103415914 0.11566697 -0.18544558 -0.033450276 0.06839451 -0.10314524 0.15768282
-0.074227646 0.11709505 -0.25398293 0.21614057 -0.106072806 0.037300047 -0.09776048 -0.1508425 0.02634806 -0.15664029 0.12981132 -0.018627489 0.06287177 -0.13282722 -0.06289541 -0.34288326 -0.24986973 -0.21829489 -0.18489158 -0.033276007 -0.35999635 0.10907162 -0.050143924 -0.05017594 0.12452972 -0.085627384 0.15322088 0.08997816 0.34553465 -0.07350253 -0.24865292 -0.10669706 -0.1628396 -0.111167274 -0.0676264 0.10043269 0.19123578 -0.030314885 0.022874083 0.05318231 -0.085278936 -0.046178512 0.08364439 0.22066678 0.1028476 -0.061407715 0.09345777 0.00071286573 0.15160306 -0.003065193 -0.1843427 0.021605745 0.13043529 -0.2502538 -0.1312221 0.11044985 -0.06044571 -0.02395611 -0.101324 -0.028765554 -0.07173952 0.0017311559 -0.20667525 -0.25057814
0.11843482 -0.33423704 -0.5948978 0.2926596 0.09909001 -0.11580191 -0.2562647 -0.04009978 0.11451829 -0.042706974 0.14073549 -0.6480761 0.2637782 -0.31308913 -0.029737566 0.001639916 -0.0064333864 0.5096444 0.30469942 0.04326253 0.10098753 0.103408314 0.257813 -0.45193368 -0.03455849 -0.051916126 -0.53935 0.28816321 -0.41540027 -0.25439596 -0.25977907 0.13144296 -0.0548731 -0.6024482 -0.05217513 0.38726127 -0.56845057 -0.22823964 0.20464855 -0.013739597 0.35042801 0.14546669 -0.09345786 0.33956093 0.2822742 0.03811588 0.13816439 0.16862291 0.14802691 -0.04242634 0.2895374 -0.49134734 0.3408357 0.0660062 -0.079332195 0.10413881 0.29826865 0.024764003 -0.020296516 -0.2184316 -0.45696148 -0.048095018 0.04075197 0.0027643316
0.008385062 -0.22017416 -0.8536109 0.32258013 0.023880862 0.13967861 -0.36023477 0.016473142 0.08068177 0.014238285 -0.11303872 -0.7633518 -0.12392888 0.14818113 0.33832645 0.12706669 0.07637489 0.14656727 0.37244368 0.14219263 0.21752314 -0.12821886 -0.14778021 -0.128118 0.16494562 0.082763396 -0.43876702 0.32629943 -0.0034619633 -0.28215784 0.034241777 0.06286875 -0.054489966 -0.7191121 -0.12057173 0.5447223 -0.27609763 -0.23125045 -0.08710962 0.077848665 0.25825834 0.17260446 -0.20482354 0.2229442 0.36160547 -0.10681087 0.24649052 -0.2088558 0.23180541 -0.07804784 0.26344442 -0.32224622 0.2630343 -0.2332624 0.117759466 0.22466008 0.09370043 -0.17570424 0.02738528 -0.28708827 -0.33364338 -0.19200975 0.050461497 0.02847705
