0.1452863 -0.1415309 0.035487648 0.27468365 0.20523342 0.14956 0.27113968 0.25982526 -0.36039728 0.16669302 -0.10571556 -0.17640682 -0.07440021 0.0057483483 -0.12488382 -0.014607545 0.18709856 -0.102835804 0.08924455 0.022889987 0.17294307 -0.2159445 0.36525407 -0.1605679 0.06439218 -0.074670315 -0.07076074 -0.04053706 0.07118487 0.06551132 -0.0033820511 0.051920295 -0.035532415 0.02924273 0.0927286 0.009605281 0.06645459 0.2017256 0.08186164 0.009993578 -0.24987179 0.07506218 -0.07134942 -0.123053394 0.053033672 -0.02871944 -0.13966323 -0.1471142 -0.09807556 -0.1645346 -0.07552423 -0.13170454 -0.14350367 0.07509216 0.18895102 -0.11435759 -0.08348941 0.056742795 -0.09704534 -0.039899647 0.20862375 0.051532563 -0.1911135 0.03978733 -0.16842659 -0.006323981 0.08311639 -0.08840368 -0.13139187 -0.11525332 0.21082689 0.15268348 -0.053884372 -0.045390908 0.12514128 -0.092067584 0.16153806 0.15649682 0.0387918 0.2076631 0.0041843066 0.086645514 -0.077506416 0.20013285 0.053783674 -0.04261939 -0.008755964 0.04541878 -0.25996774 0.0084925145 -0.05790731 0.15289764 0.01142243 -0.042064242 0.15789956 0.43002862 -0.004466527 0.0316577 -0.0089178 0.071345516 -0.15259273 0.13626353 0.15405187 -0.12538403 0.013682636 0.11333239 -0.06836866 -0.1291829 -0.036382526 -0.012494261 0.064656585 0.06041713 0.0041099377 -0.06923649 0.123485565 -0.111422405 0.010136481 0.052643497 -0.032351043 -0.22874661 -0.03466175 0.053747024 0.09890267 0.011111208 -0.13351303 0.018330272 0.101669945 -0.007037369
0.115949474 -0.06288744 0.03676982 -0.36254835 -0.19524711 -0.07933072 0.0028397157 -0.19036801 0.064417034 -0.5572259 -0.15440115 0.14420384 0.124674976 -0.016561164 -0.2466479 -0.024404518 0.20765603 -0.017399633 0.07350621 0.11719715 -0.068776116 -0.25090724 -0.32076272 0.050752625 0.13592643 -0.07279609 -0.116216205 -0.18947014 -0.094481416 -0.090025224 -0.05549778 -0.20541304 0.34686115 -0.18674737 0.04665525 0.30605757 0.2650162 0.15321253 0.19322908 0.066848576 0.19487672 0.2167776 0.20028727 0.34782732 0.10379369 -0.22215647 0.24454662 0.05026892 -0.0169537 0.17862383 -0.059198424 -0.18910481 -0.015096819 0.0030993645 -0.06649748 -0.08129614 0.43352023 -0.22769365 -0.022375459 -0.083885215 0.0764178 0.13366504 0.03160086 -0.30008164 0.2216368 0.0009758862 0.036530692 0.23517951 -0.4967484 0.1216619 -0.1801814 -0.04668397 0.14119387 -0.22191003 -0.15687098 0.09839908 0.1228338 -0.2216745 0.06582259 -0.0748157 0.04692575 0.1581477 0.11691013 0.07621922 -0.10587249 -0.0069646593 -0.048376244 0.08928847 0.055627424 0.1066461 -0.16140394 -0.18284859 0.140784 -0.051040437 -0.12377019 -0.20498729 -0.030374097 -0.027633887 0.40453932 -0.49051297 0.3174758 -0.024633184 0.1671744 -0.017805345 0.09276175 -0.1305565 -0.01409888 0.010246346 -0.52725 0.020376354 0.14403181 0.11854587 0.021978542 -0.056643624 -0.059207827 -0.03937504 0.074302025 -0.28895882 0.014444043 0.18088606 0.024716657 0.05452557 0.023220127 -0.3599919 0.041160565 0.29997578 0.14287692 -0.02184224
0.00029593744 0.16536927 -0.07771609 0.87213594 0.1979202 0.065625004 -0.06784448 0.2920728 -0.76991117 0.23235004 -0.058316946 0.08987533 0.03778297 -0.018170431 0.16154654 -0.12769175 0.16399759 -0.2734541 0.029939067 0.06185731 0.11050391 -0.10599887 0.21059835 0.07352477 -0.24081631 -0.16174811 0.22655784 -0.0383727 -0.2732288 -0.14416946 -0.12536868 0.1298556 0.060229912 -0.069225535 -0.09339231 0.021242773 -0.5194734 -0.16373956 -0.11707038 0.04041858 -0.23805116 -0.29263765 -0.14514302 -0.10020614 -0.06060346 -0.02678105 -0.46282852 -0.010854122 0.07017247 -0.0019053875 0.13658772 0.08092441 -0.14654015 -0.18166125 0.053371213 -0.13479522 0.208594 -0.0063755424 -0.046725407 0.075001575 -0.119624354 0.05072413 0.09518928 -0.013523349 -0.22285312 -0.15561542 -0.17824596 0.11904849 0.21052094 0.20327885 0.13951722 -0.12836699 -0.07516645 -0.03776601 0.41416317 0.14823745 -0.026916675 0.1023712 0.038348444 -0.54467285 -0.08676389 0.056349214 0.044082835 0.022524554 0.001711053 0.18880339 0.15205622 0.5027417 -0.0084293485 -0.25426093 -0.0036798434 -0.044953424 0.0022868896 -0.10221765 -0.08266911 0.19359638 -0.043131832 0.20737949 -0.19278017 0.4393183 0.52687556 -0.12468663 -0.081565894 -0.063813694 -0.037823275 -0.005081071 -0.036812678 -0.10960603 -0.08223736 -0.47176895 -0.0028688954 0.063583925 0.17155607 0.13503073 -0.15888126 0.20276308 -0.12123091 -0.19148512 -0.19576168 0.21896718 -0.12959854 0.17676826 0.12036683 0.30886748 0.23216896 0.2169852 0.12099921 -0.010423987
0.11965287 -0.0475836 -0.08669531 0.11039782 -0.21099445 0.015527835 0.011275037 0.07906442 -1.1359881 0.31676117 0.086484954 -0.063692465 -0.0019265219 -0.25064135 -0.08678163 -0.27849185 -0.085815355 -0.0762334 0.097661704 0.19827192 0.016882561 -0.0031575556 -0.08939025 0.28623468 0.077544175 0.118515626 0.16183542 -0.1733473 -0.014996204 0.12225906 -0.109631665 -0.119130425 0.04827744 0.11217429 -0.014468491 -0.04987947 0.10017441 -0.00040293846 0.043737736 0.20627002 -0.059902567 0.19775747 0.08677547 -0.2483988 -0.10271517 0.18998311 0.21579435 -0.37427515 -0.21772188 -0.10652983 -0.049052037 -0.124747336 0.0012216024 0.09470202 -0.081515945 -0.23067376 -0.5731589 -0.0917927 0.27872697 -0.46225622 0.20116155 -0.24906866 -0.06591308 0.19247045 0.09255511 -0.19858746 0.3295009 -0.31342486 0.20650676 -0.02352345 -0.24233244 0.14712933 -0.8394341 -0.16026258 0.102195516 0.28987277 -0.4279184 0.0903499 0.06607593 -0.15453725 -0.0055203177 -0.69579494 -0.21682642 -0.38081238 -0.1620914 -0.09641017 -0.07729505 0.15565035 -0.3369078 -0.28312394 0.08178984 -0.08724271 -0.022222813 -0.63751614 -0.08355774 -0.08289995 0.1734466 0.043802366 0.11083999 0.7017674 0.029001018 -0.09239968 -0.050406143 -0.004308077 0.13578795 -0.08803389 -0.16803306 -0.07707849 -0.05102184 -0.15456508 -0.09511444 -0.054355267 -0.06564955 0.12730142 0.15185282 0.15237439 0.12150415 0.035321474 -0.2764841 -0.029783132 -0.024228174 -0.19708954 0.09798768 -0.10391153 -0.30464455 -0.07985352 0.098429345 0.02494194
0.12248298 0.23655625 -0.13026106 -0.3184969 -0.07568902 -0.09304817 -0.18668483 0.10958988 0.0953802 -0.137988 0.06624685 0.06852635 0.11459266 -0.106030576 0.09469136 -0.044391733 0.012731189 -0.02912012 0.09133387 0.058884904 -0.031185785 -0.10034521 -0.23473504 0.20697072 -0.019644642 -0.025098702 -0.35024872 -0.008750006 -0.039452367 0.018511498 0.14609864 0.27114406 0.13937224 0.06497651 0.17982987 0.20349436 -0.03125195 0.3125712 0.18300277 0.06600205 -0.023840087 0.07898169 -0.09672795 0.25453562 -0.01234533 -0.009095186 0.069145724 0.26683074 -0.10246412 -0.16295691 0.026807249 -0.06218243 0.046820812 -0.08787925 0.025937146 0.034489475 -0.09604516 0.051869333 0.085698895 -0.08045455 -0.046329364 0.041402433 -0.11638153 -0.33508074 -0.138831 0.1498156 -0.14415182 -0.06109803 0.03477016 0.11299265 -0.032061383 -0.030149514 0.11365431 0.0058685564 -0.1447601 -0.08286339 -0.17950648 0.10523264 0.041114233 -0.09166849 -0.10177647 -0.2603632 0.042858157 -0.21573216 0.012780087 -0.0693695 0.031581905 -0.021503061 0.0021680978 0.13965389 -0.10161262 -0.061368976 0.13188414 -0.13773435 0.1413684 -0.5875482 0.04133995 -0.017920945 -0.3092568 -0.10697783 -0.10259803 -0.038369678 0.012807679 -0.17137104 -0.087444514 -0.0716743 0.2966283 -0.009024937 -0.11347131 -0.015662266 0.17212489 -0.06960529 -0.0136894155 -0.10406579 0.019120412 0.2201361 -0.0001620325 0.17405106 -0.10132545 -0.053421196 0.097559236 0.12878014 0.106918246 -0.16433448 -0.13913031 -0.031045133 0.18773529 -0.08189104
0.09123417 -0.008047855 -0.33531007 -0.23192576 0.099106915 -0.054004222 0.21569091 0.29964867 -0.062014356 -0.32931194 0.06656463 -0.0031798151 0.023988008 0.08502674 0.09662451 0.0325927 -0.089740485 0.062482007 -0.031982273 -0.13775021 -0.04100164 -0.00937663 -0.5991679 0.15289065 0.15853314 0.1853314 0.22320287 0.15916201 0.034665994 -0.038369834 0.02450473 -0.0049168332 0.05220969 -0.042384084 0.07884176 -0.22094046 0.08875264 -0.050436433 -0.30428487 -0.024620822 0.12943232 0.13740815 0.08331249 -0.03798875 0.037999053 0.047208577 0.15368663 -0.029821407 0.07632352 0.055135347 -0.19431512 -0.21769169 0.36747974 -0.07456278 -0.13420904 -0.013345601 0.23840281 -0.16827442 0.01910456 -0.28438288 -0.1104844 0.10031892 0.10461452 0.40394595 0.21411556 0.08616068 -0.26016065 0.2698989 -0.1247634 -0.11629529 -0.13236661 0.030345595 -0.15595916 -0.0032844325 -0.08650148 0.2128923 -0.24709536 -0.0922711 0.15481378 0.056390535 -0.01874643 0.0139271 0.010469353 -0.3146445 -0.121924035 0.09535181 0.13706842 0.16809551 0.013681848 0.20613301 0.09801029 -0.079443894 0.06256549 0.03725106 -0.01598772 0.14857247 -0.010430767 0.09599794 -0.16217169 -0.4182871 0.17109574 -0.09696924 -0.0017017783 0.006768406 0.09005939 -0.16499701 -0.04509359 0.01460894 0.091217265 -0.046122205 0.12214908 0.05588008 0.07401236 0.19132878 0.05809887 -0.17967276 -0.056793354 -0.022827618 0.061387308 0.03473477 0.113297574 0.24251115 -0.043196462 0.12649675 -0.08150813 0.050497804 -0.11973958 0.06397101
-0.048323605 0.030138614 0.12921597 -0.039392963 0.03225473 -0.42601857 0.06370037 -0.08973494 0.09630607 -0.34683108 -0.26015106 0.08378595 0.106719345 0.06137448 -0.35656616 -0.25622258 0.24825811 -0.08377405 0.006486373 -0.034718927 -0.08459919 -0.29267603 -0.5296535 -0.09296581 -0.09601884 0.22336271 -0.080708526 0.1921388 -0.06308386 -0.002176198 -0.26945457 -0.093304574 0.011431801 0.31559438 -0.11020513 -0.16030477 -0.07469831 -0.12488694 -0.048110627 -0.09644053 -0.044090293 0.14135708 0.28514042 0.062707946 0.2908644 -0.11229297 0.11043861 -0.0632695 0.20905767 -0.039228305 -0.06635577 -0.18761718 0.00962677 -0.08153312 -0.40004656 0.011538156 0.058874525 -0.005432124 -0.25856745 -0.25431356 -0.16066986 -0.27218807 0.05759826 0.106965646 0.15925774 0.121161394 -0.28083843 -0.08639434 0.11742209 -0.07684771 -0.047265314 -0.078352146 0.07338374 -0.026416969 -0.10069706 -0.13544257 -0.18082997 -0.18136871 0.25642926 -0.24020831 -0.35981068 -0.066728175 0.038240686 0.1989776 0.14095008 0.12515338 -0.25543642 0.042337716 0.2306131 0.24740234 0.04118878 0.12273818 0.12636803 0.15454112 -0.043135133 -0.069605455 0.10010294 0.030384947 -0.08579276 -0.18931757 0.17571466 -0.12191925 0.23817337 -0.019804638 0.033297926 0.07054578 -0.0578673 -0.56752336 0.27983773 0.05668582 -0.032265175 0.15315579 0.08438541 0.07304463 0.04011792 0.21765232 -0.2093985 -0.016385362 0.14150883 -0.11848508 0.009428858 -0.03757814 0.03327671 -0.03178284 -0.03837701 0.25705066 0.007649692 -0.21567638
-0.18695045 0.17000535 0.07683205 0.06883983 -0.011128378 0.1897093 -0.43728426 0.23140772 0.021505926 -0.121135056 -0.020090913 0.056749184 -0.11211909 0.07407609 0.059661075 -0.068147734 0.08045951 -0.053295497 -0.30074164 0.0063227657 -0.16563946 0.028605865 1.0879875 0.20031904 0.11965985 0.15085736 -0.26767308 -0.027062453 0.19699709 0.015018691 0.06118022 -0.09043182 -0.08667461 -0.074665844 -0.033232316 0.1419963 -0.056779828 0.1827231 -0.007225665 0.0087381145 -0.06349416 -0.037434466 -0.047112823 0.0060562766 -0.036655016 -0.2710508 -0.21680005 -0.04787592 -0.09294212 0.07941294 -0.14423917 -0.1154793 -0.043718845 0.26909974 0.2618948 0.23800416 0.040041283 -0.024830619 0.1624895 0.097044505 0.036539804 0.07360756 -0.03708492 -0.31877142 0.18673255 -0.061912086 0.19895282 -0.18696083 -0.4731801 0.033029787 -0.5331077 0.21672848 -0.037245333 -0.04864959 -0.09084893 -0.23056439 0.123834625 0.056564264 -0.2586741 0.110163264 -0.16309406 -0.36638656 -0.030903503 0.26530406 -0.13198395 0.03092738 -0.16694625 -0.30584714 -0.12086581 -0.19976692 0.10445797 -0.13883251 -0.112986594 -0.4864509 0.0123516675 -0.91877276 -0.25678298 0.125173 -0.18061298 0.36540112 0.030028867 -0.03240964 -0.06938598 -0.13636439 -0.13213119 0.1950451 -0.054065786 -0.12374042 -0.010809944 -0.40849954 0.0026098846 0.033987697 0.013391131 -0.21871853 0.19501074 0.22508672 -0.14837772 -0.026620198 -0.0038620322 -0.107459 0.1012469 -0.12173985 0.35844192 0.13183452 0.011055352 0.10102937 -0.15229598 0.058295816
0.09481554 0.054212138 0.13342114 0.16914748 -0.014388972 0.15987083 -0.18773149 -0.053876128 -0.042891167 0.25098678 0.17150381 0.19726112 -0.0896953 -0.069280036 0.082010835 -0.08386883 -0.0383108 -0.008927881 -0.060471177 -0.06679788 -0.0011298396 0.2694052 0.25897077 -0.0536241 -0.06543485 0.054213393 0.1765742 0.036617223 0.2914478 0.089854814 0.26941234 -0.09538505 0.08275694 0.03219206 -0.050485134 -0.04752578 -0.08001093 -0.1930677 0.108558826 -0.00023048234 0.051046703 -0.03571746 -0.027356552 -0.05907243 0.027879981 -0.10640826 0.061975263 0.055665575 -0.116503395 0.049193826 -0.15131474 -0.07057724 0.037665848 0.04770643 0.06314139 -0.054349717 -0.16693038 0.078142434 -0.13893226 -0.19781032 0.12454652 -0.04950628 0.11790101 -0.2187748 -0.0055775624 -0.19214313 -0.017134245 -0.10735629 -0.014834538 0.020288981 -0.063389435 -0.010186927 -0.098076925 0.030917266 0.049816463 -0.35076967 0.2347938 0.110226676 0.20551802 -0.049828403 -0.037721924 -0.48956648 0.19769776 -0.17526664 0.2691868 0.16504323 -0.0054934835 -0.32042623 0.033428315 0.14227958 -0.06334257 0.15698971 0.018966034 0.08991382 -0.039030246 -0.30090344 0.022510938 0.06765553 0.25062326 -0.12660182 -0.15539904 -0.007225631 -0.082251914 0.10627327 -0.05369137 -0.04899794 0.022365095 0.01621037 -0.1680873 -0.18754403 0.038605783 0.02474629 0.0073670745 -0.055950884 -0.026749816 0.0052574896 0.28642726 0.19583121 -0.24529386 0.015947504 0.0014617139 -0.015263697 -0.09373558 -0.08116891 -0.048542026 0.05900448 -0.22321379 0.015703805
0.13654141 -0.09682012 -0.09718689 -0.12381079 -0.09458495 -0.031156473 0.0452667 0.14167649 0.06919396 -0.016422914 0.0036599166 -0.018140035 0.14703995 -0.02754569 -0.036833763 0.14720862 0.10897285 -0.020032575 0.16101868 0.11258487 0.0072357613 0.01225801 -0.4173537 -0.020717803 -0.16287598 -0.07455096 0.09697824 0.13009638 -0.15531422 0.073026426 -0.056638133 0.23230313 0.023632772 0.073960654 -0.056814753 0.12442891 0.27999103 -0.06341707 -0.07041472 -0.012985847 -0.016858991 -0.0039418773 -0.00048736637 0.03526633 0.035569895 0.20139384 0.095195144 -0.097388096 0.06082471 -0.12841289 0.16427638 0.111982144 0.21431395 -0.25564742 -0.048260354 -0.27465403 0.12586209 -0.041939326 -0.27474344 -0.11885607 -0.4163866 0.15099578 -0.089751236 0.062793635 -0.09698366 -0.021161852 -0.30611607 0.043016694 -0.05807295 0.0587341 0.13015424 0.06746036 -0.105206825 0.08189889 -0.09334921 -0.25034493 -0.17453797 -0.2865025 0.1146293 0.06582701 -0.16936395 -0.28138283 0.060577855 -0.14241818 -0.09083274 0.16586836 -0.00031154868 -0.028707214 0.0932782 -0.07144558 0.07534939 0.017554227 0.09268781 0.007905824 0.15002975 -0.08704836 -0.096431844 0.15859644 -0.064201474 0.119100414 0.1261065 -0.14609751 0.055683102 -0.17407045 -0.0065476946 0.01798394 0.038177278 0.08801989 0.009999345 0.27615488 0.17655884 0.025403615 0.11147125 0.044424646 -0.09277795 0.03595459 -0.084810466 0.01852357 0.019379089 -0.15686838 -0.032333497 0.09946205 -0.053968605 0.2626347 0.13411611 0.015351474 0.13312678 0.030647334
0.11075162 -0.05584889 -0.017491506 -0.2672459 0.23111553 -0.022879243 -0.11378169 -0.052493397 0.109292455 -0.17569047 -0.09081236 0.09272691 -0.11034037 0.07614196 -0.030541074 0.07755981 0.1611587 -0.015701441 -0.43186095 0.03744419 -0.09266294 -0.008350116 -0.09230102 0.06607271 0.07994786 0.0018288848 -0.26156202 0.0053845956 -0.120006606 0.08776961 0.04624382 0.07530783 0.266086 -0.09566885 0.056723 0.16058546 -0.12111669 0.088128865 -0.005932557 0.10291324 0.1809613 0.1311486 0.08603023 0.17446326 -0.1256793 -0.14153227 0.20325889 0.030841902 0.11707559 -0.013158063 -0.08900739 0.021579241 -0.06354771 -0.16715272 -0.11547297 0.15877664 -0.0058851787 0.06742484 0.09588356 -0.16480322 0.057204396 -0.15935096 -0.02730131 -0.2047577 0.053622365 0.12175937 -0.038345985 0.084063865 -0.021490658 0.14606842 -0.27037176 0.0738711 0.0950494 -0.07410211 -0.11083874 0.11308731 -0.08219249 -0.021972762 -0.050651744 0.020762792 0.034157664 -0.08130985 -0.15402009 -0.14304692 -0.040472113 0.025682062 0.16736527 -0.07032136 0.048886243 -0.12658162 -0.04981917 -0.031246763 0.013045522 -0.078831345 0.21774428 -0.4341646 -0.036257017 0.08163661 0.042354573 0.018821524 -0.012021013 -0.016788727 -0.07097641 -0.11949898 0.2041923 -0.11457314 0.07039311 -0.010644273 0.08118971 -0.0052674497 -0.06688539 -0.10834913 0.034514785 0.06766471 0.042492777 -0.08066059 -0.14802341 0.020934222 -0.09601607 0.123980366 -0.018045751 0.04813139 0.053075768 0.03463667 0.067589894 0.0223064 0.12393297 -0.029711012
-0.019243127 -0.1406797 -0.03392606 0.0149588715 0.10540382 -0.28694883 0.14969815 -0.5215404 -0.022213813 -0.10567541 -0.07431334 -0.13298282 0.13207285 -0.33212686 -0.017791856 0.053672913 0.0065005007 0.13539484 0.024904415 -0.20849766 -0.07150749 0.18427143 -0.5513536 -0.112629235 -0.20120427 0.124250285 0.5860152 0.033970136 -0.1475034 -0.21869436 -0.15640122 0.054453265 -0.026443351 0.2051485 0.009168147 -0.093187325 0.050418425 -0.055836678 -0.12484747 0.0010593889 0.08724919 0.13057217 0.4070725 -0.16389652 -0.009160831 0.09768398 -0.12759973 0.15964426 0.23314114 0.07705931 0.0012415345 -0.11088552 0.21037821 -0.17661828 -0.07708182 -0.258805 0.07706 0.013204579 -0.2192146 -0.0439702 -0.17482606 0.23659141 0.29383838 0.1994499 0.43051535 0.025520658 -0.17991032 0.33207747 -0.52474654 -0.2279661 -0.14899103 -0.13367644 -0.009181635 0.040370665 -0.003654134 -0.03354625 0.02107198 -0.3293153 -0.01323234 -0.09754547 -0.1575445 -0.069836654 0.1352599 0.0783011 0.15930322 0.04111008 0.14730544 0.17024991 0.093880706 -0.21043727 0.115690805 0.032294367 0.25106844 0.42550114 0.013447994 -0.27000275 -0.061393388 0.1590952 -0.036532134 -0.066960715 0.3247254 -0.023064587 -0.013051291 0.045698736 0.21951392 -0.09552709 0.048120443 0.16989763 -0.04097479 0.43025476 -0.0027401934 0.08091542 0.18943268 0.19234627 -0.062339097 0.032235917 -0.05586799 -0.08848472 0.021674795 -0.00060659775 0.29347375 0.10125233 -0.12274353 0.01051549 0.010961213 0.33069155 -0.1548353 0.13030067
-0.07065325 0.07840479 0.031353075 0.053412754 0.08361728 0.060530305 -0.13760747 -0.17158201 -0.15868329 0.103833884 -0.100285485 -0.11136703 -0.14161047 -0.053441685 0.024757875 -0.039223067 -0.02635014 -0.09311655 0.12416709 -0.13321291 0.04216373 0.043416776 0.07473033 -0.02983812 0.0074635316 -0.006402366 -0.23454773 0.019474303 -0.016847428 -0.095017105 -0.13070245 0.18201217 0.1124418 0.057006747 -0.075881824 -0.1822627 -0.028443828 0.17883584 -0.057551607 -0.15324435 -0.110681884 0.033740357 -0.050035793 -0.12015739 0.04587845 0.017182807 0.043580573 -0.089542635 0.10707368 0.03596312 -0.05672191 0.12126237 0.05061451 -0.23322016 0.10294937 0.0021319878 -0.07780471 0.023305068 -0.05644239 -0.036816504 -0.04261419 -0.048621453 -0.02967367 0.079638526 0.11920425 0.0009869426 -0.013189642 -0.15765691 0.025264867 -0.04347269 -0.02911471 -0.013381831 0.06829847 -0.027414119 0.18127418 0.0037890675 -0.1850268 -0.23024061 -0.06227571 -0.13468696 -0.052001677 0.096250266 -0.026801948 -0.106623605 -0.16603084 0.009022957 0.15453148 0.096622944 -0.05069122 -0.15353437 0.10263783 -0.10230273 0.04828816 -0.14529681 0.11547482 -0.0810446 -0.045010455 0.10333345 0.03382772 0.06162245 -0.10389619 0.0359117 -0.08016377 0.024980474 -0.086077645 -0.16305293 0.17798169 -0.12932809 0.17812538 0.12408685 -0.1573122 -0.07395299 -0.16186365 0.07125583 0.016808694 -0.19175003 -0.019972075 -0.093333 0.11957146 -0.07697434 -0.01837291 0.105913125 -0.04055151 -0.014624173 -0.113163404 -0.11128329 -0.0011625846 -0.0065376842
0.045250382 0.05590586 0.118380226 -0.20488268 -0.17438129 -0.11180151 -0.18942977 0.03573528 0.17185827 -0.08142044 -0.03029186 0.13522118 0.19556798 0.007037357 -0.1377781 0.15779583 -0.013125854 0.15889615 -0.05788641 0.0019275603 -0.08294397 -0.05176922 -0.15517488 0.04266814 0.020704009 0.12553929 0.055293884 0.06397948 -0.19035912 0.03932819 0.12536223 0.13281308 0.09893715 0.1211897 0.070870556 -0.11516074 -0.17362145 0.07388403 0.09778637 0.22150844 -0.06653586 0.013864626 0.016967395 0.15513377 0.07688849 0.041373905 -0.0079568075 0.12558089 0.042439416 0.062161416 0.22949725 0.05799219 0.007506923 -0.1125967 -0.029857185 -0.22400714 -0.07045598 -0.1331666 0.16798572 -0.026599355 0.01017976 0.04343799 -0.11213074 0.06847658 0.1357127 0.1308033 -0.09502549 -0.0323817 0.14879645 0.031465124 -0.2233134 -0.2219251 0.11856595 0.014244149 0.016226616 -0.027972149 -0.09971734 -0.030830385 0.2527631 -0.23701409 -0.014618669 -0.21214928 -0.07102312 -0.36978263 -0.020217555 0.07652468 -0.025185151 0.08597478 0.13183184 0.009678895 0.148699 -0.07791358 -0.09500957 0.1532385 0.14540642 -0.58316195 0.17120971 0.14468494 -0.18220374 0.057266958 0.10697572 0.04203296 0.0010756275 -0.032771196 0.13738298 0.0579934 0.167279 0.14947687 0.06480327 -0.084619604 0.10909999 0.13270843 -0.032218933 -0.036945164 0.004464786 0.10655337 -0.09357515 0.15945695 -0.07668096 0.1046948 -0.055780824 0.1411864 -0.14815268 -0.047565583 -0.11115754 -0.00021256538 0.1356129 -0.07610553
0.05834847 0.05676623 0.17038119 -0.100338206 -0.1660318 0.09536889 0.3604009 -0.0361771 -0.9957885 0.32899156 0.056782946 -0.09587387 0.12621 -0.16070682 0.1451178 0.0058354107 0.069566965 0.012750481 -0.14213173 -0.08018166 0.07456484 0.22160953 -0.017261336 0.05235922 -0.105627365 0.19701691 0.29501265 0.13853082 0.07612912 0.095596015 -0.25049174 0.13711779 -0.0704345 0.37251148 -0.18039033 -0.10906845 0.08232059 -0.031958062 0.12176542 -0.091541454 -0.07861815 0.026399214 0.056218524 0.12064194 -0.2258548 -0.09612511 -0.03012497 -0.16719967 0.1361879 -0.04894209 -0.037244305 0.17254212 0.09008948 -0.10455676 0.09257816 0.22264604 -0.038910124 0.07502109 0.12522237 -0.43426886 0.0032529247 -0.20646529 -0.21722719 0.1738435 0.00018022617 -0.09236236 -0.11419959 -0.15625522 0.07541057 0.0896054 0.13621314 0.0578271 -0.5839986 -0.067474395 0.12718436 0.072810955 0.22879025 0.10227237 -0.05713863 -0.032590978 0.28568992 0.24871133 0.114689134 -0.03260701 -0.29987508 -0.017013283 0.021102795 -0.16976811 -0.013557372 0.10876851 -0.11442195 0.0955238 -0.0074545555 -0.3210641 0.14168295 0.06664641 0.038624816 -0.090526566 -0.027327826 0.2986126 -0.10202503 0.08775877 -0.13603756 0.15808892 0.040193178 0.052395865 -0.21302287 -0.016786238 -0.1210051 -0.5194066 -0.037451256 -0.067815736 -0.13279006 0.1451357 0.1277244 0.09202907 0.20874241 0.022744205 -0.14050375 0.06773848 0.05578987 -0.016703706 0.013295782 -0.2870794 -0.32681516 -0.2016432 -0.06500516 -0.0511903
0.0936319 0.08115897 0.27001488 0.10125346 -0.09831743 0.1805838 -0.5119471 -0.123062365 0.061498784 0.021488884 -0.106891446 -0.050573673 -0.029997487 -0.005590297 0.1762763 -0.27868128 0.3385414 0.00627761 0.06590301 0.030622989 -0.10304932 -0.07277391 0.5152837 0.04995938 0.04098167 0.03987747 0.07780903 -0.15834774 -0.30361128 0.13972656 0.00018518366 -0.17596562 -0.17287965 -0.28531596 -0.05299909 0.08628045 -0.3345949 0.13300268 0.060118694 0.10987297 0.10985868 0.057296086 0.12791178 -0.11664448 -0.07996448 -0.023543721 -0.2827654 0.16055128 -0.10975969 -0.048674535 0.13092643 -0.010238379 -0.21964622 0.2261606 0.31508166 0.19409084 -0.5773925 0.09074155 -0.024157103 0.227188 0.07435633 -0.25863695 -0.063204296 -0.09680769 0.022541683 -0.18657972 0.0658821 -0.30417404 -0.3908518 0.13911329 0.02920471 0.0066943965 0.27938068 0.011685279 -0.25372174 -0.31158024 0.14781466 0.3381553 -0.11212487 0.043721694 -0.27824447 -0.6647785 0.008933916 0.011825028 0.22659129 -0.20168296 0.12333542 -0.17998306 0.106520414 0.0905959 0.1376632 -0.18373749 0.05741767 -0.13197525 0.0065831495 -0.8689425 0.010644071 0.011158909 0.10706704 0.34829593 -0.18842836 0.059206057 -0.13578255 -0.113674775 -0.18124372 0.31000787 0.09699325 -0.19087464 0.053906463 0.0036559545 -0.16648939 0.27828756 0.03331091 0.035481956 0.025963774 -0.048422243 0.0120287845 0.052184626 0.056863792 -0.11104846 -0.019676896 -0.13969614 -0.16621737 0.19815275 0.26752022 -0.061749574 0.094523355 0.04087884
0.0396109 0.028237218 0.13841775 0.1699217 -0.008005158 0.25471717 0.013380179 0.04413087 -0.12842558 0.2609303 0.054976393 0.14255701 0.09122638 0.039192848 0.29031375 -0.0015856093 0.1890521 0.13058025 0.14094925 -0.03459575 -0.20857786 0.048301794 0.17250602 0.014280228 0.023514282 0.10694381 -0.13863169 0.13109498 0.23719415 0.094633274 -0.05282647 -0.12229558 -0.23702045 -0.12806521 0.098893315 0.2466494 -0.039051276 0.23031582 -0.04777765 0.12400696 -0.105713904 -0.07110759 0.047215737 0.05392748 0.14677992 -0.19127822 0.04264917 -0.0037151445 -0.21259315 0.06222907 -0.060945388 -0.0049256333 -0.0371093 -0.027342975 -0.05797146 0.11589799 -0.038877126 0.17324646 0.15407586 -0.005538485 0.016151732 -0.1250492 -0.07118093 -0.15984091 -0.24026558 0.19582856 0.18594673 0.042837366 0.010698664 -0.0785546 -0.49047056 -0.028636532 -0.038854226 -0.046155926 0.11058884 -0.34777576 0.06715903 0.100375265 0.08466527 0.010039521 0.15848108 -0.22521064 0.09887122 -0.08758119 0.031589862 0.0070069977 -0.07522466 0.08271744 0.20756361 0.12654369 -0.0601119 -0.0071000224 -0.11741278 0.24929512 0.26644972 -0.6884046 0.14559947 0.21946032 0.21979162 0.01014967 -0.18468244 0.043121394 0.14025088 -0.025097732 0.22386068 -0.062579736 0.019206932 -0.0433367 -0.19061466 -0.13294178 -0.0014415478 0.07063823 -0.062729895 -0.057196185 -0.10176492 0.07496288 0.12630683 0.08765965 0.14740184 0.19275162 0.13408771 -0.060247067 -0.1009693 -0.17500603 -0.028255671 -0.03034465 0.112280406 0.08139843
0.28816462 -0.65669984 -0.23977795 -0.77693725 0.19985586 -0.16005258 0.13934945 -0.5047837 0.40872246 -0.5678831 -0.10170587 0.21723779 0.1812087 -0.022587007 -0.011190934 0.12901191 -0.37653643 0.21393135 -0.33197957 -0.21253468 -0.108435936 0.22931893 -0.8432 -0.44888973 -0.06051855 0.042390626 0.3401481 -0.18939087 -0.49728134 0.013719993 0.005321355 0.057069656 0.46649483 0.12177976 -0.029540239 0.11854433 0.017186474 0.27510074 -0.021803128 0.23025106 0.27331576 0.15540847 0.34709474 0.25458172 0.13310122 0.1586741 -0.13484387 0.2657497 0.08669348 0.21841598 0.14358057 -0.25480932 0.18146586 -0.32737923 -0.5896897 -0.45243946 0.095332704 -0.12308312 -0.19440271 0.11138298 -0.25587454 0.45378518 0.28802785 0.22698435 0.23137023 0.36660618 -0.16268705 0.26879385 0.4513817 -0.3935951 -0.24356912 -0.23234154 0.15751892 -0.17732848 -0.2810738 0.3807829 -0.21214962 -0.20592847 0.105183154 -0.4002414 -0.0031744123 -1.5584453 0.05704704 -0.43229696 -0.18272966 -0.13166535 0.2343258 -0.2294702 0.21634316 -0.15590146 0.1131312 -0.07701344 0.21595271 0.117596276 0.3095316 -0.55081415 0.10763894 0.022143904 -0.04322537 -0.28381255 0.31101778 -0.10985158 -0.025923017 -0.014227666 -0.02275848 -0.32029364 0.0772605 0.24131247 0.072898164 0.19359082 0.22603059 -0.13102193 -0.20177117 -0.06899749 -0.14281224 0.020315954 -0.5125512 -0.18176122 0.36879882 0.10157895 0.12285842 0.09481556 -0.21125516 -0.73502964 0.121041045 0.26368457 -0.11867415 -0.057037756
0.16026735 0.071989186 0.081019595 0.11411891 -0.09160311 0.12794748 0.1949977 -0.27846366 -0.4054467 0.25871846 -0.030961946 0.08034074 0.15723023 -0.0652668 -0.048961535 -0.12075072 -0.09584811 -0.11996176 0.03735233 0.18864013 -0.14867674 -0.12014282 -1.3209016 0.108062975 0.053381346 0.01243526 0.15532857 0.088247396 0.15891182 0.13564062 -0.055504337 0.02534352 -0.1387919 0.16241169 -0.16312645 -0.23861359 0.023729004 0.009555731 -0.053646877 0.09197117 0.16313106 0.04770665 -0.09945463 -0.14204739 -0.05458984 -0.22229628 0.1104827 -0.18277757 -0.10366047 0.15525731 0.032278612 0.07585448 -0.024052229 0.19540943 0.09263223 -0.083201915 -0.57573634 -0.061713755 0.08403392 -0.5354181 0.1594132 -0.26211303 -0.21798906 0.2829612 -0.14130121 -0.019875433 0.008994803 -0.549736 -0.17295912 -0.20688929 0.0019817448 0.07046747 -0.18799476 0.059032332 0.03692358 0.16498873 0.43505013 0.14577891 0.002275813 -0.18346368 0.22014971 -0.5128712 0.0069583105 -0.43647066 -0.04715137 0.15882006 -0.35729548 0.1426771 -0.22273128 -0.41038603 0.004371011 -0.19259399 0.11466838 -0.47295225 0.28273085 0.14112508 0.06649766 0.021211836 0.052525986 0.57575667 -0.24068667 -0.09560994 -0.011574959 0.18068515 0.019913059 0.09326423 0.14328866 -0.23532438 -0.14486828 -0.07948194 0.016900921 0.12625547 -0.19411615 0.06748304 -0.09129248 -0.012418142 0.045696463 0.10164803 -0.10759098 -0.049870696 0.015722532 0.04761237 0.05079103 0.162785 -0.25558782 0.10191721 -0.029732738 -0.1554245
0.17115374 0.074872114 0.047814216 0.31834498 -0.017349122 0.21097247 -0.09396518 -0.06270486 -0.24415602 0.35374954 0.08340455 0.055383563 -0.07538022 0.008976875 -0.2308634 -0.09229242 -0.15082605 0.02803837 0.025643984 0.1119573 -0.16016771 0.05477912 0.338122 0.207356 0.014733503 -0.09179788 -0.115999885 0.071508534 0.089344785 0.005454937 -0.054461252 0.07766364 -0.12347861 -0.10400023 -0.04067829 0.017236775 0.06377192 -0.050532978 -0.08634614 0.040653173 0.01559631 0.072274774 -0.20450483 -0.13015287 0.07064649 0.06948538 0.07422507 -0.080326684 0.009254009 0.10299107 0.09150809 -0.008821253 -0.07262194 -0.14405249 0.2570297 0.2018766 -0.40665343 -0.01930837 0.075230174 -0.012168449 0.04936727 -0.15287338 -0.06029508 0.14468355 -0.051553223 -0.18417828 0.066416085 -0.15553066 -0.10865437 -0.04107497 -0.17658561 -0.0034742604 -0.019759364 -0.06990362 0.2354506 -0.09721031 0.23007353 0.22330317 -0.058245003 -0.046642173 0.106272474 -0.4318107 0.1056738 -0.015164229 0.012705348 -0.029273896 0.0270844 0.12818594 -0.0009002783 0.17063183 0.027216638 0.06366593 0.0016474214 -0.061458293 0.12248264 -0.018924927 0.032986034 0.15628475 -0.120474756 0.3428989 -0.11828915 -0.005550279 -0.15834072 0.10464799 0.07187056 -0.05187048 0.03942066 -0.13719936 -0.21267483 -0.36620948 -0.20986015 0.15211554 0.09970216 -0.058497936 -0.031208841 -0.082524754 0.24017042 0.31614032 -0.08461736 0.20757717 -0.053061597 0.16638185 -0.031833816 -0.10350258 -0.18380162 -0.14899537 -0.037738327 0.00662991
0.081843615 0.11314867 -0.13383587 -0.074948795 0.11444262 -0.16582555 0.024450725 -0.06802342 0.09265791 -0.13589373 -0.1663562 -0.10368289 0.031973008 -0.009497026 -0.09982721 -0.005948204 -0.11280453 -0.09266749 -0.04243721 -0.027115671 -0.06918819 -0.18171594 0.009125934 0.011476435 0.016287655 -0.072507724 -0.12174471 -0.203724 -0.21968779 -0.0031743492 -0.045902047 -0.06925211 -0.041957602 -0.017118469 -0.07526043 -0.11884939 -0.20429847 -0.2197146 0.056670018 -0.021483334 0.016053984 -0.09039257 -0.018660724 -0.13660005 -0.038255513 -0.107231684 -0.0674155 -0.103441805 -0.032784924 -0.03886662 -0.024749683 0.03225964 -0.05911767 -0.040689733 0.06710287 0.010208118 -0.056067847 -0.18457176 0.11750419 -0.24788977 0.10356968 -0.019712549 0.15555945 -0.065371685 0.05211612 0.011638347 -0.08966776 -0.13700527 0.11990871 0.025703277 -0.18248998 0.043243885 -0.06689976 -0.030849196 -0.14885527 -0.18791366 0.024005478 0.24586575 -0.0018416092 -0.023478214 -0.044763826 -0.18277693 -0.16194873 -0.013416704 -0.107728474 0.044926073 -0.10223157 0.28705916 0.010399958 0.11215981 -0.04619335 -0.04106159 -0.10916886 -0.025917046 -0.16395023 -0.18083782 0.11459805 0.028209424 0.010672403 -0.14103258 -0.18670502 -0.08011869 -0.030465432 -0.020940704 -0.01872718 0.10020861 -0.09279549 -0.1508498 -0.024537897 0.082458474 -0.05307999 0.032277744 -0.045944232 0.19022585 -0.04408703 -0.12788703 0.10055211 -0.01925834 0.018980453 -0.031669345 -0.08009807 -0.055797875 -0.099943735 -0.19867958 0.11203921 0.07088307 0.18580107 -0.12003009
0.057912696 0.0036117185 -0.2576137 -0.02469899 -0.18888049 -0.13533805 -0.13203141 0.2803697 0.23009548 0.21546765 -0.08938068 -0.18437412 0.16249284 -0.1487729 -0.06561841 -0.16106449 -0.09501709 -0.12570576 0.02428348 -0.081521735 0.047120992 -0.31349114 0.3800426 0.1593433 0.11678117 -0.10030908 -0.109823234 0.0731932 0.025374882 -0.06744992 -0.334606 -0.038236275 -0.15433604 0.10498265 0.18891518 0.12576064 0.12245326 -0.20868713 -0.22804143 -0.078328125 0.18195242 0.068395205 0.19874924 -0.0144579355 0.14156897 -0.11362382 0.05439046 0.06431937 -0.15803958 0.021062784 -0.037948485 0.037415847 0.078736104 -0.044297602 0.027453741 -0.17126626 -0.11703651 0.05676759 -0.01367509 -0.05535122 0.10405294 -0.026517626 0.0714773 0.35913157 0.024487067 -0.12505989 -0.037165783 0.10813713 0.32222468 0.0822393 -0.15914649 0.0042337608 0.061900463 0.06920672 0.0021257494 -0.082793504 -0.0016091858 0.3719163 -0.14711906 -0.34497073 0.020469273 -0.12460149 -0.1674244 -0.2820729 -0.018654961 0.1186233 -0.010549128 0.210042 -0.17268212 -0.081678905 -0.073179275 0.13203093 -0.22595781 0.05013064 0.03808047 -0.029304858 -0.011180798 -0.1314405 0.27611747 -0.028325632 0.18458489 0.097651385 -0.00060102274 -0.113103025 -0.1055331 -0.25178725 -0.048281204 -0.03827994 0.10512813 -0.05310713 -0.11782015 -0.26083276 0.10503112 -0.31567034 -0.08334287 0.022037372 0.12156177 -0.08698596 0.1119485 0.085626304 -0.009670132 0.15467027 -0.11244058 -0.14004005 0.32450822 -0.09263274 -0.050895255 -0.119074345
0.19805644 -2.909449e-05 0.18075055 -0.058727246 0.0843501 0.25336 -0.29260945 -0.09049702 0.016956545 0.12616263 0.16588052 -0.008567931 -0.048837863 0.025034444 0.20364714 0.1339166 0.11444856 0.06989148 -0.15196659 0.0833613 -0.07023387 0.14894816 0.105111256 0.028692385 0.15735805 0.057554703 0.16513799 0.06340706 0.16666692 0.050237674 0.1043113 0.17029676 0.047047313 -0.043065663 0.106879465 -0.027613766 0.15241286 0.20324107 0.26325822 0.02584336 -0.011737029 0.04101906 0.11764358 -0.054694716 0.2247741 -0.0034324236 0.119248845 0.10508502 -0.05459326 0.04248743 0.015558261 0.1637601 -0.22627859 -0.07310798 -0.063424096 0.08257285 0.09574299 0.103162386 0.13601439 0.037577003 -0.0060157115 0.041621022 -0.2366427 -0.07507576 0.013124484 -0.023073083 -0.054522105 0.25396574 0.104776695 0.2240151 -0.35798168 0.18563902 0.088484354 0.044975877 0.041837152 -0.25242114 0.06830993 -0.062014677 0.09106121 -0.043489177 0.01960854 -0.2128077 0.073201396 -0.24570867 0.05658937 -0.1300322 -0.040373575 -0.117999956 -0.040201176 0.037584137 0.16635746 0.06395005 0.11970308 0.15106997 0.25816765 -0.6452578 -0.092237055 0.22534806 -0.1888329 0.002712161 -0.07594974 0.15054506 0.01782339 0.15386367 0.062531516 -0.076640755 -0.030121379 -0.064741254 0.045365296 -0.053804554 0.09978119 0.06415555 -0.013730665 0.21171437 0.029769516 0.09516129 0.23868388 0.015091116 0.08968838 0.04622704 0.058867246 0.05173047 0.031346485 0.09720825 0.013895417 0.19545272 -0.12692575 0.13797149
-0.14924733 0.35234484 0.16358934 -0.48148122 -0.15626845 0.050172657 -0.105163634 0.09658974 -0.20840509 -0.35609674 0.070413016 -0.041617315 0.055571742 0.2285884 -0.120020926 0.026543444 0.06302026 0.002203363 -0.23648828 -0.021370318 -0.14377591 -0.13200903 -0.007620603 0.015796553 0.07400535 0.0042522103 -0.19754905 -0.13639346 -0.07773142 -0.099921666 0.106540486 0.103101 0.096231334 -0.2446568 0.061917186 -0.09792189 0.09382357 0.029544488 0.13986805 0.0046948693 -0.012824929 -0.0249834 0.04008762 0.13534747 -0.13211375 -0.018395882 -0.08218331 0.15201741 0.07077175 -0.015620564 0.15486501 0.23313479 -0.08037762 0.09064967 0.02554946 -0.01659824 -0.15988673 0.102324516 0.013109077 -0.2942453 0.05122305 0.16791844 -0.15596844 -0.117237285 0.100139216 -0.28406572 0.21600051 0.17550635 -0.056198254 0.28959617 -0.15727487 0.0010334625 -0.10549149 0.015476613 -0.11740604 0.07603194 0.0013374256 -0.0075074136 0.086651236 0.036657076 -0.11329132 0.036735043 -0.005911725 0.049758665 0.06512349 0.012872089 -0.23884952 -0.036990646 0.07905687 -0.26294804 0.09614787 -0.02736987 -0.10751761 -0.19318952 0.31633833 0.019829731 -0.11123761 -0.17196812 -0.29498872 0.19795905 0.03509575 -0.12374229 -0.081559315 -0.10822028 0.089780115 0.31888115 0.029206766 0.028173918 0.24058768 -0.33697873 -0.118569665 -0.096095264 -0.07163026 -0.022626547 -0.02835626 -0.05928619 0.019232154 0.041917734 -0.083138086 -0.15765056 -0.10313611 -0.092261806 0.01764253 -0.042440105 0.04135087 -0.024372175 -0.007423488 0.037246928
-0.2870007 -0.06564205 -0.10425043 -0.03172306 0.010243734 0.07208072 0.160278 -0.017766258 -0.39726016 0.10602669 -0.18213618 -0.09195655 -0.092034094 -0.11210255 -0.124399 -0.18038836 0.20504111 -0.0054555633 0.114948235 0.10926719 0.1052257 0.0657516 0.13182324 0.015859013 0.17607781 0.28958812 0.14662306 0.10005703 0.2440676 -0.19321264 0.20643853 0.06633476 -0.018483039 0.16377245 0.05057549 0.07498183 0.07614193 -0.10513206 0.026963115 -0.06642576 0.16989884 0.14604665 0.0056434292 0.07333782 -0.051875744 -0.11633701 0.061666254 -0.23349383 -0.076688565 -0.12904546 -0.13608286 0.028043231 -0.19648117 0.013539771 0.21246257 0.0854273 -0.1582249 -0.030999064 -0.07893206 -0.08745274 0.14623429 -0.047504928 -0.20081683 -0.35414833 -0.036397647 -0.036698192 0.083688006 -0.07496183 0.061182782 -0.17415744 0.22064921 0.15947503 0.019530596 0.04506012 0.03166356 0.150958 0.24713452 -0.018433414 0.1026476 -0.0372891 0.1431708 -0.021722563 -0.037267447 0.06540784 -0.068443276 -0.231093 -0.30162233 -0.10772525 -0.11096604 0.16904488 0.012556676 0.11588816 0.034547623 -0.11394919 -0.05323479 0.18924513 -0.05613441 -0.02172878 -0.046317007 -0.3835339 -0.103070416 -0.10835959 0.010150046 0.21074595 0.025195777 0.0048773736 -0.053585596 -0.080875196 -0.09454608 -0.09735577 -0.07266789 -0.007973642 -0.09736108 0.0090332255 0.078505404 0.04374417 0.26665857 0.14492306 -0.08748757 0.012558478 0.0780837 -0.15160133 0.08728019 -0.15812704 -0.1679153 -0.12486083 -0.0935521 -0.038277857
0.061907437 0.03187318 -0.19138889 -0.1777448 0.2073334 0.059655704 -0.15416759 -0.073583506 0.14303432 -0.07783304 0.0023071042 0.06616667 0.11194707 0.010619731 -0.09940934 -0.16693544 -0.099723056 0.26234967 -0.059319645 -0.07222931 -0.076509 -0.08601637 0.22556648 0.18928757 0.07515291 -0.041636087 -0.19393523 0.05382755 0.16025046 0.21276033 0.100542344 0.077680685 0.091709584 0.10705626 0.007103457 -0.04144576 0.17137626 0.05455335 0.17248693 0.2418964 -0.05509995 -0.13734406 0.20082702 0.07657354 0.10228506 -0.09319061 0.0014805591 0.16448838 0.018171445 0.053839263 0.101969235 0.1153758 -0.05856856 -0.12465441 0.08277331 -0.083655305 0.16220856 -0.0023473084 -0.042520247 -0.04194793 -0.15341862 -0.018889358 -0.13636428 0.018455226 0.16786951 -0.07121757 -0.0642197 0.069585465 0.2983837 -0.12487663 -0.22775692 0.042467628 0.123960055 0.15174504 -0.02408959 -0.15154934 -0.15881848 -0.082953095 0.06526945 -0.1477229 -0.02757383 -0.08192791 0.05194751 -0.07546607 0.2835882 0.19994459 -0.12316095 -0.121743925 0.035160657 -0.026597198 -0.009768417 -0.023497276 0.005472878 0.20876408 0.034133393 -0.44115618 0.04530726 0.16469166 -0.09412487 0.18044856 -0.051579893 0.11446938 0.05751212 -0.07839995 0.12836908 -0.103649765 0.07870393 -0.05412331 0.20177291 -0.072072536 0.058176443 -0.17811659 0.00505565 0.024298301 0.104955174 0.12621899 -0.06799334 -0.0014308953 0.13757336 -0.028983869 0.045608196 -0.0026067528 0.17380299 0.056275524 -0.09289772 0.0035522871 -0.093896866 -0.07170692
0.07313239 0.10977481 -0.093491346 -0.15436897 0.12236506 -0.028881611 0.03934385 0.09609172 0.50844574 -0.24711569 0.26168114 0.07193919 0.012125034 -0.09232612 -0.11856227 0.09373922 -0.074241295 -0.1461629 -0.15933862 0.15651806 0.17485301 0.063999936 -1.2752573 0.036183923 -0.043700844 -0.103711866 0.012764113 0.075961135 -0.16575189 -0.0742255 -0.14400585 0.1420213 0.13464971 0.11604933 -0.022716254 -0.11298746 0.027393457 0.0051935986 -0.06908534 0.17484072 0.19391812 -0.043805208 -0.029043036 0.20915468 -0.03254123 0.029074559 -0.06428109 0.08729261 0.2224662 0.12677054 0.15651515 0.123927064 0.11724318 -0.068089396 0.15893517 -0.05141834 0.28391355 -0.048963197 -0.04766643 0.26549387 -0.12099533 -0.0021718321 0.28670624 0.13058108 0.26945367 0.2333889 -0.15635002 0.28364083 -0.0013587659 -0.0038057251 0.44569027 0.038704786 0.03049345 -0.004194106 -0.28748837 0.18816078 -0.2566299 -0.2746621 0.024724644 0.057102665 -0.0037724837 0.5132454 0.0073852018 0.25919554 -0.08180261 0.051398292 0.23444772 -0.22633398 0.2078139 -0.11320539 0.21915744 -0.025535487 -0.15961926 0.40032676 -0.25708967 0.35785663 -0.0964546 -0.17414829 0.1386645 -0.49786457 0.36251894 0.031973902 0.40006435 -0.1102789 -0.12363721 -0.17877634 0.044950288 0.63363576 0.4133421 0.081636965 0.06425524 0.040291965 0.19152844 0.007076691 -0.33486918 0.27468967 -0.039840687 -0.08266997 0.13187984 0.04397635 0.00082272355 0.020261625 -0.07747939 0.41727397 0.29117844 0.31844 0.0041346713 -0.041323576
-0.021279251 -0.12497149 0.06052805 0.013002347 0.066636525 0.05867821 -0.2240306 -0.13884902 0.1176443 -0.26366588 0.17193875 -0.09083118 -0.14156827 -0.093805246 -0.28156567 -0.020160004 -0.29380575 0.20595522 -0.34770024 0.0053716255 0.088549934 0.09741553 0.4467617 -0.26438037 0.03274288 0.08493034 -0.1334886 -0.24606112 -0.21585478 -0.18127038 0.17755136 0.18450953 0.500515 -0.22406872 0.018185982 -0.06965768 0.06963447 0.016386 0.08599506 -0.17201005 -0.11948911 -0.012034235 -0.076512076 0.38740113 -0.14237186 0.08000697 -0.12905674 0.12517828 -0.1599094 0.15589483 -0.088583 0.39834607 -0.025741542 0.121446125 0.15780248 0.10355908 -0.21020383 0.15040064 -0.058399152 0.23652077 0.2135836 0.15052405 0.06968433 -0.25192648 0.08487673 0.29397812 -0.056727078 0.11562959 -0.6786342 -0.10933701 0.06092015 -0.08730619 0.20560148 0.0052040643 -0.20047222 -0.01942522 0.025763378 -0.32065833 3.6305486e-05 0.38203883 -0.3031807 -0.29083067 0.09205776 0.09570868 0.15258446 -0.25855622 -0.23411962 -0.056632128 0.048107736 0.10424993 -0.0031178887 0.23324318 -0.08663546 -0.12303877 0.031825993 0.2191495 0.006494736 -0.15374617 0.028799897 -0.62549525 -0.25131127 0.059983872 -0.08420329 0.07473884 -0.024966128 0.21084918 0.20041339 0.030962974 0.49315032 -0.31258997 -0.11832842 -0.28335527 -0.14278506 0.03717274 -0.08689517 -0.22186318 -0.037089493 -0.0023553548 0.11146908 0.10935096 0.105441175 -0.020055892 0.08391972 -0.104896724 0.28394073 0.20395735 -0.0552132 -0.07853152
-0.11074793 -0.21735698 0.025149938 -0.51727104 -0.08618864 0.08261522 -0.21688618 -0.037498303 -0.18719202 0.18404417 -0.016725827 -0.034123704 -0.065124564 -0.4097407 -0.059699338 0.012089842 0.18187475 0.36890998 -0.09629668 -0.011097326 -0.0567784 -0.14307418 -0.32640663 -0.03330353 -0.06534801 -0.0931847 -0.23233874 -0.11731563 0.046952825 -0.15904334 0.05503615 -0.00578385 0.2977893 -0.14821658 0.05274194 0.14459436 0.15460373 0.118285395 0.11269902 -0.036185864 0.1651269 0.16914131 -0.063794896 -0.1438853 -0.048470907 -0.04027582 0.07618859 0.0076577156 0.05631936 -0.11242708 0.033967983 -0.015611337 0.15054224 0.22035682 -0.051193338 0.27343765 0.13709368 0.06167661 -0.13279837 -0.031200504 -0.14607307 0.050521757 -0.19073902 -0.005302758 -0.23345469 0.14096026 0.14144544 0.02842694 -0.13788365 0.055177666 -0.026085613 -0.17988233 -0.016163122 0.037037868 -0.28985196 0.27134678 0.010690008 0.055261165 -0.0064226333 -0.18589659 -0.11362257 0.22317593 -0.042009547 0.32003433 0.049984816 -0.019535165 0.08964717 0.036942266 0.0806211 -0.10926639 0.046093963 -0.060596194 -0.029594572 -0.005444621 -0.13022253 -0.0741481 -0.035908893 0.10977409 -0.043797385 -0.1384946 0.12676856 -0.06838126 -0.14481992 0.09672176 0.013166049 -0.3024153 0.051804513 -0.020420963 0.050727647 -0.05373914 0.11977524 -0.24342568 -0.05830019 -0.018240621 -0.07453744 -0.02930139 0.12741528 0.040057097 0.031364787 -0.013225835 -0.120499454 -0.08294357 0.024279578 -0.5957019 -0.20057091 0.18047948 -0.06022535 0.18679354
-0.0563319 -0.63686424 0.14556493 -0.20460346 0.26960763 0.13854606 0.2962452 0.20743735 0.016164493 0.008832077 0.24061629 -0.07649283 -0.32419243 0.14709064 0.1237391 -0.5092267 0.030472303 0.22167683 -0.31240445 -0.20093787 0.25781995 -0.036832396 -0.3854058 -0.018728202 -0.06881544 0.01061022 -0.06991692 -0.15743352 -0.04525425 0.06572717 -0.14672296 -0.14881688 0.16502696 0.3409229 -0.07593397 -0.12599052 0.19134282 -0.08373098 -0.013488538 -0.0036256204 -0.13273914 0.13583659 -0.066070795 0.17915702 -0.022588698 -0.30501682 -0.48635215 -0.05243859 0.30005813 0.045756903 0.030255083 0.14487195 -0.08206654 0.1937867 -0.23694077 -0.052374497 0.22658394 -0.31480074 0.1919796 0.22654416 -0.12007638 -0.31732714 -0.0751322 -0.22751707 0.22998399 -0.09449961 -0.04870283 -0.28545415 0.20527881 0.14046226 0.3946929 0.34200895 0.026001872 -0.07987258 0.14914745 -0.061424788 0.16584148 0.06103927 -0.23544799 0.027763173 0.12215929 0.4066173 0.21405797 0.37563118 0.1434619 -0.054369994 0.020808578 0.021029182 0.030107256 0.35387272 -0.08134212 -0.27947277 0.0810092 -0.044849075 0.053277973 0.83211976 0.09344789 -0.16603343 0.06355176 -0.4147594 0.068730354 0.034666706 0.225909 -0.05375796 0.11491792 0.261388 -0.20028351 0.28918204 0.123507746 -0.12687817 0.09454082 0.08870044 -0.05163214 -0.10589408 0.04342062 0.09634493 -0.41685474 -0.026719669 -0.14699224 0.06549056 0.12139798 -0.03907388 -0.09372085 -0.004332864 -0.009552147 -0.22706705 -0.06947463 -0.20796654
-0.010714485 0.08038817 0.05436547 -0.34703112 0.104219384 -0.015670588 -0.14828877 -0.05428728 0.16509202 -0.09630963 0.2584383 0.06931105 -0.028172964 0.067292325 -0.16150005 0.002354063 -0.026206657 -0.0120605845 -0.23133683 0.081606224 0.09975146 -0.09457885 -0.16658899 0.08852349 0.037970345 0.08525564 -0.038414136 0.06977606 -0.036071736 -0.09106945 0.034880128 0.032058362 0.13134779 -0.1273719 0.031218244 -0.089456946 0.0063194376 -0.04374506 0.023261817 0.07229793 0.13847198 0.005648732 0.051255852 0.013002998 0.06786999 -0.015521811 0.004124258 0.38090563 0.02869289 0.037568953 0.12326562 0.0803666 0.11918782 -0.1068992 -0.040433425 -0.028678818 0.23714362 -0.03309158 0.21148252 -0.05644066 -0.045259383 0.0015087804 0.10736339 -0.19649175 0.162398 0.18492444 0.060785763 0.0376544 -0.10150327 0.059412546 0.035356566 0.079940125 0.122731455 0.1075335 -0.2440981 0.31811544 -0.044052586 -0.07286677 0.09538185 0.11379242 0.031147474 0.17783663 0.10608298 0.056412455 0.0749601 -0.002774069 0.1294639 0.024285754 0.14234494 -0.11274413 -0.22490521 -0.023928285 0.15768686 0.15845363 -0.018430209 -0.271328 0.04730217 -0.015165289 -0.109252766 -0.15898143 0.130142 0.07412499 0.03824681 0.0851525 0.058156207 0.03948032 -0.17271324 -0.03275339 0.24585192 0.13562928 0.10124141 -0.037832312 -0.23356812 -0.008582601 -0.06573642 0.19262742 0.056597836 -0.06072422 -0.09951295 0.022744257 -0.07822127 0.06307866 -0.16048975 -0.0962782 -0.025773147 -0.011857711 -0.0025606959 0.24271172
-0.016228743 0.047199372 0.10534251 0.2627012 -0.16682285 0.0043809037 -0.16998017 -0.019974513 0.017176142 0.024684105 0.028994799 -0.2312017 -0.24696599 0.0012007693 0.11249391 0.08512835 0.057047106 0.091962986 0.017963301 -0.06559735 -0.102636 0.025465818 0.40808478 -0.017132351 0.03404775 0.09840241 -0.10635768 0.006886508 0.16659991 -0.08762794 -0.010885819 -0.016718093 -0.091502085 -0.13810207 0.08420849 0.08792933 -0.15080671 0.2013295 0.13211133 0.07718833 0.12621307 0.10225157 -0.10919869 -0.08595665 0.084674574 -0.2018419 0.019591624 -0.1042949 -0.06507715 0.031098219 0.10372403 -0.06873464 -0.17723551 0.1990999 0.010186001 0.0520118 -0.12008348 0.06598489 0.008676162 -0.060570464 0.21427973 -0.1285823 -0.14618613 -0.056323685 -0.18948866 -0.16766109 0.04350629 -0.1783827 0.08845152 -0.044373218 -0.14689158 0.22192737 -0.09265478 -0.12563293 0.11677496 -0.18248446 0.34178638 0.04276124 0.02520488 -0.25366727 0.0012113684 -0.3780477 -0.014822741 -0.115985826 0.077018104 -0.07125129 -0.20573317 -0.09587387 -0.21959276 0.01344616 0.27098468 -0.010002404 0.1777367 -0.340551 0.24108472 -0.07862066 -0.017379917 0.14139162 -0.030170152 0.28768265 -0.14028202 -0.07191443 -0.043179154 0.041996006 -0.060751863 -0.09847019 -0.028545838 -0.17131327 -0.0023298531 -0.20457193 -0.0674889 0.08263105 -0.12011315 -0.03521429 0.029681668 0.034641303 0.083975084 0.1627838 -0.15737358 -0.2119326 -0.065649875 0.072330765 0.045524083 0.120101385 -0.14344876 -0.14562389 0.13210665 -0.06756328
0.059925612 0.06788225 0.051176284 -0.041741733 0.012003082 -0.21366863 0.15901844 -0.13052389 -0.020965252 -0.044817273 -0.081143774 -0.13473976 -0.1597333 -0.012736712 0.040688314 -0.0096591255 -0.14996512 -0.16208053 -0.03915311 0.03408736 -0.061362825 -0.1272345 0.005811748 0.112969734 -0.26867267 -0.2022003 -0.0746193 0.03737108 -0.120724075 -0.07134939 0.18985279 0.039929286 -0.2405291 -0.030838223 -0.13872078 0.1310922 -0.18435779 -0.086136885 0.09147804 -0.0013917873 0.062144656 -0.027358131 -0.2371366 -0.0016155641 0.1699499 -0.011344208 0.045309477 -0.11330698 -0.017350638 -0.04588416 -0.11390157 -0.02709072 0.012349153 -0.079000086 0.03371372 -0.010027442 0.037610628 -0.045345865 -0.095201015 0.068860434 0.11721027 0.02755943 -0.056836654 0.03963761 -0.14525099 -0.08724939 0.051321387 -0.0062153977 -0.0139234625 0.05452549 0.09438508 0.066194706 0.10558193 0.0022331073 -0.020419387 -0.013766039 0.013133743 -0.05581684 -0.02742493 0.029108135 -0.08227106 -0.12408747 -0.017979544 -0.056270126 -0.042033613 0.0042009694 -0.12690622 -0.0612171 0.21896796 0.021812333 -0.060157362 -0.07016885 -0.1250635 0.07445167 -0.062118992 0.04542008 0.05037108 0.100310884 -0.108673885 -0.028468201 0.020427637 0.016408473 0.012297266 -0.01740586 -0.11691523 -0.008718306 0.09489679 0.105488636 0.11615544 0.059452914 -0.113799736 -0.053877067 -0.016473958 -0.12322512 -0.023234574 -0.15251572 0.06172102 -0.074038275 0.028754767 0.07554815 -0.16298465 -0.011433056 0.11016727 -0.06192475 -0.03668935 -0.1760627 0.00920831 0.138041
-0.21249649 0.076852895 0.033433385 -0.40710112 0.2024783 -0.6022019 0.35006765 -0.030737856 0.06200001 -0.20493904 -0.13519277 0.3717262 -0.262415 0.030799225 -0.040123783 0.12274497 0.07384427 -0.062702164 0.38692948 0.008010766 0.64708143 -0.07001506 -0.98096794 -0.10663548 0.1539577 0.18473792 0.100725666 0.16459954 -0.3079681 0.05413653 -0.5577978 -0.22791226 0.049675073 -0.119611844 0.07399901 -0.05951839 0.9549315 -0.11887436 -0.21965489 0.05832913 0.2640094 0.26017925 0.13161092 0.13212538 0.030848583 0.079250894 0.17442355 0.34735498 0.3886587 0.3726804 -0.21622919 0.20668824 -0.030508395 0.060920253 -0.5071782 -0.054143727 0.10275956 -0.25566065 -0.30718538 -0.12552027 -0.26026887 -0.17007269 -0.14700031 0.40187442 -0.2409874 0.39478803 -0.521297 0.21822318 -0.23017128 -0.1676319 0.9898979 -0.24366069 0.13918948 -0.16016085 -0.37730536 0.11934553 -0.33010995 -0.1342306 -0.03779148 0.25808293 0.028362514 0.2550937 0.1619358 0.28101 0.0599607 -0.39631814 -0.020320684 0.32670367 -0.0013310856 -0.14324878 -0.15066323 -0.1528158 -0.22685476 -0.69052386 -0.105532974 0.8666926 -0.008047955 -0.29918143 -0.08853555 -0.3577614 0.010186711 0.14008898 0.6424625 0.009845042 0.02236993 -0.20573784 -0.10065891 -0.043569177 0.103916734 -0.1930685 0.09696204 -0.29600918 0.2002933 0.109087296 -0.08369784 0.27875668 -0.33119532 -0.35248962 0.32294157 -0.042378485 0.10895752 0.017181797 -0.03209703 0.095747784 -0.04036988 0.54545224 -0.08243092 -0.3713204
0.054635547 -0.02141586 -0.061020117 -0.22211966 0.085205995 -0.0047856355 0.13919297 0.23853318 0.14621034 -0.1757653 -0.009856814 -0.13812892 0.046858177 -0.009627875 -0.09380465 0.047117673 -0.21542993 0.020224623 0.07519723 -0.30708647 -0.033450846 0.28329808 -0.43967634 0.20367154 -0.005424566 0.022711962 0.089460246 -0.10032953 -0.15746404 0.04313834 0.15982883 0.03813522 -0.021678295 0.15168375 -0.011943935 -0.12375088 -0.0018016585 -0.044645905 -0.1401563 -0.11883594 0.03410129 -0.2353856 0.0528063 0.10432459 -0.10603382 0.056168403 -0.09455833 0.094591826 -0.004220568 -0.018106401 0.022096919 -0.09123234 -0.110682786 -0.13301118 -0.22409557 0.013925811 0.05117015 0.20175518 -0.024972327 -0.20839195 -0.10914691 0.21534485 -0.00056341087 -0.19829482 0.026416471 0.106647156 -0.16482797 0.103648804 0.1308011 -0.07711893 0.02113937 0.15576638 0.010550037 -0.059781794 -0.060861245 0.11498263 -0.3338473 -0.010532944 -0.026573451 0.21739575 0.019510176 -0.020645706 -0.10270339 -0.03994714 -0.1043442 -0.16814035 -0.09629701 0.07518396 -0.038518947 -0.235134 0.031041097 0.06288475 0.1384706 0.1951817 0.07064741 0.16451764 0.0050033303 0.11623333 -0.17006886 -0.27694824 -0.08584481 -0.048203304 0.037046947 0.11943925 0.08907738 -0.13899654 0.10585184 0.050127625 0.23103385 -0.104815125 -0.11834493 0.03669329 0.1364033 0.25779238 0.121072434 0.2590326 0.027661003 0.15252514 0.06470522 -0.021575335 -0.26261407 0.318485 -0.21886185 -0.09169819 0.13761707 0.14400662 -0.012270499 0.17578077
-0.09137302 0.04340384 -0.18925563 -0.027473802 0.10246476 -0.006594684 0.36799097 -0.35530892 0.449746 -0.4971877 -0.053553235 0.12359976 0.09209849 0.11264685 0.23618416 -0.020449156 -0.22567183 0.08668631 -0.4816644 -0.1174109 0.007169349 0.059794255 -0.96650386 0.110532835 0.063947394 0.04161685 0.08965891 -0.19945636 0.064699806 -0.068944655 -0.25822636 0.115908034 0.18822034 -0.060190894 -0.057603553 -0.14521985 -0.039157547 -0.052424148 -0.062486615 0.01551184 0.16965571 0.092500106 0.07881713 0.2758022 0.08709645 -0.008284537 -0.25256604 0.17527285 -0.07014093 0.08824812 -0.19297469 -0.2129604 -0.0015090257 -0.038858593 -0.32270217 -0.21243252 0.30288222 -0.42574227 -0.05170402 -0.19527692 -0.29424542 0.1480868 0.08469843 0.044210713 0.36062512 0.28082243 0.0191478 0.6115434 -0.29452845 -0.32016617 0.7962329 -0.17470182 0.09910623 0.061549462 -0.18012732 0.077149004 -0.190857 -0.12574366 -0.0030745368 -0.22004782 -0.035730734 0.6108834 -0.00459987 -0.455464 0.10585198 0.12775461 0.2528054 0.09148217 0.25913975 -0.11248707 -0.07128505 -0.029111948 0.015872616 0.08984368 -0.030075183 0.559781 0.13603489 -0.041549817 0.081522964 0.4701594 0.17454723 0.14202973 0.12855183 -0.039613236 0.102471195 -0.08971047 -0.10505136 0.20039342 0.03648819 0.36238047 0.108888164 0.0019505355 0.19720884 -0.0056077666 -0.19854501 0.46238977 -0.03263391 -0.073033795 0.20596886 0.18210049 0.27774724 0.04794647 -0.13828541 0.053723935 0.2102122 0.2906113 -0.052755848 0.15941842
-0.12261713 -0.23441781 -0.061913878 -0.29699892 0.13813363 -0.30533612 0.050031394 -0.1343414 0.20849982 -0.058009814 0.016669681 0.010677875 0.0044899303 -0.076322034 -0.06290695 -0.011474615 -0.08789301 -0.13495848 0.3511362 -0.14590305 -0.02685058 0.20093074 0.114958696 -0.18935682 0.05725579 0.09058203 0.31124154 -0.038286082 -0.15421282 -0.09886725 -0.1721457 -0.072891854 -0.28661183 0.25443926 0.12525864 -0.013806842 0.07612951 -0.020499181 -0.16232657 0.29137847 0.16611864 0.08867065 0.24879609 0.1844211 0.014517388 0.33355993 0.11216149 0.045587778 0.21921366 0.1614156 -0.19500268 -0.09881615 0.2945929 -0.18459491 -0.41285557 -0.110844836 -0.1513703 -0.14612305 0.020942826 0.022904953 -0.21299925 -0.090219155 0.31670833 0.020423004 0.3011747 -0.051684253 -0.21732813 0.055895355 -0.17343417 -0.10576164 -0.03549457 -0.10435047 0.028650956 0.017854504 0.21187504 0.052546166 0.1153233 -0.24207804 -0.062333256 0.18969193 0.0736912 0.21603505 0.10762317 -0.122016795 0.10870948 0.2582027 0.29271236 0.20343912 0.058273394 0.071632475 0.09560972 0.048066095 0.06234104 0.23063765 0.011630798 -0.35340956 -0.104642145 -0.04354464 0.08354095 0.09790407 0.04682511 0.058047306 -0.068961136 0.054466087 0.19565423 -0.02934941 0.122737095 0.3702813 0.020311447 0.231605 0.12557313 -0.0082910005 -0.13407595 0.032311708 0.028453762 -0.0061169346 0.14505324 -0.20282587 -0.06645903 0.07590387 -0.110806376 -0.025551528 -0.038203478 0.21120994 0.044746574 -0.02034073 -0.33782542 -0.035036877
0.1681276 0.036726627 0.17521524 0.07412014 0.13844576 -0.20958999 0.02959869 -0.1486056 0.16238995 0.1168231 0.103286855 0.07589421 0.1653129 -0.029939752 -0.059034742 0.1449923 0.027036978 -0.044737514 -0.17113227 -0.03313191 -0.22485924 0.072873496 -0.53881127 -0.051909562 -0.05223029 -0.22464508 -0.011124565 0.083764225 -0.13652802 -0.026854869 -0.115530714 -0.005790752 0.0066217314 -0.010299442 -0.05999022 -0.18069515 0.17671844 0.038936146 0.0126902135 0.03870009 -0.19867864 0.227525 -0.064249866 0.20212168 -0.040427636 -0.19475248 -0.13263884 0.06079253 0.5337071 0.06959733 -0.0037899518 -0.14433792 0.25338826 0.013920225 0.07180219 -0.07249981 -0.14046304 0.13395806 0.10381286 0.006830382 0.017880978 0.3042637 0.120654464 0.08796007 0.25589693 0.05243674 -0.19692034 -0.20311937 -0.22188845 0.013090337 -0.18797888 -0.07262476 0.16324157 0.06215595 0.16672081 0.19734399 -0.19312835 -0.10099946 -0.046437282 0.20301895 -0.025413191 0.3390474 0.0130595155 -0.19184546 0.032762777 0.010915585 0.1379539 0.1376982 0.21456502 -0.14266673 0.05632869 0.03976419 -0.09951968 -0.053174518 -0.06926506 -0.010792637 0.061892807 0.10721056 0.053706285 -0.03519303 -0.23135279 0.068978414 0.24154292 -0.22629166 -0.07295405 0.0584179 -0.071550064 0.06388062 0.027699435 -0.098449655 0.25599825 0.19517383 0.051725578 -0.06906952 -0.040720593 0.11700597 -0.15229952 0.14742163 -0.015920956 -0.07677729 0.17094615 -0.12117075 0.0332742 0.11458874 -0.28766653 -0.06515491 -0.085837 0.10599908
-0.042667147 -0.06452788 0.0740679 -0.17816538 -0.04552875 -0.15248455 -0.093649045 -0.25519782 0.14070424 -0.23277855 -0.05371436 0.06650981 0.121211626 -0.002342699 0.006270612 -0.07068272 -0.026275834 0.07473344 0.0275144 -0.08192817 -0.0072560865 0.0535808 0.02637355 -0.057510037 0.10587093 0.132156 -0.12442822 -0.032785643 -0.39389658 0.07070393 -0.088746615 0.14148054 0.23330611 -0.0039943485 0.118767135 0.07249379 0.032470524 0.14074636 -0.0018578103 -0.121782035 0.09708392 -0.08194888 0.116671965 -0.029144984 0.14729315 -0.015348517 0.035970207 0.036065724 0.15045987 0.10046457 -0.0080564 -0.03465045 -0.08002205 -0.07606899 -0.009037535 -0.06095217 -0.11929428 -0.012552915 -0.12171265 0.0627636 -0.15640484 0.17899325 0.18023366 0.10998546 0.046412747 0.09753093 0.083462484 0.20782328 -0.14179005 -0.06066181 0.11106708 0.06200035 0.051262546 0.051096253 0.16230445 -0.112620465 -0.062472124 -0.09357766 -0.01623999 -0.042654946 0.0565441 -0.30421424 -0.020182882 -0.020695766 -0.05134254 -0.010217257 -0.06370828 -0.031841975 0.066953816 0.025906347 0.12845318 -0.19730024 0.22343887 0.08034147 -0.042378355 -0.07689826 0.15941995 0.069521025 0.10041946 -0.4366889 0.19237173 0.17724606 0.058852237 0.09111857 -0.018788453 0.084374145 0.021344893 0.088517584 -0.7538057 -0.26405278 0.20387049 0.26908204 -0.02348939 -0.1798856 -0.12558617 0.01686839 -0.33771616 -0.12653105 0.06945846 0.29829866 -0.053158466 0.058870044 -0.029299809 -0.4551337 -0.008478941 0.2980573 -0.112869576 -0.07577186
0.058684815 -0.033650123 -0.00029292027 0.10567249 0.07900342 -0.14452085 -0.025518838 0.06341034 -0.01546878 0.13851888 0.12231834 0.18736349 0.11563853 0.09697342 0.25202322 -0.036842395 0.19508193 0.083601 0.09329683 -0.04848091 -0.24424137 0.2788207 -0.5627769 0.005860302 -0.020370707 -0.23859933 0.26253298 0.08395438 -0.25196305 -0.20928858 -0.0007166817 -0.20858751 -0.1286494 0.18893597 -0.2261525 -0.030017406 -0.027880473 -0.06594514 -0.041066293 0.110619836 -0.03322075 0.08179621 0.21867771 0.016507374 -0.07667061 0.12753907 -0.19010854 0.10892972 -0.099224254 0.023201948 -0.00063872203 -0.24689864 0.042497043 -0.27239248 -0.1138345 -0.12724353 0.08694248 -0.16534188 -0.184309 -0.04499666 -0.11763148 -0.14888272 0.31202826 0.031467933 0.17314231 0.10099753 -0.19396156 -0.0710562 -0.025865573 -0.0027504708 -0.1625212 -0.15383583 -0.11245117 0.06317035 0.03246627 -0.18842079 -0.0321052 -0.06762454 -0.054959875 0.10928898 -0.15767512 0.042878103 0.033276636 -0.26277187 0.14007546 0.0428629 0.07669174 0.19158202 0.15887931 -0.23265484 0.032541316 0.08000977 0.05578524 0.19274896 -0.16276781 -0.08665656 0.17277578 -0.008922182 0.09619094 0.31430966 0.045463834 0.064990945 0.27995542 -0.003901595 0.04569243 0.09615469 -0.09272039 0.12689157 -0.22054432 0.050435275 0.28094402 0.13994895 0.19803442 0.079151556 0.095943555 0.22973138 -0.14355783 0.124738075 0.035105515 -0.06412533 0.045510694 -0.19129795 -0.07141789 0.009092886 0.09882916 -0.16738519 -0.36166802 0.07963492
0.011330826 -0.022845559 0.051611625 0.06386842 0.11716742 0.18832761 -0.437196 -0.0126051055 -0.06767931 -0.15849073 0.054415803 0.018167704 0.04692659 0.061460763 0.03608173 -0.01994957 0.122674115 0.072747834 0.027812108 -0.13369189 -0.15869921 0.108390324 0.31903872 -0.12932913 -0.058036603 0.1542665 -0.11735408 0.1739059 0.11333799 0.052802596 -0.12021878 -0.08526821 -0.08653893 0.104890995 0.064010955 0.14769003 0.058116008 0.049653657 0.17875399 -0.10222976 -0.12956586 -0.048193816 0.14582436 0.029684888 0.089181215 0.028983867 0.1796498 0.07152493 -0.17280425 0.07210984 0.20616713 -0.05383712 0.06924312 0.29288048 0.27011484 0.20276377 -0.040960643 0.100279026 0.0531841 -0.094432175 0.20545672 -0.19434698 0.026894901 0.09724852 -0.20816618 0.2084477 -0.021721786 -0.06900196 0.22781661 -0.12333609 -0.3427993 0.11002604 -0.008184079 -0.021291653 -0.0918235 -0.06822462 0.4271395 0.28964174 0.30237344 0.029882103 0.09146629 -0.83786106 0.10716949 -0.41262197 0.05364057 0.21518435 -0.17564374 -0.14581195 -0.107479244 0.35230568 0.057959963 0.057417985 0.22823326 0.12670611 0.027241783 -0.62411684 0.027087424 0.1664979 -0.07681129 -0.42353368 -0.085912734 -0.19797291 -0.15054968 0.28607914 0.13994835 0.06710759 0.016799787 -0.20202956 0.0031049838 -0.4941923 -0.12708963 0.010069209 0.09082751 -0.2122926 0.026366983 0.0013105787 0.17686623 -0.04216877 -0.107431576 0.015961545 0.022285435 -0.053921748 -0.07455777 -0.2156782 -0.14100325 -0.13086517 0.15564407 0.0646504
0.016859626 -0.21059501 -0.073851265 0.16135009 -0.107122585 0.07075632 -0.37267196 -0.008892185 0.40356812 0.021097643 -0.22571683 0.24613309 0.0082145855 0.15598406 0.0061739045 -0.17602283 -0.11881016 0.2591411 0.18818794 -0.03391826 0.003443078 -0.14921609 0.27919623 -0.19746257 0.028924486 -0.071543366 -0.099781476 -0.13517947 -0.3216897 -0.056963395 0.28369716 0.04414737 0.12702705 -0.28671584 -0.04273947 0.14671484 -0.043963794 0.083324015 0.18190157 0.16898817 0.14956465 -0.11735862 -0.0777716 -0.28959072 0.25803763 -0.37486115 -0.3378795 0.13379823 -0.23646973 0.3234283 -0.10602688 0.33054528 -0.22534701 -0.036223516 0.056029275 -0.0071553835 -0.40034422 -0.16243017 -0.0514961 0.3269629 0.23747982 0.0008067587 -0.77581584 0.18188275 -0.325317 -0.11874777 0.08245826 0.6430756 -0.009994231 -0.2827169 -0.18978067 -0.037393447 0.058084063 0.053211544 0.08923727 -0.13383743 0.16252157 0.22481094 0.074369326 -0.114936024 -0.004523271 0.19356193 -0.1479438 0.73070586 0.10886616 -0.04221485 -0.12974036 -0.13113476 0.12553465 0.388344 -0.036176417 0.14658415 -0.095372036 0.06415338 -0.09175593 -0.72095 0.034442067 0.07958166 -0.09659395 -0.8620171 -0.20305455 0.08625992 -0.16402568 0.18012708 -0.25252786 0.19015312 0.14578854 -0.058674507 0.6214078 -0.33314878 0.07457304 -0.10280801 0.08681283 -0.048112016 0.08063181 -0.14106289 -0.22849432 -0.031127205 0.14429912 0.03407524 0.064715095 -0.050836425 -0.24181548 0.0578229 0.13272616 -0.015623679 0.30584407 -0.014730698
0.06182394 0.028115122 -0.19606566 0.026013339 0.15163715 0.23517887 -0.045143753 -0.031373534 -0.187704 -0.087962784 0.1507385 0.0388961 0.08187081 0.019964712 0.014663892 0.15897863 -0.18528628 0.10248535 0.16365077 0.049839534 -0.2208119 0.008227545 0.03677138 0.008267767 0.116080925 0.040889986 -0.24433865 0.23916262 -0.0017874131 0.13220255 -0.07584637 0.04006032 0.093974 -0.12753005 -0.01329592 0.071281075 0.077096604 -0.028658967 0.00146184 0.18478152 0.1364786 -0.12475072 0.12202532 -0.1864013 0.07396362 0.04245048 0.01064682 -0.1013789 0.07721531 0.09372532 0.08004401 0.14182691 -0.077708 -0.044538394 0.042195816 0.0330527 0.17851159 0.09616632 -0.025783062 -0.20425698 -0.16979389 0.06470647 -0.071401946 -0.12336321 0.112298906 -0.0553374 -0.21254158 -0.05017891 0.26621908 -0.005006698 -0.1603868 0.042149477 0.3479396 0.06021716 -0.016473005 -0.019717813 -0.070310436 -0.118839644 0.07459087 -0.06639811 -0.020593079 -0.42814982 0.0524097 -0.33508438 0.3448566 0.064201236 -0.044475697 0.11577967 0.065112315 -0.31819713 0.19146094 0.10481529 -0.10319654 0.1671933 0.016409995 -0.42898545 0.027452994 0.060983524 -0.16906649 0.10157568 -0.07935997 -0.0850558 -0.0071875923 -0.011235271 -0.078193165 -0.0358633 -0.0021380035 0.13925964 0.17726588 0.26341212 -0.19314262 -0.0320119 -0.070589274 0.04982274 -0.18761829 0.027494008 0.008068179 0.06335347 -0.012290995 -0.05009105 0.20097177 0.24479088 -0.10286746 0.0053323912 -0.07126425 0.16612868 0.1357765 -0.0061692744
0.025672393 0.07211496 0.25230065 0.28538197 -0.03225509 0.12612854 0.04526422 -0.007871968 -0.2917924 0.2838088 0.10369049 -0.00023916639 0.10696731 0.08606537 0.18652365 -0.26904026 -0.00074037875 0.18685594 0.06757729 0.3022484 -0.032414824 -0.10837758 0.2443144 0.013877531 0.2750559 0.028410492 -0.023117743 -0.026384156 0.22361548 0.16100465 0.06744926 -0.067095734 -0.23026499 0.005041352 0.015376794 0.17873202 -0.12832414 -0.059540935 -0.0658526 0.1394689 -0.17938638 -0.19671828 -0.25879085 -0.01331022 -0.059256233 0.00030328167 0.0040354123 -0.14105697 -0.15881817 -0.026220547 -0.108818956 -0.09000446 0.17539525 -0.15181637 -0.004106377 -0.031894565 0.07044302 0.05448462 0.097318016 0.060640495 0.07134387 -0.22768085 -0.13107984 -0.053893305 -0.12865442 -0.0077207913 0.098875 -0.09101535 -0.036533255 0.06274441 -0.2916483 0.051661354 -0.09207727 -0.11210019 0.09670223 -0.036624108 0.18697305 -0.06037468 0.17710352 0.010790304 -0.005322983 -0.16880828 -0.14286679 -0.23914582 0.018320346 -0.05195994 -0.14827831 -0.033510387 -0.09701374 0.2695943 -0.10234002 0.19742732 -0.033331793 0.057921965 0.19089945 -0.33356616 0.0073856954 0.054208253 0.24815188 -0.0011386083 -0.13274483 -0.055731438 -0.060370296 -0.03697625 0.15730743 0.10231392 -0.14029804 -0.23584971 0.040674955 -0.0803072 -0.14688306 0.118024886 -0.08046349 0.024318757 0.11911763 -0.023094825 0.01720079 0.07702164 0.10151439 -0.057331335 0.07625416 -0.01544224 -0.027957547 0.011380926 -0.12949553 -0.10830477 -0.058652107 0.23679128
0.032060012 -0.17459695 0.011730028 0.34193647 -0.42184556 0.018978162 0.094631694 0.07621965 -0.4059391 0.29996803 -0.034436032 -0.052192498 0.12716047 -0.22364101 0.0306069 -0.14380404 -0.16068462 -0.21042405 0.18638264 0.024116622 -0.03593528 0.10875854 0.4088938 -0.15184668 0.020390442 0.08521728 -0.061821125 -0.10826482 0.3041033 0.3527287 -0.18965973 0.13397676 -0.868217 0.16490169 -0.15039757 0.046459842 0.11275606 -0.019577686 -0.17827255 0.04239721 0.002981708 -0.010978639 0.09525932 -0.3252878 0.27369747 0.016013103 0.23451957 0.13562478 -0.04236448 0.12251518 0.057572808 -0.23451906 -0.14810883 0.07760792 -0.02118925 -0.10439852 0.2806801 0.23276095 -0.2735697 0.1019466 0.02458537 -0.04098737 -0.104154125 0.09934076 0.05177254 -0.63160044 -0.13671544 -0.22996965 0.2809516 -0.110518895 0.11442415 -0.075177304 -0.098964036 -0.07297378 0.10864831 -0.007726778 0.10340852 0.037089616 0.121005125 -0.08192117 0.105695345 -0.9982226 -0.17237228 -0.22971037 -0.03088409 -0.09510103 0.00059797254 -0.10385741 -0.7943668 0.38853464 -0.08605536 0.18201847 0.025615368 0.19752368 0.06993466 0.1456199 0.032910407 0.14469671 0.20378517 0.064170286 -0.058730837 0.06390902 0.016789796 -0.017257605 -0.08345081 -0.32629213 0.112944484 0.060672864 -0.55400026 -0.6974809 0.07699074 0.19590561 0.07052447 -0.13899952 -0.036361743 0.13687441 0.12101889 -0.07453373 0.107597336 -0.030622624 -0.10924693 -0.12953734 0.09215245 -0.15928555 -0.48940274 -0.58027065 0.09649247 -0.046248447
0.09994383 -0.21076755 -0.052613836 -0.069984145 -0.045617677 -0.13137494 -0.1778991 -0.027319374 -0.04707261 -0.05480827 0.05767132 -0.014460053 0.07073067 -0.12704729 -0.10700696 -0.06418812 0.02795949 0.12276273 0.038457334 -0.067657314 -0.037583474 0.13709833 -0.96052504 -0.064783454 0.17310372 -0.14958538 -0.096620634 -0.08155692 0.045475174 0.1568068 0.21417193 -0.028095707 -0.061996937 -0.025887832 0.09174371 0.04833186 -0.086298004 -0.033251636 0.10019565 -0.013986652 -0.10990097 0.05934561 0.18271838 0.10918944 0.09671225 0.107763365 0.14211965 -0.045382477 0.10079746 0.0006241601 -0.27971148 0.073744185 0.06331064 -0.09650006 0.1294214 -0.0012871524 -0.0794654 0.3670147 0.10835109 0.025790727 0.041560583 -0.19755396 -0.084151626 0.16303197 0.16334651 -0.12925895 -0.062584795 0.07637538 -0.10953797 -0.0776642 -0.21561576 -0.116459854 0.0624677 0.19328386 -0.1511983 -0.11203544 0.12491659 -0.22834402 0.23198903 0.049047742 0.14444473 -0.0025231768 -0.02251828 -0.1804467 0.102100894 -0.006339886 0.012403192 0.004932554 0.0655179 0.1969889 -0.01264337 0.06257092 -0.1092179 0.24134381 -0.036370248 -0.39119264 -0.06513287 0.07286825 -0.09566071 -0.25338095 -0.029579973 0.102751486 0.08414978 0.011467156 0.1962509 -0.12519471 0.036136754 -0.11318853 -0.054560408 -0.03990065 0.10511261 0.039871804 0.11627597 0.14191748 0.06599102 -0.03271243 -0.20738557 -0.08334415 0.07885564 0.16902322 -0.103956446 0.002599984 0.09338133 -0.04864893 0.019486936 0.16193472 0.10283392 0.027365593
0.17344601 0.024802253 -0.011383394 -0.2934527 -0.12496961 0.0060958574 -0.04985026 -0.11436632 -0.5061623 0.08413653 -0.034401055 0.023946743 -0.18625619 0.0023666515 -0.043079667 0.05541828 -0.05037909 -0.004307339 -0.0034644136 -0.037340313 -0.08431007 -0.08946934 -0.8999595 -0.009666152 -0.05032322 0.0016193197 0.17667592 0.26025423 0.1550235 0.1752366 0.05771086 -0.03516827 0.019588275 -0.00429803 -0.24664535 -0.2034687 -0.11243623 0.27430016 0.0785451 -0.045134887 0.09254679 -0.13814534 0.023944521 -0.20434327 -0.048814405 0.0077208183 0.27829403 -0.13055696 -0.3755394 0.098399125 0.0730336 -0.009265957 -0.06627064 0.02599109 0.09259934 0.083464526 -0.22659451 -0.035708304 0.10933787 -0.106418476 0.27932996 -0.047130678 -0.10671914 0.062581114 -0.14747241 -0.024576446 0.11792057 -0.2046003 0.00400785 -0.14003272 0.0765234 0.042722672 -0.19652216 -0.08972914 0.10448842 0.063375056 0.21806827 0.17006987 0.13757247 -0.070613965 -0.046268076 -0.3354933 0.06981549 0.21780442 -0.12847984 0.100129105 -0.14930767 -0.030107252 -0.10148489 -0.4067527 0.31099117 0.06557645 -0.024949215 -0.57140845 0.11046145 0.012598604 0.048286185 -0.048165493 -0.15684526 0.35698605 -0.24396493 -0.0890097 0.17099042 0.039270975 0.06180809 0.14487112 -0.09327866 -0.46000603 -0.33232746 0.15492637 -0.10624694 -0.13840395 -0.08928454 0.046561588 -0.23786266 -0.030964624 0.12997429 0.03223623 -0.12064983 0.12643169 0.013235046 0.03477412 0.09945172 0.0005072578 -0.10317162 0.090891555 0.010238907 0.14454767
-0.19384308 0.030612199 0.013156085 0.34538212 -0.10068726 0.08913642 -0.2518353 0.18729514 -0.036041178 0.11122265 -0.1294064 -0.009783376 -0.0927671 0.10230451 0.098853536 -0.086558655 -0.14512561 0.059408583 -0.29909772 -0.059196774 -0.16552241 -0.09474568 0.21313933 -0.13536038 0.19473267 0.19146197 -0.14927192 -0.07094548 0.2538038 -0.012089347 0.2186719 0.12742771 0.08594039 -0.19492655 0.054071028 0.17472889 -0.15507892 0.22788274 -0.0057130717 -0.21067794 -0.19351663 0.09223884 0.0483898 -0.02121934 0.06284406 -0.19666901 -0.123224236 0.04156488 -0.06393194 -0.046084784 -0.05074813 -0.03879085 -0.039371613 0.10987946 -0.02158986 0.01974167 -0.10723591 0.2411636 -0.047352307 -0.02295384 0.0709621 0.20340331 -0.12470926 -0.09722164 -0.14723845 0.087533504 0.10099394 -0.32119742 -0.046176217 0.08662586 -0.24134433 0.06980468 -0.10938471 -0.18922013 -0.023269776 -0.1182483 0.34472686 0.17132089 0.020993559 0.26824257 0.07962559 -0.34233606 -0.21516252 0.2772153 0.12728478 -0.055296607 -0.0042223847 -0.28146866 -0.33773386 0.24665254 0.06346785 0.21107255 -0.06844191 -0.08972942 0.04411745 -0.42537457 0.051487498 -0.06335941 -0.011384894 -0.33648494 -0.0061901677 -0.14781648 -0.037479334 0.011387009 0.020389963 0.11209934 -0.07856546 -0.08652856 0.058842342 -0.46051905 -0.009318758 0.059514754 -0.1877321 -0.045257937 0.0992729 -0.2349554 0.19042698 0.15427664 0.15368015 -0.0066564525 -0.0629151 -0.09245315 0.1058136 0.047021333 -0.16603912 0.074941695 0.052733373 0.033115704
-0.007959195 -0.06880201 -0.028309738 0.3496885 -0.028391395 -0.114754595 -0.07050858 -0.11684084 -0.33800638 0.21513857 -0.11655641 -0.23386459 -0.09257847 0.11551091 -0.0063626627 -0.09372484 0.19487885 0.27594614 0.27908537 0.11165797 0.06619433 0.050522722 0.15390086 -0.33043638 -0.010277697 0.10959915 -0.19902125 0.039470006 0.121012166 0.07157375 0.04848325 0.13077918 -0.33923313 0.14529635 -0.045979295 0.005621121 -0.097654946 0.12123456 0.068266824 0.09745258 -0.05847775 -0.31020063 -0.06589876 -0.041768584 -0.009260599 -0.029315766 0.03609626 -0.0493749 0.048468523 0.045861095 -0.17874682 -0.18860887 -0.050915863 -0.0019987603 -0.10185658 -0.013658971 -0.24744017 -0.11032794 -0.11145101 -0.0051659653 0.15087293 0.03097118 -0.21814442 0.07914516 0.10371575 -0.16326827 0.1639626 -0.3113511 -0.024593247 0.05857277 0.28544873 0.047638908 0.105596304 -0.16916224 -0.036689878 0.0009163327 0.023249377 0.2634865 0.04313079 0.00027320645 0.048132803 0.015484235 -0.15527996 0.010703028 -0.004914063 0.15716012 0.0053832172 -0.04304143 -0.23228285 0.24666332 0.08086804 0.11128086 0.13998285 0.04261002 0.097992785 -0.014068051 -0.061417434 0.22094658 -0.0617594 -0.13268216 -0.009515329 -0.020879544 -0.1084374 0.05754568 -0.04204941 0.00055858796 0.10493263 -0.05479108 -0.17359619 -0.32894665 -0.13418628 -0.050025437 0.044542056 -0.17462423 0.052534103 -0.16153242 0.2348066 0.11045146 -0.078257 0.050709486 -0.1849547 -0.053549245 0.00025908358 0.18340433 -0.09973847 -0.03768662 -0.06795644 0.062754154
-0.039573483 -0.019408375 -0.08251472 -0.16825122 0.23635197 0.06342587 -0.095251925 -0.096611425 0.026477993 -0.00827202 0.028954666 0.023369668 -0.06315876 0.054664817 0.0036795274 -0.1202195 -0.0024542178 0.03230051 -0.21561468 -0.19042982 -0.09178241 0.09782854 -0.26328775 -0.19943838 -0.0154663455 0.03558901 0.009677132 0.16543418 -0.06135672 -0.00077853905 -0.10796746 0.039510142 0.11497698 -0.010972832 -0.066669874 0.07491497 0.21881318 0.2626406 -0.09412944 -0.049877148 0.10327559 -0.11077177 0.05530986 0.017416112 0.061906688 0.16830973 -0.07880167 -0.034204256 -0.06749492 0.072844885 0.11556525 -0.034922823 -0.04924593 -0.09015391 -0.06553012 0.12482675 0.12458494 -0.008547679 0.003854806 -0.012277104 -0.015195415 0.018283186 0.054292094 0.012570672 0.18583891 0.14528207 -0.017396994 0.08730598 -0.063163646 -0.07381977 -0.23605706 0.051090732 -0.08288166 0.06634506 0.020327799 0.07176736 0.10183338 -0.14002973 0.15161438 -0.07274543 0.0812638 -0.35849196 0.21243332 -0.108651154 0.20283405 0.1406006 -0.023300027 0.1160351 -0.020252056 -0.024755152 0.13915905 0.060489338 0.19427645 0.08307252 0.049479876 -0.49420545 -0.03187291 0.110065304 -0.15172201 -0.08365693 -0.17168951 0.18863454 0.10871906 0.02117294 0.13002512 0.062332157 0.00094505696 0.16544057 0.12095615 0.036551032 -0.00298464 0.025782587 -0.08263682 -0.005617767 -0.15707552 0.05017792 -0.1146178 0.055162378 0.21334852 0.08852572 0.16035596 0.052216236 -0.15999751 0.035507523 -0.043306008 0.010361579 0.007893216 0.11774392
0.001834477 -0.20026024 0.20804489 -0.025963146 0.12338731 -0.017471565 0.12155914 0.2033218 0.32430694 -0.9401039 -0.07322349 0.08186553 -0.07626639 -0.09858938 -0.0090766465 -0.19483046 0.0827868 -0.058872864 0.19882904 -0.04259712 0.008397219 -0.029403342 -0.013789794 -0.16707137 0.04291901 -0.1745722 -0.21901149 0.01462132 0.04338009 -0.23613611 0.14032128 -0.34232554 -0.16879247 -0.46614522 -0.0073122573 0.11065865 0.24395643 0.0970988 -0.0724868 0.05263117 0.047118913 -0.43109488 -0.24477714 -0.14428763 -0.12932493 -0.38156295 -0.06733539 0.31378993 -0.07805773 -0.014355303 0.21510227 -0.3476335 -0.15791164 0.14228058 -0.033360183 0.09907506 0.09103993 0.29541475 -0.10063789 0.23054616 0.08425681 -0.25748497 0.3654352 0.07605844 -0.018192433 -0.096445665 0.016584354 0.52780527 -0.10172497 -0.12070721 0.067088634 0.04570343 0.14455065 0.06295315 0.09419874 0.009134033 0.008884558 0.0768791 0.059191894 0.056208536 -0.106426604 -0.06348446 -0.08778457 -0.39942142 0.105537534 0.07131527 -0.44878712 -0.06261753 -0.013981007 0.05892199 -0.030198636 -0.047282707 0.03176109 -0.15059471 -0.10966107 -0.019313227 0.029074663 0.09604666 0.04735296 -0.45988208 -0.23425032 -0.24298322 -0.2492123 0.08637355 -0.14770724 0.036232285 -0.09715282 -0.0786568 -0.6589075 -0.3805738 -0.053817216 -0.11474275 0.18057276 -0.019147607 0.09710492 -0.07935154 -0.14256565 0.09266435 0.43514764 -0.045172036 0.22570463 0.007492772 0.1478582 -0.21853638 0.046162844 -0.13522017 -0.20267172 0.03397003
0.11631138 -0.0020040944 -0.18779123 0.40646437 -0.017251631 0.070926905 0.07756718 0.30975685 -0.12854433 0.09626985 0.08424632 -0.12501256 0.17051327 -0.49352035 -0.112579405 0.11585066 -0.04923908 0.1883895 0.11265723 0.10575789 -0.13634498 0.14162694 -0.47054446 -0.017992727 -0.09693758 -0.084555216 -0.21261181 -0.14954887 -0.00083690905 -0.07842006 0.15376781 -0.28888446 0.218329 0.084961124 -0.00850867 -0.0030325595 -0.10744845 0.19942626 0.11599617 -0.011110085 -0.277274 0.18711434 -0.10421021 -0.040607743 -0.14858206 0.2737138 0.12897794 -0.35856318 -0.14298144 -0.24841186 0.060866885 0.12217358 -0.08547795 0.026330683 -0.024495518 0.0153769255 -0.51915276 0.06000383 0.12970796 -0.3877617 0.06192023 0.29107928 -0.43452623 0.14488389 0.033835754 0.15036203 0.27876553 -0.18983446 0.095934875 0.0016275252 -0.33737355 -0.04828927 -0.8114569 -0.070742 -0.43242478 0.33118564 0.34319773 -0.17691302 -0.09926147 -0.44748664 0.035279185 -0.6313216 0.07945038 -0.062030587 0.050483268 0.07926496 -0.30444545 0.43529016 -0.042988256 -0.07381135 0.11198666 0.15737611 -0.054663803 0.867835 0.2641025 0.23190881 -0.19498144 -0.160385 -0.4462258 0.25264722 0.5456876 -0.23287493 -0.11155648 0.02432027 0.092715316 -0.749467 -0.001717683 0.12543315 0.2348939 -0.01304269 0.020157801 -0.16338906 -0.2069942 -0.0983697 -0.1584294 -0.018295234 -0.09298061 0.078750394 0.030350938 -0.16333272 0.15032512 -0.026966697 0.089473024 -0.35646683 -0.36427093 0.22197375 0.019871354 0.116191626
0.018234884 0.24514651 0.18545696 0.102916 0.29092556 0.06790331 -0.073043324 -0.09255313 0.2616493 -0.0036373085 0.027769536 -0.31468382 0.08135612 0.07433873 0.026564864 0.34348908 0.012737918 0.11224279 -0.0889015 -0.10235754 0.24242736 0.10557757 0.12250448 -0.057309292 -0.003618963 0.016430452 0.3676379 -0.21310697 -0.10363152 0.18075229 0.22343187 0.017425142 -0.2287782 -0.13466938 -0.1582037 -0.18827508 -0.26584604 -0.13312867 0.17827085 0.112301804 -0.060215574 -0.06422826 0.07923931 0.16168477 0.12362402 -0.027940389 0.097184524 -0.22034691 -0.3423043 -0.13489935 -0.2962594 0.14422502 0.09393174 0.1295668 0.21862137 0.021262007 -0.16771589 0.12567852 0.18400928 0.3752265 0.09275595 -0.1988632 -0.037641283 0.041859508 -0.04888293 0.27819982 0.26639444 0.05658366 -0.5846852 0.042998735 0.34718063 0.08980734 0.3832199 0.072659545 -0.990261 -0.15895405 -0.7167888 -0.6517502 -0.25030172 0.14844202 -0.12035716 0.026933543 -0.004935039 0.14489433 -0.02683932 -0.02598795 -0.11568466 0.10395049 0.0061889756 -0.26021433 0.049527805 -0.1660565 -0.03570976 -0.2938888 0.029349692 0.21378723 -0.16121358 0.04058864 0.086988986 0.3486026 -0.27299497 -0.19402206 0.2750977 -0.06128727 0.09942757 0.21062987 -0.06123007 -0.13237266 0.4991137 0.015872704 -0.032700334 -0.056705356 -0.2680574 0.14222457 -0.027070861 -0.12223156 -0.053873193 -0.041053385 0.15545681 -0.11854651 -0.06748165 -0.05039474 0.27988383 0.26974824 -0.24929525 0.09882254 -0.15930367 0.13798264
0.022712726 -0.14131086 -0.0029749975 -0.012669954 0.12158685 -0.099032395 0.006508145 -0.13001418 -0.009285059 -0.26583153 -0.05093753 0.0024701643 0.11481779 0.041551445 0.14045584 0.17719021 0.07667845 -0.16939808 -0.0015415988 0.110124774 -0.09489913 0.12562546 -0.4309053 0.060734604 0.11731208 -0.028461913 -0.055147436 0.050697595 0.04303188 -0.09806905 -0.19504948 0.10821619 -0.14924975 0.021412354 -0.076377936 0.11343876 0.060654048 0.064423524 -0.025136167 0.028383946 0.12047916 0.35978153 0.23777966 0.14668162 0.15441982 -0.06638554 0.24094261 0.11021486 0.023782339 0.08616292 -0.13096316 0.19071248 0.10333589 0.079370975 -0.15017319 -0.18516096 0.19316423 -0.017985728 -0.11180857 0.12890273 -0.1778408 -0.16168752 0.13686 0.013169321 0.14628564 -0.017048653 -0.24305177 0.25658846 -0.022202041 -0.114948034 -0.2421118 -0.25476345 0.1237506 0.014558331 -0.5081168 0.12925218 -0.23651569 -0.08049428 0.090234384 0.13559091 0.08027597 0.016723279 -0.10220896 0.15299617 0.17194755 0.046960764 0.08200633 0.019787151 0.08895873 0.18172906 0.07343841 0.054014448 -0.16972281 0.24092679 -0.15894663 -0.32170904 -0.14179793 -0.17978884 0.054806765 -0.08922152 0.054133523 -0.013135212 0.07398629 -0.020906977 0.1586974 -0.17898956 0.20729826 0.30936846 0.033368804 0.26850975 0.18573354 -0.06978514 -0.18211736 -0.121824384 -0.07670619 0.0011645682 -0.0002416581 0.08707477 0.23519182 0.21779282 -0.19826011 -0.07079927 0.0011383678 0.1787577 -0.17096429 0.055080045 -0.36727086 -0.0606872
-0.0021612593 -0.06948129 0.14288911 0.15286139 -0.07024889 0.071076505 -0.076196685 0.17767496 -0.2269202 0.08499417 0.034832675 -0.009298283 -0.14317621 0.11154111 -0.11249834 -0.09561693 -0.020161588 -0.004136464 0.07794892 -0.09776578 -0.07589026 -0.06953064 0.3883318 -0.0675149 -0.059182677 -0.029072545 0.12600686 0.09292087 0.08074809 0.10004142 0.055149227 0.11585119 -0.105951756 -0.041375205 -0.020125458 0.12708086 0.03807474 0.014798663 0.0024249183 0.0040468997 -0.026130807 -0.07014086 -0.054925606 0.009439633 0.119737364 -0.08860204 -0.2382043 -0.02661901 -0.049505197 -0.090415366 0.09599643 -0.09182669 -0.2085255 0.061187387 0.15135352 0.04245139 -0.20403974 -0.07350371 -0.050163403 0.15367006 0.025114486 -0.2664638 -0.0066142636 -0.030998964 -0.17975552 -0.030745668 -0.08910617 -0.2966811 -0.06707348 -0.009600922 0.03541868 0.21286508 -0.14597002 -0.07376979 -0.25160867 -0.099247545 0.35568374 -0.060238227 -0.05668255 -0.023986993 0.030831646 -0.19906536 0.052891772 -0.065222755 0.010240837 -0.10745436 -0.22482926 -0.14399993 -0.056281775 0.059004366 0.06817233 -0.0444921 -0.088080205 -0.31494188 0.23585469 -0.07265327 -0.019525668 0.25293958 0.05377198 0.07324387 -0.19018897 -0.0032384566 0.025259666 -0.07816212 0.10385282 -0.030529749 -0.11261547 -0.02628119 0.042299755 -0.1603654 -0.1579033 -0.033913527 -0.006208983 -0.09357736 0.18281782 0.0017477738 0.1277153 0.20026399 -0.11030823 0.1292393 -0.054115664 -0.06366158 0.10194997 0.049847513 -0.06232998 -0.17371579 -0.12182775 0.09188862
-0.2089645 -0.2945339 -0.35066596 -0.036764387 -0.4000279 0.13118611 0.02446824 -0.646346 -0.15967537 0.02458835 -0.014433145 0.093834504 0.061820704 -0.17810376 -0.078228995 0.009760962 -0.12329523 -0.1538153 -0.12035371 0.11328922 -0.008782069 0.11412568 0.050470736 -0.17772989 -0.11483229 -0.07507677 -0.028455844 0.17299171 -0.11214315 0.09886328 0.088215135 -0.05382962 0.13788064 0.28379315 0.10403835 -0.008542153 -0.08958084 0.10907099 -0.08628224 0.046003807 -0.058954734 -0.010416161 -0.31759825 -0.06305419 -0.46146098 0.043935396 -0.2328105 -0.22212042 -0.14972347 0.049703084 -0.018716414 0.052380823 -0.02359765 -0.0099356985 -0.1815509 0.0304815 -0.32584655 -0.13416278 -0.068767294 -0.09807355 -0.04349457 0.12182781 0.056057323 -0.15908176 -0.06268636 -0.17969337 -0.11985776 0.1517763 -0.15563726 -0.048763886 -0.013582888 0.06298286 -0.1755553 -0.2338333 0.015577136 -0.20504239 -0.052979436 0.053891458 -0.026379744 0.103217565 -0.6329171 -0.04030742 0.02683425 0.020730544 0.09503805 0.21308684 -0.011341105 -0.0043860865 -0.025353285 0.41711769 0.00064195826 0.04322629 0.006333234 -0.069193944 0.14674231 -0.07124468 0.1208586 0.13745262 0.25767565 -0.14629917 -0.015305094 -0.06829263 0.04641339 -0.059751686 -0.1475385 -0.04493088 -0.10886644 0.051252887 -0.5962065 -0.009394572 -0.078353986 0.1167369 -0.07452969 0.19203435 -0.099858664 0.08884143 -0.0077918503 -0.19940397 -0.045239072 0.051087204 -0.10110082 0.24749008 0.100163154 0.17305753 0.27078962 -0.03787296 0.28638995 0.09970414
0.018194787 -0.095088385 0.011668991 0.21337736 -0.10203954 -0.11058942 0.0957351 0.1681841 -0.013222116 0.06353102 -0.167393 -0.20683676 -0.13030997 -0.042453192 0.090945825 -0.030385798 -0.19027427 -0.25120834 0.31193087 0.10022029 -0.004527152 -0.08900958 0.35531077 -0.09862813 0.09104068 0.10793892 -0.04334327 -0.052696764 0.055671938 -0.05184135 0.11264636 0.13765101 -0.2149048 -0.053129695 0.02931296 0.09947021 -0.03896812 0.066137746 0.15737635 0.1563949 -0.058522187 -0.04414788 0.033208214 -0.24697827 0.035886433 -0.108037256 0.16216046 -0.06350413 -0.12440314 -0.050866283 -0.2002629 0.19691245 0.090830944 -0.081926025 0.028366318 0.046416618 -0.22262801 0.01937234 0.054503635 -0.12591477 0.050194368 -0.17392072 -0.23897731 0.25985426 -0.20189306 -0.20268989 -0.072456 -0.8424643 0.02693818 -0.12979957 -0.06151984 -0.029625706 -0.06142531 -0.0050547435 -0.08782698 0.18386525 0.25444624 0.0002326514 -0.010152829 -0.27397856 0.048661463 -0.12566118 -0.111027285 -0.27254996 -0.1118301 0.18885186 -0.18419155 -0.12632768 -0.050007463 -0.018029284 0.020500446 -0.011950617 0.1636908 -0.22928208 0.12665033 0.13117974 0.06805478 0.13388631 0.13297854 0.21506427 -0.027400356 -0.01659295 -0.028439816 0.028412078 -0.047838535 -0.061498906 0.09047079 -0.14219745 -0.25566494 -0.36655608 0.026242087 -0.063062906 0.07129211 0.030445928 0.10389518 0.26600188 0.20851931 -0.043387044 -0.31009918 -0.14243406 -0.00084914314 -0.051640365 -0.012789199 0.23579378 -0.29141507 0.017106378 0.16307914 0.122454196
0.09517476 -0.043634318 -0.12401214 0.16779141 -0.036995586 0.0005457527 0.0389754 0.029792633 0.043906264 -0.07491599 0.04632995 -0.02173059 0.055427134 -0.042904373 -0.13189991 0.118477516 -0.04404116 -0.0010384779 -0.17712009 -0.09994307 -0.19738181 -0.104281954 -0.35848337 0.081079245 0.053064555 -0.11082744 -0.17848596 0.14952719 0.17467415 0.11261414 -0.0017297181 0.15338418 -0.04046295 0.020719666 -0.06789588 -0.09855002 -0.087462015 0.035318702 -0.036662985 -0.015463843 0.08858397 -0.19237283 0.0027629465 0.11690831 0.0002139241 0.035862397 0.23872119 0.09093932 -0.0029180273 0.04648904 0.09586263 0.009078455 0.013725796 -0.029767292 -0.034855373 0.07058382 0.13380648 0.041759938 0.12227222 -0.05473861 0.06732319 -0.042010084 0.14731392 0.0129860705 0.13955198 0.15612018 -0.08566337 0.33111808 0.031194359 0.2373603 -0.08333396 0.115874365 0.046636257 0.0522371 0.020763569 -0.06300383 -0.06209601 -0.16708533 0.07475879 -0.2568137 -0.015223962 -0.1326075 0.03920163 -0.19575523 0.03304997 0.13227683 -0.20231973 0.042180724 0.07124389 -0.39779282 0.08429191 -0.18014093 -0.046528336 0.09232929 0.13494131 -0.28349304 0.20202984 0.03190372 0.104767546 0.11620069 0.2497996 -0.15859255 -0.090831466 -0.02556674 -0.1379912 0.022955077 -0.038971484 -0.058191977 0.075881384 -0.027614959 0.25562406 0.017425135 0.05441565 -0.010416812 -0.30262312 -0.0062862607 -0.18288602 -0.08517491 0.23050179 -0.1265591 0.029649314 0.10985696 -0.09494727 -0.10733467 -0.05500905 0.110242896 0.16878897 0.124086276
0.3113057 -0.091696665 -0.030027479 -0.23393749 0.05818892 0.04890371 0.009866989 0.1794205 0.19552541 -0.16477251 -0.1615022 0.13347895 0.159544 -0.011496151 0.10783052 0.14244367 0.020060215 0.022923639 -0.08630813 -0.0075269514 -0.09312684 0.038047273 0.12004848 0.32568032 -0.014435376 -0.083191745 0.011298329 0.20391311 -0.21328439 -0.021238169 -0.06321408 0.053890873 0.017320063 0.116349235 -0.064423785 -0.12549885 0.114479 0.15815212 0.05369589 -0.028954145 0.12643677 0.028557094 0.21217598 0.046358358 0.047579754 0.14836617 0.03333484 -0.046974562 -0.09522609 -0.012661402 -0.05846359 0.018059053 -0.0143940905 0.1505829 -0.17961001 -0.07687112 -0.015409733 0.019213645 -0.14384973 -0.17839135 -0.24885942 0.03474226 0.23116305 -0.041612778 -0.06784343 -0.049015712 -0.08133104 0.19818757 -0.097085476 -0.031939063 0.056430355 0.025322927 0.09335443 0.08616585 -0.011510687 0.029087476 -0.2651614 -0.008503675 0.17786494 -0.35406226 -0.0010764766 0.16333248 0.1540962 0.021922043 0.18776661 0.24138176 0.14255019 -0.010848268 0.13103472 -0.02093421 -0.17316486 -0.023765994 -0.1011607 0.011776551 0.0155063765 -0.39790556 0.06600566 -0.15111054 -0.050276242 0.31989297 0.17648628 -0.14819272 -0.0006142903 -0.16480376 0.21214016 0.08080589 -0.022624295 -0.115178466 -0.008058195 0.23100586 0.11159008 0.2124335 0.04981627 -0.011789112 -0.09005321 0.11205216 -0.16072047 -0.047054283 0.037432022 0.09730443 0.013339259 -0.064245366 -0.105909124 0.0041949605 0.043976564 -0.07345159 -0.18013518 -0.13819948
0.043523744 -0.017960865 0.12814385 -0.02922139 -0.015761696 -0.12293107 0.09312167 -0.05779443 -0.1582718 -0.05517562 -0.04624125 -0.0010922252 0.14672227 0.17227049 0.06776232 0.015801458 -0.021153308 -0.15253869 -0.083173305 -0.1287153 0.009598756 0.056741018 0.02761904 -0.00776335 -0.12224349 -0.094094254 0.023116853 0.06794893 0.13309886 -0.02269486 0.014693788 0.2240575 0.110860914 0.03187222 0.07400385 0.020796431 -0.1263188 -0.1239251 -0.033267397 -0.109376766 0.08499205 0.054832246 -0.11058733 -0.10555399 0.103026405 0.06552018 -0.009968175 -0.0680533 0.027929977 0.021138798 0.15180205 0.03893905 0.033725444 -0.12506866 0.007499181 -0.015396066 -0.065364175 -0.11421917 0.012238823 -0.04544785 -7.227715e-06 0.12536535 -0.004600982 -0.069892555 0.03016361 -0.032778915 -0.085052736 -0.100513294 -0.06709793 -0.060915984 0.04923203 -0.020546457 -0.016606718 -0.0645076 0.17866363 -0.098226056 0.08508943 -0.044291116 -0.048458736 0.1268509 -0.03689341 0.06445767 0.01694721 -0.0271439 -0.28456 -0.053943407 -0.111466795 0.021115432 -0.03513987 0.033989687 -0.13252418 -0.11763093 0.024139814 -0.019908113 -0.062000465 -0.058777373 -0.06989797 -0.11930802 -0.11424022 -0.21130303 0.006791077 -0.085819215 -0.16578461 0.0062167733 -0.09838547 -0.11940733 -0.08851894 -0.17050411 -0.10188203 -0.06656031 0.04059336 -0.15281387 -0.0041867336 -0.149091 -0.20756525 -0.094488256 -0.21764679 0.112904325 0.033203866 -0.00926392 0.0073945024 -0.04743288 -0.2407967 0.010923809 -0.018556254 -0.1863965 -0.0030217585 0.016262049
-0.048404843 -0.35309812 -0.05909944 -0.29628 -0.01735872 -0.15715013 -0.1296168 -0.21188578 0.0050376165 -0.29881138 -0.13234614 0.07587967 0.00067266903 -0.020852 0.18433583 0.30055383 -0.3708601 0.24674208 -0.1838687 -0.14355074 0.054092582 -0.009744256 -0.60868436 0.062168803 -0.19936077 0.022128314 0.28486586 -0.0053047314 -0.003023489 -0.075697474 -0.22383398 0.19295447 0.11644982 0.28412712 -0.11770694 -0.026451929 0.06768598 0.042901024 0.034812167 0.12794672 0.07258113 0.22999308 0.028853884 0.100769915 0.09648945 0.1522489 -0.21917926 0.091856435 -0.022876061 0.23368642 -0.14734752 -0.15154883 0.123829804 -0.19581366 -0.02323225 -0.055154666 0.08279772 -0.082863696 -0.21437453 -0.047271464 -0.06200266 -0.014472883 0.10295162 0.049112562 0.0787983 0.18997388 -0.33194393 0.4049202 -0.386452 0.008685117 0.4210018 0.028944744 0.066223286 0.04791196 -0.04096435 0.15747568 -0.19831511 -0.24594778 0.18145826 -0.24134567 0.16843674 0.04509939 0.1947946 -0.09044146 0.024468243 0.25709733 0.0517983 0.09986422 0.12178521 -0.048348032 -0.027940372 -0.17983861 0.21128766 0.07080443 -0.0042771427 -0.032758083 -0.021137187 -0.00832584 0.08871136 -0.29586315 0.15019493 -0.031027785 0.11493531 -0.11130685 -0.027191535 0.030140981 0.15132204 0.21110356 -0.08619854 0.39536044 0.26096374 0.07030334 -0.19763848 0.06753468 0.1597281 0.16476719 -0.18495314 -0.056999847 0.2065514 0.053526357 0.06435128 0.10059795 -0.10927674 -0.038176686 0.15550303 0.19347721 -0.08849424 0.09236992
0.0067945467 0.1301104 0.1370452 -0.0044429298 0.031090146 0.048843015 0.12445148 0.112337634 0.029319216 0.024081536 0.032101516 -0.065248646 -0.11157065 0.26341802 -0.0067551043 0.014415521 0.024857732 -0.23719914 -0.33575007 0.1336966 -0.09642943 0.084348634 -0.12707174 0.24245244 -0.010228124 0.1069111 -0.05149055 0.13413145 -0.16422135 0.13819101 -0.22205356 -0.1742826 -0.12071352 -0.18263684 -0.20215781 -0.0038287072 -0.1087082 -0.01932099 0.047422417 -0.17600821 0.041448537 -0.09060293 0.0016062867 0.10213563 0.23032846 0.038681254 -0.124655515 0.010616292 0.025605064 -0.039073445 0.070605725 0.16237338 -0.05635419 -0.04527418 0.07532411 -0.07913294 -0.19148412 -0.46990994 0.17300905 0.026560228 -0.28141275 -0.121737525 -0.3255093 -0.11910357 0.086268485 0.056931585 0.049366813 -0.47547403 0.32747036 0.16257316 -0.09648487 0.06627018 0.25455427 0.115401894 0.01594223 -0.036786806 -0.030351236 0.2512981 0.15526883 -0.2615005 -0.38132104 0.11466552 0.0023767543 -0.35881993 0.07258013 0.027924707 -0.15903686 -0.13389315 -0.08245033 -0.39040443 0.04182458 -0.076428376 -0.123076245 0.1112169 0.03294192 -0.529993 0.2162247 0.0028868276 0.025808886 0.42649242 -0.14073482 -0.23838565 -0.039079003 0.1292423 -0.20482777 0.35821867 -0.038458806 -0.047060773 0.3785336 0.18895406 -0.0130098555 -0.034427907 0.124369465 0.23597667 0.17980544 -0.103254244 -0.1589484 0.06528427 -0.40247378 -0.11051906 -0.009335015 -0.0392605 0.016670564 0.09831832 -0.05085475 0.058641214 0.037737105 0.08872542
-0.15320905 -0.07158657 0.0023124644 -0.035515655 -0.034567975 -0.012023334 -0.053269826 -0.0355232 -0.1565027 -0.2615156 -0.23210905 -0.030486763 0.10763273 -0.028999487 0.10614603 0.23555438 -0.12520798 -0.13108212 -0.14716488 -0.21580818 0.11094423 0.09190287 0.012043473 -0.10122949 -0.0746329 -0.10992911 0.10172941 0.02130316 0.029547898 -0.060381144 -0.051777016 -0.15873532 -0.08949846 0.029558063 0.14902921 -0.11249193 0.04673721 -0.006321964 0.05035537 -0.05173899 0.06909503 -0.0670789 0.07881605 -0.060061533 0.1076675 0.22723271 -0.12521234 -0.03428992 -0.01232956 0.07728909 0.041634012 0.106733054 -0.04331915 0.10308177 0.049022898 -0.10133649 0.12110261 -0.039712682 -0.044694044 -0.07120033 0.08299956 -0.15088244 0.2535842 -0.1257626 0.08815413 0.029388579 -0.06877555 -0.038249657 0.16054562 -0.0206333 -0.032579467 -0.10579385 -0.09468861 -0.08635127 -0.022856444 -0.07306809 0.08093463 -0.019550549 0.063680045 -0.020008044 -0.08353998 -0.055986512 -0.122009575 -0.027411655 -0.042815853 -0.094159186 -0.13040316 -0.07700163 0.007126781 0.046799332 -0.15673833 -0.20877872 -0.014788772 0.2243476 0.006551982 -0.055591926 -0.07221311 -0.17733663 0.044375043 0.058727063 0.009237124 -0.10530593 -0.10589867 -0.00032836257 0.0002866665 -0.13486084 0.03595525 -0.12077854 0.06377852 0.028715137 -0.0480861 0.16986194 -0.06377433 -0.12583585 0.25676003 0.12839441 -0.03601908 -0.061382603 -0.14446306 -0.13875455 -0.08156916 -0.010729598 -0.13176727 -0.086450435 -0.12223636 -0.16873424 -0.16058871 0.08353993
0.2011717 0.112269774 0.09670517 -0.119281046 0.016820539 0.12570634 -0.12696709 -0.096810326 0.1148813 -0.14448285 -0.043508593 0.10877165 0.067950465 -0.005172926 0.13591257 0.03903509 0.26785368 0.08250012 0.010630941 0.010517051 -0.0650662 -0.038680278 -0.10737549 -0.11126173 0.008113078 -0.075876765 -0.20683755 -0.0541761 0.04185486 0.008991042 0.021797648 0.19004785 -0.09075585 0.09763965 0.17080459 0.099993385 -0.027756698 -0.063345715 0.00969455 0.12632823 0.4643565 0.1633868 0.048977498 0.066698916 0.04767591 -0.22246933 0.02826616 -0.027867414 0.02825854 0.12836386 -0.070747 0.1430098 0.007438788 -0.116876625 -0.21818788 0.08673089 0.17216031 -0.12532704 -0.0077303527 0.020448418 0.09884861 -0.15823461 -0.19348778 -0.055465918 0.2121264 0.14039543 -0.11205285 0.15469688 0.026571313 0.11544803 -0.14226738 0.08854382 0.022267856 0.029756226 -0.21885635 -0.16276158 -0.011148595 -0.27597103 0.1427464 -0.14415202 -0.0066131568 -0.07144037 0.041607518 -0.15842009 0.061314557 0.07342377 -0.13702907 -0.09234635 -0.052058335 -0.006732385 0.25668532 0.12814023 0.08353986 -0.030143088 0.018102 -0.29812178 0.11823655 -0.009395949 -0.0629844 -0.056616716 -0.010912336 -0.042845868 -0.004560803 -0.20108974 0.036993776 -0.028489133 -0.059842117 0.07173017 -0.06335649 -0.05501188 0.064121574 0.0808067 -0.17091371 -0.058924023 -0.0071618347 0.05696159 -0.020746434 -0.11799214 0.02110121 0.038791254 0.10386951 -0.11295401 0.011472433 0.10523816 -0.050602477 -0.03810255 0.10119796 0.052367568
