-0.019899307 -0.18530795 0.050281692 -0.09599696 -0.26565847 0.048080046 -0.0744829 -0.0847431 -0.057139147 0.17161705 -0.09333634 -0.11305894 0.111903824 0.14762345 0.040564 0.049087245 -0.11492093 -0.25617322 -0.07085012 -0.06278558 -0.025085216
0.0019823206 0.021107506 -0.14532733 0.34777805 0.020289915 -0.06973491 0.09082286 0.09418265 0.20186022 -0.26827887 0.06544444 -0.024997054 0.04726783 -0.049989976 -0.024275439 0.112728864 -0.0136748515 0.117897764 -0.22517462 0.31504655 -0.14482777
0.0025636982 0.097494334 -0.21979746 0.016282009 -0.053894226 -0.014078283 -0.007620433 -0.028013062 -0.21572247 0.3198555 0.449854 -0.27190357 0.023315791 0.012225702 -0.008589827 0.018941823 -0.27994287 -0.14242482 0.0056876675 -0.11369395 -0.0032596875
0.10188636 -0.15050967 -0.05715159 -0.035421822 0.07123358 -0.011613446 0.030337142 -0.0418966 0.025304455 0.16260433 0.07530562 -0.012960336 -0.17448881 0.08008489 -0.019577103 0.012440622 -0.070016086 -0.26949832 0.058795925 0.08461638 -0.3863034
0.00063506496 -7.1921975e-05 0.004702528 -0.19298413 0.020573335 0.07138137 -0.020033075 -0.00031255357 -0.010165909 0.005987675 1.469584 -0.22434828 0.07916765 0.02764633 0.0027835544 0.0030771676 -0.04581723 -0.35680676 -0.11461123 -0.077027455 -0.0061738337
-0.004440553 -0.25359738 -0.06119876 -0.07398284 0.19494613 -0.06737106 -0.020730117 -0.039583318 -0.32835558 -0.11550289 0.14726907 -0.048940714 0.28268638 -0.008256481 0.06404301 -0.042005286 0.18983866 0.022789551 0.2064121 -0.22772306 -0.016017523
0.05553112 -0.06316378 0.043391358 -0.040359374 -0.022027513 0.023567809 -0.11548279 0.06221182 0.10622302 -0.33520836 -0.062790245 -0.020765746 0.039905734 -0.15068646 0.08309673 0.13096692 0.05011802 0.12759243 0.017264338 -0.048114516 -0.022353426
0.0073836227 -0.09833649 0.20868771 0.0517405 -0.21976201 -0.0016626004 -0.017695794 0.004905881 -0.1600145 0.19753142 0.013614141 0.12931074 0.39843446 0.0071941298 0.015519037 0.15153676 -0.045845937 0.10839093 0.37921575 0.06753594 -0.010781797
0.0026019916 0.028067002 -0.039158255 -0.2655076 -0.18386057 -0.33373502 -0.027205331 -0.00475358 -0.018410515 0.04767005 1.1641611 0.16348872 0.10514809 0.017676193 0.004566393 0.009587671 -0.0049936674 -0.08193433 0.6255573 0.09621163 -0.01098482
-0.00026086508 -0.008752547 -0.0029185778 -0.00893944 -0.0017824632 -0.003878353 -0.29429606 0.0013249184 0.0145731075 0.00796796 -0.049491692 0.0037097586 0.09448817 -0.5782106 0.0004483471 0.0043874686 -0.0027589567 0.023228355 -0.008758306 -0.12172766 0.76223475
-0.028028697 0.07016078 0.05832219 -0.1049819 -0.04807842 0.20364146 -0.21022034 0.035592735 -0.20576686 -0.12607735 0.055066142 0.090485476 0.19714817 -0.07684941 -0.01752609 0.0043001254 -0.079232074 0.033466868 0.10885203 -0.00095955457 0.08409431
0.03407704 -0.19669928 -0.31739154 0.1042762 -0.058470123 -0.018263502 -0.041526135 -0.0900387 -0.06862459 0.27912995 0.124073125 0.35288915 -0.17845047 0.10035158 0.037343428 -0.08939047 0.04709192 0.054997932 -0.6359288 -0.34321213 0.027712332
-0.0009023439 -0.0547969 0.036765434 -0.14619681 -0.14970517 0.089957565 0.0928843 0.07031905 0.19492741 0.08588495 -0.061496492 -0.091277555 0.18218648 0.40681425 -0.050872244 0.21889018 -0.0881973 0.08408624 -0.055201657 -0.079570815 0.16752127
-0.00018649452 -0.032337956 0.01786227 -0.053749274 0.014285862 -0.04872392 0.1492966 -0.0019044152 0.0401053 -0.0522444 0.1764367 0.1534309 0.19930734 -0.19475259 0.0018692934 0.08322444 -0.029168725 -0.0011542212 0.03620659 -0.2642375 -0.17108065
0.004290836 -0.016327297 -0.21721989 0.13318755 0.021287814 0.24145693 -0.030550651 0.13331695 0.34434703 -0.5817594 0.20221674 0.0067337034 0.23431867 0.0594468 -0.0040235342 -0.26319334 -0.1839706 0.41434115 -0.23710899 0.019573353 0.008048497
-0.0024569102 0.023646865 0.017446691 -0.044741984 0.14526497 0.0948521 0.052249808 -0.00047096197 0.32634658 0.08700085 0.010126487 -0.072125085 0.22156832 -0.14684059 -0.044792518 0.116638236 -0.17834409 0.21682346 0.11275174 0.2783339 0.054218978
0.01668743 -0.085207485 0.066483736 -0.08514458 0.0035865218 -0.018191768 0.05639407 -0.10767971 0.082444325 0.058546674 0.06212919 0.12660243 0.09005212 0.25328666 0.050519183 -0.044584155 0.1700285 -0.29499203 -0.012688967 -0.1792777 0.24049221
0.0020419946 0.012825003 0.0006507751 0.034838416 -0.00042091237 -0.5171328 -0.005092306 -0.0025052202 -0.02493148 0.0015471807 -0.064897835 0.0068016066 -0.33286184 0.467209 0.001116816 0.018844608 -0.012017133 -0.008131704 0.014304436 0.795689 -0.63893133
-0.001452803 -0.04015689 -0.0053056176 -0.22123568 -0.010068513 -0.025069954 -0.43753123 0.0011715338 0.040506016 0.0067430413 0.19914775 0.012517445 0.044184968 0.4579122 0.00029607836 0.017045444 -0.0005799507 0.25731045 0.010898649 -0.16584477 -0.45824414
0.003655564 0.13766979 -0.04923874 -0.046588793 -0.07806679 0.05164441 -0.056032144 0.0011055083 0.12920092 0.031105086 -0.06585601 -0.15934254 0.23905519 0.18675993 0.018217284 0.086652644 0.16821101 -0.081597984 -0.05345046 0.1350663 0.025895003
-0.019935766 -0.1632308 -0.04729192 0.08945235 0.054285288 0.15938033 0.1649198 -0.0307714 0.10019382 -0.0869388 -0.103964925 -0.012665609 0.046614986 0.24049169 -0.011024021 0.04139079 -0.021290967 0.12342053 0.24405403 -0.046698354 0.10688434
-0.003731734 0.03902712 0.019818353 -0.09532868 0.038600083 0.1348286 -0.0005457801 -0.005516343 0.24077256 0.030917957 0.93113583 -0.268927 -0.04261477 -0.018360395 -0.03180452 -0.22850895 0.51575446 -0.6020255 -0.08789601 0.03596701 -0.014942946
-0.00078899716 -0.2424595 -0.050601553 0.015313948 -0.22966196 -0.038497753 0.013788475 0.02702737 -0.23935409 0.084816806 0.25204128 -0.123885095 -0.24100988 -0.03415746 0.042119462 -0.011148302 -0.8490573 0.039314035 0.002933748 -0.0810855 0.036917713
0.004279897 -0.008359804 -0.19159631 0.20059375 -0.030963423 0.014183117 -0.05855982 -0.017557727 -0.037912067 0.031638827 -0.21091306 -0.114698805 -0.078998014 -0.16578586 -0.015905013 -0.11318258 0.35046408 -0.2770684 0.11154318 -0.13213313 -0.1814183
-0.07162934 0.06278725 -0.028593808 -0.017711734 -0.0022506365 -0.15615743 -0.32960683 0.15217708 -0.12500039 0.09012965 -0.1285013 -0.02850656 0.04411706 -0.21875322 -0.03176853 0.015567466 -0.051250283 -0.09365192 0.053397536 -0.14064552 -0.2730591
-0.015027109 0.04205197 -0.0064955326 0.08619262 0.028523818 0.029989254 0.005496134 -0.064102925 0.491875 0.81149393 -0.042033404 -0.071352445 -0.014262524 -0.0049882424 -0.004108658 0.07053036 0.46226037 -0.34926888 0.035620727 0.006279883 0.020819385
-0.031446625 0.023556536 0.058671147 -0.19310248 0.00071414106 0.167317 -0.025340326 -0.13880856 -0.3645474 0.11667755 0.07574467 -0.03168967 0.13428119 0.17473313 -0.07108449 -0.22460718 0.16320948 0.16359937 -0.3162116 -0.07786716 0.14770825
0.0001411869 -0.0167701 -0.01911368 0.16678707 -0.00086551555 -0.7170317 0.35658774 -0.0031529602 0.021740798 0.04110675 -0.27703646 -0.017568719 -0.2986524 -0.81881666 -0.00015738486 0.075992495 0.017271569 -0.07897457 -0.15836486 0.4053323 0.24707142
-0.06979622 -0.021312224 -0.06707627 -0.07253294 0.13305269 0.06462189 -0.095965676 0.1314408 0.028075567 -0.034995805 -0.17713381 -0.14509809 -0.058922276 0.39612797 0.029495189 0.17916134 0.19356582 0.09566041 0.016920814 -0.02955132 0.18633446
0.020898044 -0.1787196 -0.08751416 0.07970588 -0.035751723 0.08073482 0.16064164 -0.07881201 0.053590044 0.15661329 -0.04279437 0.14803104 0.102403514 -0.05977401 0.023704858 0.17408632 0.0063692094 0.18102881 -0.002948833 -0.104790896 0.2977425
0.0057156566 0.080392055 0.003728543 0.17383137 0.0150766885 -0.27918 -0.112169094 0.0013156947 -0.090181045 -0.020497598 -0.107106216 -0.038067922 -0.16336231 -0.22333519 -0.008691621 0.02325276 -0.011731959 -0.19153729 -0.07508325 0.04710533 -0.26574716
0.014421529 -0.061905097 -0.11034478 -0.05910222 -0.10801118 -0.08379409 0.11339591 -0.023181433 0.03869931 0.14399882 0.055408217 0.112690784 -0.14553465 0.41814664 -0.0030004152 -0.02386101 -0.17015484 0.089294575 -0.0023232053 -0.17752299 0.07822999
-0.002527056 0.104303814 -0.019447085 0.23324908 0.019147236 0.060857955 0.010300018 -0.012081183 -0.047824427 0.11091424 -0.25904784 -0.024518535 0.25306037 0.0069119353 -0.021198003 0.1978605 -0.036654394 -0.14320455 -0.015187117 -0.16896081 -0.16659051
0.0056456267 0.0008430028 -0.007878926 -0.14666404 -0.010567167 0.14336242 -0.11965546 -0.008865057 0.02715768 0.056545425 -0.10990439 0.0063988776 0.29740223 0.027245147 0.0029535298 0.047906876 0.0023038883 0.10613793 0.044245824 -0.107693285 0.12331418
-0.011260174 0.1275699 -0.19923975 -0.26273054 0.023552205 -0.12876268 -0.09854405 0.016289303 0.22121093 0.02750468 0.056599967 -0.1790639 0.044172592 0.4798291 -0.0031004318 -0.10568429 0.1414314 0.13326806 -0.10123004 0.07698283 -0.02513143
0.004648941 -0.37910852 -0.0265178 -0.039413337 0.019581027 -0.041272957 -0.021728242 -0.040391635 -0.16643241 0.29463527 -0.055271048 0.29419908 0.19108373 0.0655051 0.027133139 0.056057204 0.3277874 0.27536812 -0.102383375 0.31563234 -0.024225404
0.00036979953 0.048294425 -0.0053713135 -0.14790905 0.019136881 0.09113274 0.12415303 -0.0032528592 -0.045121253 0.008732271 0.3604519 -0.057461623 0.13137023 -0.39797777 0.0023337915 -0.1220358 -0.0028683757 0.07284945 -0.022454193 0.0123972315 -0.41542485
0.005433596 -0.014211092 -0.0022403395 0.20707226 -0.0063077086 -0.07952153 -0.25688493 -0.0138235865 0.017093336 0.004791891 -0.0075854184 0.025290584 -0.054221466 -0.5775174 -0.00066071237 -0.013937034 -0.0015280967 -0.23360921 0.0099576395 -0.09934413 -0.44137532
0.022806633 -0.12438557 -0.12782735 0.07255916 -0.08685082 0.17467895 -0.20516515 0.06425333 0.06452633 0.028691303 -0.057507467 0.0027218442 0.27117863 -0.0830865 -0.029595057 0.094130635 0.00631101 0.06512677 -0.10405094 0.0062547047 -0.1349086
-0.023416683 0.0680006 -0.014691882 0.076645695 0.022259613 0.12988491 -0.09742962 0.03933213 -0.000639474 0.044423122 -0.2961398 -0.080577396 0.46124688 -0.059313435 -0.015967561 -0.074850276 0.12612775 -0.06513342 -0.13617392 -0.27878407 -0.2576574
0.011375887 -0.0872936 -0.2641658 0.021366024 -0.013249214 -0.0916347 0.044403818 0.04780446 -0.35730845 -0.18192302 -0.086159244 0.2992058 -0.037144903 -0.06451022 0.0015383506 -0.26334664 0.07529415 -0.2268295 0.06591997 0.33554673 0.0021968044
0.007718535 0.07270225 -0.03222499 0.073755145 -0.20861942 0.22744742 -0.07464701 -0.02861025 0.14270121 0.1499936 -0.03805012 -0.22764362 -0.03149416 0.16056886 -0.006059177 0.025886126 0.26412663 -0.1657509 -0.019559184 -0.039011896 0.05983587
-0.060091358 -0.122945786 -0.095070295 -0.17384456 -0.012987745 0.07105839 -0.0065269643 0.062350754 0.12467222 -0.086511694 -0.010286808 -0.05215823 0.113420404 -0.1888936 -0.021369295 0.042575523 -0.28286165 0.12925549 0.037020173 -0.14915301 -0.27937958
-0.012433809 -0.033674072 -0.013131445 -0.11704444 -0.010845802 0.01989249 -0.21928148 0.00804458 0.03277345 0.046623267 -0.036063705 0.096773066 0.02482172 -0.35067225 -0.005530977 -0.011308647 -0.013148098 0.23687856 0.09618769 -0.034380548 -0.26773155
0.013837162 0.00627029 0.0068122256 0.12655248 0.014348083 0.13688545 -0.28626812 -0.021954516 0.008772001 -0.015334715 -0.09628809 -0.036743954 0.27391648 -0.3061777 -0.00605008 -0.025213033 0.016279165 -0.11094313 -0.0493438 -0.2623143 -0.34684882
0.04671257 -0.14023241 -0.2911507 -0.06004997 -0.08370008 0.13105422 -0.066559605 -0.07463699 -0.20339419 -0.1412108 -0.027484573 -0.060256377 0.0797881 0.14172995 0.01603703 0.0026957523 0.0061269025 -0.05201259 -0.5442031 -0.3613083 0.05469346
-0.007561669 -0.031733524 -0.28177094 0.028902093 0.0151794655 -0.041871987 0.010871556 0.066525705 -0.14723514 -0.19871785 0.13451675 -0.073897086 -0.047031615 -0.013303705 0.0020486398 0.2015118 0.37863374 -0.19712004 -0.12131443 -0.045724276 0.021432215
0.00025438104 -0.14717324 0.014113081 0.17977948 -0.08275304 -0.06289542 0.010348893 -0.017456464 0.056138877 0.026671866 -0.40870208 -0.18407561 0.052033298 -0.014015424 0.017736243 0.3844417 0.11286635 0.19653016 0.014390273 -0.005837109 -0.01634798
0.00037516662 -0.05950882 -0.00608151 0.2617145 -0.007770506 0.10602046 0.20069185 -0.0047061658 0.048334472 0.01839581 -0.36379626 0.039884582 0.05354684 -0.4997796 -0.004225652 0.15561146 0.006063806 -0.27825204 0.023542415 0.05407916 -0.31840172
-0.10881618 -0.07917358 0.10992155 0.077012755 0.08787642 -0.08613473 -0.048637386 0.04698784 0.1198119 0.073074654 0.06880753 -0.03918671 -0.07523108 0.34864467 0.054828204 0.034358203 0.12716553 0.14248213 -0.060338683 0.21782584 -0.08948951
0.028707888 0.07216542 -0.060658064 -0.034890432 0.021394575 0.078455344 -0.25901932 -0.09362155 -0.025505938 0.16923821 -0.17741956 -0.089789174 0.07503198 0.09244331 0.041227587 0.0027102723 0.034496307 0.19681068 -0.22982368 0.008169435 0.22466457
-0.0064967806 0.2731605 0.034696694 0.16432631 -0.08379571 0.09889892 -0.014764179 -0.0101454565 0.07271362 0.072381586 0.11520198 0.027836928 -0.09827118 -0.30171123 -0.019709764 -0.0062160157 0.18532553 -0.26331002 0.03830538 -0.13910075 0.113646515
0.0107787065 -0.011453722 -0.18093051 -0.033829775 -0.06550428 0.13716386 0.11608001 0.02443954 0.07349263 -0.052293807 -0.010449327 0.15605977 0.077128544 0.14781249 -0.0007880745 0.06201081 0.1969993 0.035360597 -0.1393714 -0.09299931 0.02748322
0.074432395 -0.13438578 -0.24225749 -0.0600878 0.11328299 0.07951423 -0.0077799717 0.056342676 -0.06553551 -0.21259704 0.01572823 0.020803485 0.123334214 -0.019248623 -0.043341093 -0.09328604 0.09888839 0.08070958 0.03357059 0.017578965 0.042572886
-0.005391864 0.046870686 -0.023335615 0.11695883 0.08305768 -0.059705008 0.33313373 -0.009819842 -0.01320269 0.010058531 -0.062428765 0.1648887 -0.1191352 0.15051204 -0.010578343 0.09816814 -0.017915774 0.23805383 -0.16536328 0.17247498 0.012823907
0.18851249 -0.10830864 0.073622786 0.40982506 -0.09134335 0.015367384 0.0021377676 0.1487035 0.075400844 -0.059967056 0.066679224 0.0049531655 -0.0112401815 -0.049974553 0.012834951 -0.11822279 -0.04892421 0.029923402 -0.04632375 -0.018907111 -0.16325137
0.03453428 -0.01091728 -0.08609643 -0.03868251 -0.013844452 -0.112047985 -0.13627157 -0.21492271 -0.012203736 -0.0181258 -0.15589164 -0.049113814 -0.010834218 -0.22540659 0.110539645 0.21012954 -0.05467963 0.0334179 -0.070094235 -0.09347797 -0.06595482
-0.01700596 0.05524606 -0.0831708 -0.018462459 0.02943961 0.14590073 0.006088376 0.041177895 -0.02535074 -0.09647086 0.27975017 0.04511316 0.10419156 0.46519208 -0.025201404 0.09857045 -0.027502855 -0.09054659 0.03283651 0.17967516 0.1633583
0.003343038 -0.030854069 -0.17413579 -0.05875303 -0.004333168 -0.22365955 0.025797784 -0.02825785 0.02308731 0.30071044 0.6209126 -0.24922775 -0.15126942 -0.05943141 0.0038459476 0.077780314 0.035583872 -0.2618764 0.21322986 0.08124354 0.011407793
-0.03839154 -0.014853785 0.066291295 0.01875535 0.12873572 -0.07982668 0.06301536 0.03274256 -0.13691072 0.2763192 -0.05815258 0.23004396 0.20989886 -0.16538458 0.002491322 0.05099581 0.0047621555 0.120039746 0.18042213 0.057983227 -0.028749406
-0.0021287166 -0.12387368 0.04783396 -0.08806944 0.0067468206 -0.100396745 0.011433579 -0.14252399 -0.59445566 1.1633817 0.477203 -0.14254333 -0.057018667 -0.029196078 0.023291554 -0.18865226 -0.80506915 -0.32091713 0.12012187 -0.10748312 -0.008139388
-0.018344685 -0.0301317 0.0066979215 -0.0663495 0.00924587 -0.1346342 0.092583105 0.09104455 0.046569504 0.006712877 0.0043967064 -0.12785164 0.040890202 0.3770007 0.029385064 -0.10329484 -0.03773054 0.04212008 0.1161019 -0.0650043 0.28389457
0.004080399 0.0070980014 0.005638183 0.121355094 0.0015378154 -0.27745596 -0.013165193 -0.0019180982 -0.010203367 -0.0110901175 -0.09023137 -0.0025142008 -0.5119191 0.37104815 -0.0018033396 0.0365109 -0.006204268 -0.09136278 -0.016160632 0.3996295 -0.54757243
0.013108809 0.099499054 0.1515166 0.12892191 0.1526046 0.2326143 0.06588214 -0.00974137 -0.012926271 0.18401115 -0.08174072 0.09631602 0.12143874 0.45420194 -0.0061986884 0.0960186 -0.093492895 -0.06020043 0.03169015 -0.09508965 0.11073388
-0.008384239 0.23272273 0.17538318 -0.20372407 0.047013093 -0.14059119 0.025415866 0.03970896 -0.036866684 -0.14780179 0.16269152 -0.09295969 -0.041528 -0.08331352 -0.019872181 0.01367361 0.06953948 0.14106993 -0.03580902 0.051585656 0.048419446
-0.0011761825 0.0022699325 0.009132251 -0.12920243 0.0018507938 -0.5550731 0.21968044 0.00042268846 -0.0034428136 -0.005129527 0.13594447 0.016296225 -0.36386523 -0.6559629 -0.001937546 -0.025119837 -0.017502625 0.11642256 0.10650978 0.38994297 0.32979962
0.001401458 0.078813486 -0.097134486 0.02481047 -0.12991141 0.28326228 0.014344941 -0.0018416452 -0.20268288 0.01502192 -0.019301606 -0.36686382 -0.20992695 0.008041586 0.019053657 -0.1756833 -0.29793805 0.09868996 -0.5005698 -0.114820145 0.000432464
0.007516737 0.15076484 -0.029617874 -0.16521707 0.007840567 -0.09060659 -0.027983615 -0.012636287 -0.18571575 0.07821051 0.6886386 -0.06772743 -0.001071005 0.025177937 -0.05135659 -0.36810583 0.0064665168 -0.2096044 0.005074135 -0.2035375 -0.023850182
0.01983518 -0.18403175 -0.03836315 -0.08259845 -0.06112215 0.043325357 -0.11507369 -0.07161825 -0.14682889 -0.044131845 -0.16092417 0.08278987 0.13363802 0.12071093 0.025479335 -0.0058009294 -0.09244747 -0.14696534 0.087458014 0.055681966 0.052653182
-0.004177651 0.15299954 -0.08658233 0.252782 0.0055793254 0.060009044 0.13598624 -0.09851095 -0.00501235 0.6010321 -0.27022514 0.03027484 0.08140818 -0.00069578976 -0.037432555 0.2196879 -0.329886 0.019048128 -0.0056413095 -0.017822968 0.17711498
0.0017406868 0.0022217948 -0.00539762 -0.10074796 -0.11600206 -0.0073664 0.0136917755 -0.08537212 -0.058070548 -0.12187978 0.0318936 0.084843546 0.15202883 -0.18340829 0.19217639 0.16400626 0.04626602 0.13419324 0.055064272 -0.08270715 0.0989272
0.011562172 -0.064044096 0.10760853 -0.080980554 0.00035917846 -0.14817384 0.14078613 -0.018170951 -0.0052236505 0.22125067 -0.11121465 0.05238383 0.16922693 -0.32018915 0.0013915775 0.15773201 -0.047570705 -0.17420368 -0.5803357 0.49937952 0.045891754
-0.09722728 0.10792023 0.051115677 0.2156021 0.01023697 0.279852 -0.0059819957 -0.098285526 0.13257974 0.788707 -0.048246004 0.26333496 0.08735799 0.017340904 0.06629581 0.0058377273 -0.20667252 -0.1339907 -0.04822814 -0.04158982 0.044591304
-0.004627246 0.009339061 -0.0035737169 -0.0030815026 -0.0142041445 -0.009609036 0.09960977 0.02988424 -0.008154054 -0.006733871 0.26622865 -0.009734752 0.07621291 -0.22113149 -0.0012505619 -0.00094066776 -0.0064246026 -0.17547542 0.18501808 0.27041954 -0.3563109
-0.006380804 0.225823 0.032849383 -0.21720457 0.03520786 -0.022205733 0.0017081235 0.01614002 -0.30305836 -0.14072828 0.28867197 -0.061737817 0.035415642 -0.031151963 -0.023212839 0.07549233 0.23550017 0.050179377 0.03689978 -0.0066149863 0.019846834
0.012463925 -0.07619626 0.022664307 0.04240129 -0.18951349 -0.0877121 -0.39137653 -0.037232455 -0.0096646845 0.16103119 0.16233452 -0.112396345 -0.11862437 0.25788042 0.012572322 -0.13856024 0.0066978172 -0.15453945 0.04979313 -0.108008206 -0.041808046
0.033677146 0.04580715 0.17275932 -0.1430128 0.17656764 -0.2791184 0.08777158 -0.1224346 -0.07430646 0.2839372 -0.16369002 0.22725661 0.11781781 -0.120628536 -0.016383428 -0.009599704 -0.25400376 0.004811138 0.29935536 -0.19443989 0.07720898
-0.0007557272 -0.0047523566 -0.008390908 -0.13183251 0.016587831 -0.009811425 -0.16116151 0.006530435 -0.007717558 -0.0001484345 0.064850725 -0.062466502 -0.032785747 -0.67393535 -0.013295673 0.07180636 -0.017837562 0.24959497 -0.009948416 0.017919116 0.033538915
0.017238136 0.17422847 0.18312179 0.07374733 -0.013968362 0.016979882 0.28652784 -0.056982312 0.0058576916 0.11736767 -0.037605595 -0.034827333 -0.12810656 0.09129327 -0.017826667 0.050196614 0.14455579 -0.18786803 0.054209914 -0.06231892 0.06564831
-0.01770726 0.1679845 0.016943207 0.09401948 -0.051172074 -0.07086747 0.041213453 -0.14301693 -0.073123544 -0.38388252 -0.11070846 -0.058204554 0.10524714 -0.064338386 -0.0069635813 -0.11588812 0.54343593 0.10064951 -0.10153532 -0.050862286 0.0213907
0.0029144601 0.053600114 0.0057618916 0.020004174 0.019371321 0.10088495 0.009019989 -0.0011652554 0.17810792 -0.17592342 -0.16066426 0.37637258 0.10279239 -0.010223765 -0.032771196 0.042086948 0.34628493 0.3701121 -0.37709785 -0.2974563 -0.013217591
-0.02297108 -0.056798685 0.013430834 -0.098805934 -0.03374903 -0.08948231 0.29862866 -0.0530848 -0.08698166 0.077714235 -0.037338838 0.10319832 -0.065577194 -0.08926002 0.0723081 -0.12646855 0.07337079 -0.15407048 -0.10733931 -0.003574872 -0.59367
-0.021520793 0.016620964 0.06447352 -0.06598288 -0.0005379462 0.09615501 -0.12322972 0.026806599 -0.057883993 0.23202963 0.19343914 -0.10616837 -0.037612524 0.28973645 -0.0050484356 -0.017278163 0.044149898 -0.2590791 -0.08632569 -0.088777766 0.1687931
-0.17872608 -0.25499916 -0.0643538 0.032390825 0.10412945 -0.15172131 -0.095586024 -0.035675973 0.037940674 0.14186876 0.04912279 -0.19721931 0.30062056 0.053679183 -0.061986595 0.122484155 -0.033201866 0.0030806207 -0.22779489 -0.11654096 -0.03608088
-0.005325843 -0.27926573 0.28860658 -0.12894717 0.07087878 -0.16903922 0.006985322 0.038834132 0.009109998 -0.410792 0.12341693 -0.08129206 0.027635407 -0.013606606 0.029665245 -0.11127242 -0.44866827 -0.27814204 0.7234095 0.1646603 -0.017574742
-0.001822049 -0.19578844 -0.13458253 -0.13273427 0.031857572 -0.068282306 -0.09164252 -0.013982772 -0.043094628 0.2338706 -0.060732313 -0.066215076 -0.07816349 -0.060872655 0.015897373 -0.05962951 0.07908539 0.07221424 -0.20421953 0.16420688 0.20704024
0.011007422 -0.17251626 0.17673162 -0.102772 0.23280731 0.2908825 -0.019816492 0.01313018 0.066976026 0.118464075 0.0742883 0.056533966 0.11738194 -0.06090096 -0.0027103552 0.0053180708 0.14542183 0.047367282 -0.03320169 0.17358468 0.009842879
0.113235556 0.064586125 -0.23892988 0.06060474 0.07287929 -0.036615644 -0.2307531 -0.11016118 -0.028063685 -0.10841242 0.038311653 -0.03529325 0.03750957 -0.07997689 0.0063196886 -0.13078111 -0.004205311 0.025264954 0.23072976 0.10550563 -0.13219951
0.026775528 -0.070111334 0.043998443 -0.15953113 0.023032611 0.002905752 -0.028719643 -0.026100548 0.13303633 -0.034126293 -0.07432918 -0.11599578 0.22934559 0.053965285 -0.024767257 0.00032845748 -0.115719825 0.21902023 0.016172582 -0.072763234 0.08092629
0.001014271 0.0026442874 0.0009947332 0.10571414 3.9144623e-05 -0.09116336 -0.1801589 -0.0020286124 -0.0017521805 -0.00034384284 -0.026390169 -0.001043358 0.005413688 0.2566993 0.00032734906 -0.0129525615 0.0027717522 -0.11986929 -0.0036613895 -0.1769417 -0.4632409
0.0046254476 -0.116744466 0.14230944 0.008860695 0.03152965 -0.09587242 0.036020588 -0.03736385 0.1908779 0.07926011 0.13731664 -0.034659058 0.09186158 0.6525071 0.0026929392 0.048108436 -0.11100366 -0.06036648 0.031228637 -0.11651296 0.36052588
-0.03347221 -0.122132294 0.03159629 0.094789706 0.26019466 0.13390882 0.037226107 -0.021643426 -0.1813615 -0.0028472268 -0.21001394 -0.17447156 0.16133076 0.17819884 0.03310994 -0.055914506 -0.08328117 -0.04518854 -0.11334285 0.06778389 0.25308016
0.00085501204 0.0064749704 0.1303883 0.08204346 0.008993271 -0.07576078 0.0057435706 -0.0024453886 -0.12173692 -0.32711738 -0.07045515 0.630823 0.42493588 -0.04282391 -0.011776376 0.27293694 -0.15547995 0.2539512 0.39261708 0.6071234 -0.037707668
-0.0041780593 -0.022840139 -0.0009622386 0.039272822 -0.00077167497 -0.19589543 0.09017582 0.005205023 0.036404923 0.01564028 -0.031957924 0.006013418 -0.8785455 0.28326672 0.00090956804 0.015544146 -0.00097108836 -0.009887069 -0.0023959863 0.17530543 -0.05812838
0.050267152 0.0010216668 -0.09507032 -0.020782745 -0.0037924415 0.033231348 0.040625606 0.22796956 0.049345348 -0.052620154 0.0071228608 -0.0011484085 0.0713749 0.023558347 0.03196389 0.0183547 -0.0020863933 0.08645644 0.06367298 -0.100779444 -0.24521653
-0.0027427257 -0.05442344 -0.077814125 0.052376725 -0.15454473 0.12004614 0.06288502 -0.006916034 0.08346715 0.15323313 -0.08187022 -0.13866876 0.19362168 0.29553738 0.020914033 -0.08510613 -0.024429874 -0.0320648 -0.21198481 -0.19013825 0.11990708
-0.00032058088 0.060895354 -0.009776461 0.102036394 -0.0046283803 0.08764232 -0.020333225 -0.0016129139 -0.60638946 0.028479878 0.76565063 0.021414736 0.1978503 0.024824789 0.09583788 -0.26868767 -0.78887224 -0.46082097 0.011182601 0.033343606 0.0010185891
0.0010263065 0.023680378 0.055754352 -0.0037071886 0.031753425 -0.05749493 -0.0095299035 0.031401895 -0.026246814 -0.65260786 1.1240757 -0.23608477 -0.051343042 0.02149122 -0.0013324639 -0.000101452075 -0.037335776 -0.28511438 -0.07458657 -0.14192194 -0.022869647
-0.0021294 -0.16653252 -0.0076953117 0.3204024 -0.00414282 -0.08767903 -0.021419143 0.012764294 0.72096384 -0.0036587939 0.75125694 -0.028054506 0.023953242 0.037642468 -0.073459335 -0.41155633 1.408852 -0.9722525 -0.018795937 -0.15445855 -0.013927988
0.1015146 0.03146959 0.20963514 -0.044350304 0.100989245 -0.12252889 -0.2207361 -0.031380326 -0.12279855 0.103571065 -0.33187646 0.13057381 -0.09664156 -0.18744224 0.037757374 0.31042963 -0.067858376 -0.07125327 0.1957731 -0.123448886 0.07950323
0.010082455 0.056931388 -0.01157233 0.05903598 -0.018650617 0.09582436 0.040417172 -0.01620665 -0.054910727 -0.01606226 -0.070010416 0.010131205 -0.069826014 0.4785695 -0.0048466516 -0.048428115 0.026291989 -0.059867885 -0.031199485 0.018635603 0.64789385
-0.00039694784 0.04565785 -0.029711755 0.1597973 0.0011124752 -0.03393535 -0.19108263 -0.06608992 0.096602194 0.24662703 -0.21584643 0.047811303 -0.046731077 -0.12389522 -0.0074923164 0.34831482 -0.19238217 0.31063813 -0.018040854 0.020314528 0.10969001
-0.10240926 -0.15142117 -0.09250528 0.075237304 0.048997097 0.050230652 -0.07631853 0.12103878 -0.113401055 0.13565147 -0.262862 -0.14972901 0.094381794 0.008284141 -0.0822163 0.09798745 0.18195131 0.07290273 -0.12930039 -0.11552975 0.24668393
0.005877897 -0.11679563 0.18349756 0.12965137 -0.022666339 -0.104406975 0.0020984863 0.07715744 -0.22820966 -0.9394463 -0.4683654 0.29900435 0.05863758 -0.009826456 -0.031475566 0.3680386 -0.117527105 0.40541986 0.12541078 0.09154226 3.651216e-05
0.001697371 0.113835625 0.005029693 0.32020974 0.0023395452 -0.09456807 0.286237 -0.011836614 -0.1326961 0.0012131585 -0.20147291 0.023872029 -0.1088337 0.37517175 -0.008135445 0.08386062 0.027219802 -0.19372924 0.019157305 -0.112850346 0.28867933
0.0076242946 -0.021318644 -0.025002072 0.035625942 -0.0013386259 -0.05121914 0.20077397 -0.026342854 -0.002236005 0.06014112 0.032171715 0.021956567 0.06855726 0.3247827 0.0046202326 -0.034253396 0.03435678 -0.024501767 -0.0074885264 0.09527557 0.55447084
-0.2254816 -0.11724581 -0.08937636 -0.20874627 -0.039977483 -0.08901184 -0.15846881 0.08524899 0.04332327 0.05523132 -0.095883176 -0.07887574 -0.03384006 -0.120316096 0.080555774 0.07921732 0.14378421 -0.043397784 0.0552849 0.14210132 -0.12909266
0.010033884 0.10781034 0.007841957 0.3316358 0.004133799 0.002478292 0.35398898 -0.023222268 -0.07136085 0.06705645 -0.3976276 -0.023955015 -0.06135627 -0.122055076 0.011148842 0.17587063 -0.060248602 0.13210185 -0.07352578 0.07623568 -0.78948545
0.0063956254 -0.2381767 -0.028144006 0.20114443 -0.0130532235 0.10458021 -0.012903277 0.08720458 -0.003980034 -0.15760176 -0.58926463 0.1385895 0.16295308 0.031491894 0.065534025 0.39851847 0.3872903 0.42960802 0.07509951 -0.14851862 -0.020824261
-0.002900594 0.22144029 0.008052299 0.030004164 0.101905115 0.26136333 -0.06853348 -0.0385659 -0.08376094 -0.111177295 -0.09706773 0.07378845 0.15124273 0.05281734 -0.012931843 -0.10112407 0.2296624 0.2540405 0.024483185 -0.04844877 0.10261266
-0.0016918129 0.038042754 0.023830893 -0.09654608 0.0036052528 0.07521079 0.0074453754 -0.004456574 -0.056325417 -0.06371139 -0.14893979 -0.01238233 0.20473869 0.5840351 0.006136884 -0.0062120506 0.009447164 0.11809524 -0.006756412 0.004348956 0.2022415
0.07311479 -0.026199315 0.16188623 -0.031422604 -0.14470917 -0.08233706 -0.038485706 -0.07195049 0.14331934 -0.059830654 -0.06500681 -0.13387142 0.017427262 -0.17063461 -0.04591488 0.07353514 0.1861736 0.028077967 0.012069033 -0.021962384 0.04270845
0.013573419 0.0820617 -0.23240171 -0.31980047 -0.028809855 0.2468275 0.058850575 0.024646156 -0.10088407 -0.22218154 -0.026193867 0.05477196 0.28542686 -0.1645764 0.059737235 0.104718804 0.102362566 0.21179101 0.1731694 0.089680746 -0.17436501
0.0037247723 0.034481768 -0.10106097 0.022804841 -0.006655401 -0.00409593 -0.07904678 0.047073007 0.177251 0.08911125 -0.18110903 0.029736444 0.037107818 -0.40231627 -0.024096036 -0.0053262855 0.2957401 0.20059834 0.012509152 -0.02830423 -0.16161372
-0.016570574 0.0016348183 0.07275511 -0.15323521 0.03929781 0.033610106 -0.22918595 0.038595956 0.06011829 0.10523271 -0.1691693 0.21970162 0.055858474 -0.07712153 0.021670436 0.04457881 0.07345363 -0.20714712 -0.18488713 -0.15101427 -0.23700204
-0.017806021 0.02454497 0.21970595 0.4949788 -0.029191848 -0.022287142 0.0020710055 0.08731626 -0.3810319 -0.38050234 -0.11313566 0.027039973 0.0034582987 -0.0073509193 0.020757502 -0.09085015 -0.44198117 -0.9111844 0.12005398 -0.16436352 -0.013017025
-0.00033642253 0.29505906 0.0034322117 0.21242096 -0.023536937 0.108517006 -0.03200875 -0.019697824 0.12141085 0.054309737 -0.40348533 0.07637695 0.13181451 0.049380895 -0.023119517 0.3319082 -0.55613816 -0.09035145 0.030504469 -0.040446106 0.006365472
0.00015762703 -0.2719049 -0.036304098 0.017183984 -0.03135917 -0.06716744 0.025770703 0.04858207 -0.47978562 -0.106142424 -0.18125913 -0.34891683 -0.18645653 -0.054027937 0.08527222 -0.014319691 0.5094617 0.16215786 0.008625892 0.19041735 0.0075200335
0.008801875 -0.22395249 -0.33144626 0.11260918 0.0879831 0.10156133 -0.010507838 -0.025961814 -0.27453363 0.14196543 -0.37115893 -0.04892996 0.1262744 0.01312144 0.044027768 0.0036831081 0.12805796 -0.14024983 -0.0826697 -0.11602109 -0.0068933475
-0.016130634 -0.115524076 -0.025420852 0.103705764 -0.036391586 0.1124633 -0.28929096 0.012231376 -0.14137998 -0.12179047 -0.04195301 -0.037418656 -0.0732329 -0.007263269 0.042698786 0.014170896 -0.49024016 -0.0724681 -0.14875698 0.0186387 -0.25006548
-0.0025604134 0.209336 -0.3617436 -0.033225078 -0.012969682 -0.18368964 0.01232217 0.037107535 0.22770998 0.010446894 -0.00866016 0.2737107 -0.31405625 -0.034921058 -0.03253281 0.16315117 0.076771885 0.049367458 0.025456293 0.15790772 0.0014226268
0.00061086233 0.0263768 -0.0077093807 0.09135299 0.0009955029 -0.32194003 -0.18106297 -0.001971618 -0.03340688 0.012279522 -0.026210472 -0.0014907616 -0.48761657 -0.5317012 -0.00019068459 0.0036892963 0.00582534 -0.08770116 -0.020775385 -0.010215649 1.166496
-0.005992481 0.034177586 -0.20507425 0.09836604 0.04745804 0.12646371 -0.0059216158 -0.068195164 -0.07943159 0.064531 -0.037573736 0.16848719 0.012163881 0.43594056 -0.029493414 -0.24372679 0.059388656 -0.16459987 0.1729954 0.16746011 0.038407784
-0.005643237 0.01386254 0.0697624 -0.09659826 0.17640479 0.061817896 0.0104872035 0.08147549 5.2780808e-05 0.01241765 0.11599556 0.13006248 0.08593608 0.26426375 0.02967452 0.008515497 -0.057615742 -0.043134257 0.106922574 -0.15026659 0.1464259
-0.06853937 0.1826213 -0.027070662 -0.07010113 -0.15287618 0.004944448 -0.16680117 0.0630101 0.15535094 -0.09242013 0.06810715 0.12999168 0.08781833 0.07738692 -0.110296465 -0.021520395 -0.0098568015 0.13136953 -0.2206643 0.20335373 0.010228631
-0.013421622 -0.019082341 0.07553174 0.13578421 -0.20505992 0.056460783 0.014107345 0.03656248 -0.22330786 0.16578054 0.13749176 -0.18100312 0.2952406 -0.018854043 0.0025432555 0.09244849 0.057705082 0.1555928 0.15656112 0.19610943 0.040625665
-0.022767447 -0.02733971 0.009036773 0.05467862 0.13458313 0.13684681 0.06409243 0.03427475 -0.081095695 0.13569383 -0.109892584 0.47184998 -0.1840327 -0.17997769 0.032538597 -0.06571206 -0.17782834 0.11966441 -0.6167357 -0.35554284 -0.06939373
-0.0047933613 -0.4616278 0.16993348 0.16475996 -0.047871433 0.22466034 -0.030535296 -0.00021765254 -0.12605827 0.02443833 -0.19248913 -0.21927914 -0.23748527 0.04086297 0.021188006 0.10274954 0.13828154 0.058455285 0.38877273 -0.37102595 0.031303238
