0.17194821 0.006285334 -0.05187813 0.0066233724 0.056979716 -0.0049615325 0.0632439 -0.022042554 -0.11920707 -0.05998135 0.2309034 0.025963558 0.14708345 0.16603552 0.096088834 0.16551872 0.016006056 -0.12567563 0.06830159 0.059104174 -0.08912386 0.01629221 -0.2207892 0.094607025 -0.1915947 0.19748577 -0.02270757 -0.16608033 0.2252059 0.15638566 -0.099089056 0.09027103 -0.08272704 0.09707946 0.03940805 0.064052366 -0.012479645 -0.054480124 -0.10452235 0.056163523 0.07514021 -0.21460952 0.09970804 0.0561973 0.059012007 0.00039093735 -0.12256033 0.1443842 0.22651099 0.106914245 0.023647608 0.14370413 -0.08546401 -0.11947311 0.27056396 -0.03698389 0.006722981 0.1511534 0.23371707 0.24628052 0.10012995 0.3363566 0.06952427 0.041690376 0.19991527 0.059769977 -0.1392499 -0.0049478216 0.16172053 -0.20823239 0.0028155413 0.0422688 -0.85290796 0.10406439 0.1637779 -0.103250675 0.092896685 0.1313895 -0.082666524 0.2767044 -0.056690507 0.12154227 0.120247096 -0.22633052 0.082560234 0.12980326 0.08146498 -0.038519047 -0.028117679 0.0396466 -0.11510704 0.12222207 -0.1298408 -0.0046725203 0.10002189 -0.12164322 0.096685804 0.15209721 0.26789573 -0.10320454 0.09318772 0.19185102 0.08765157 0.05635474 0.13430856 0.108930506 -0.29090166 -0.06434077 0.17892222 0.056095563 0.10991455 0.24695309 0.359056 0.11233242 -1.0030186 -0.005125272 0.063329935 -1.8335485 0.14710909 0.01524073 0.0668261 -0.21443184 0.040786237 0.15098844 0.03683189 0.036457878 0.11940398 -0.18870832
